{"learner":{"attributes":{"best_iteration":"994","best_score":"0.4492476722706214"},"feature_names":["CT1__X","CT1__Y","CT1__alive","CT1__armor","CT1__duck_amount","CT1__has_bomb","CT1__has_defuser","CT1__has_helmet","CT1__hp","CT1__is_scoped","CT1__is_walking","CT1__shots_fired","CT2__X","CT2__Y","CT2__alive","CT2__armor","CT2__duck_amount","CT2__has_bomb","CT2__has_defuser","CT2__has_helmet","CT2__hp","CT2__is_scoped","CT2__is_walking","CT2__shots_fired","CT3__X","CT3__Y","CT3__alive","CT3__armor","CT3__duck_amount","CT3__has_bomb","CT3__has_defuser","CT3__has_helmet","CT3__hp","CT3__is_scoped","CT3__is_walking","CT3__shots_fired","CT4__X","CT4__Y","CT4__alive","CT4__armor","CT4__duck_amount","CT4__has_bomb","CT4__has_defuser","CT4__has_helmet","CT4__hp","CT4__is_scoped","CT4__is_walking","CT4__shots_fired","CT5__X","CT5__Y","CT5__alive","CT5__armor","CT5__duck_amount","CT5__has_bomb","CT5__has_defuser","CT5__has_helmet","CT5__hp","CT5__is_scoped","CT5__is_walking","CT5__shots_fired","CT_alive","CT_armor_sum","CT_bomb_carrier_alive","CT_bomb_zone_count","CT_burning_players","CT_cash_spent_round_sum","CT_closest_enemy_dist","CT_damage_last_5s","CT_defuser_count","CT_defusing_count","CT_duck_amount_mean","CT_equip_value_sum","CT_flashed_players","CT_helmet_count","CT_hp_sum","CT_kills_last_3s","CT_macro_A","CT_macro_B","CT_macro_MID","CT_macro_OTHER","CT_mean_X","CT_mean_Y","CT_money_sum","CT_place_ADMIN","CT_place_ALLEY","CT_place_APARTMENTS","CT_place_ARAMP","CT_place_ARCH","CT_place_BACKALLEY","CT_place_BACKOFA","CT_place_BACKOFB","CT_place_BALCONY","CT_place_BANANA","CT_place_BDOORS","CT_place_BOMBSITEA","CT_place_BOMBSITEB","CT_place_BRICKS","CT_place_BRIDGE","CT_place_CANAL","CT_place_CATWALK","CT_place_CONNECTOR","CT_place_CONSTRUCTION","CT_place_CONTROL","CT_place_CRANE","CT_place_CTSIDEUPPER","CT_place_CTSPAWN","CT_place_DECK","CT_place_DECON","CT_place_DUMPSTER","CT_place_ELECTRICALBOX","CT_place_ENTRANCE","CT_place_EXTENDEDA","CT_place_FOUNTAIN","CT_place_GARAGE","CT_place_GRAVEYARD","CT_place_HEAVEN","CT_place_HELL","CT_place_HOLE","CT_place_HOUSE","CT_place_HUT","CT_place_HUTROOF","CT_place_IVY","CT_place_JUNGLE","CT_place_KITCHEN","CT_place_LADDER","CT_place_LIBRARY","CT_place_LOBBY","CT_place_LOCKERROOM","CT_place_LONGA","CT_place_LONGDOG","CT_place_LONGDOORS","CT_place_LOWERMID","CT_place_LOWERPARK","CT_place_LOWERTUNNEL","CT_place_MAIN","CT_place_MAINHALL","CT_place_MIDDLE","CT_place_MIDDOORS","CT_place_MINI","CT_place_OBSERVATION","CT_place_OUTSIDE","CT_place_OUTSIDELONG","CT_place_OUTSIDETUNNEL","CT_place_PALACEALLEY","CT_place_PALACEINTERIOR","CT_place_PIPE","CT_place_PIT","CT_place_PLAYGROUND","CT_place_QUAD","CT_place_RAFTERS","CT_place_RAMP","CT_place_RESTROOM","CT_place_ROOF","CT_place_RUINS","CT_place_SCAFFOLDING","CT_place_SECONDMID","CT_place_SECRET","CT_place_SHOP","CT_place_SHORTSTAIRS","CT_place_SIDE","CT_place_SIDEALLEY","CT_place_SIDEENTRANCE","CT_place_SIDEHALL","CT_place_SILO","CT_place_SNIPERSNEST","CT_place_SQUEAKY","CT_place_STAIRS","CT_place_STORAGEROOM","CT_place_STREET","CT_place_TMAIN","CT_place_TOPOFMID","CT_place_TRAMP","CT_place_TROPHY","CT_place_TRUCK","CT_place_TSIDELOWER","CT_place_TSIDEUPPER","CT_place_TSPAWN","CT_place_TSTAIRS","CT_place_TUNNEL","CT_place_TUNNELS","CT_place_TUNNELSTAIRS","CT_place_UNDERA","CT_place_UNDERPASS","CT_place_UNKNOWN","CT_place_UPPERPARK","CT_place_UPPERTUNNEL","CT_place_UPSTAIRS","CT_place_VENDING","CT_place_VENTS","CT_place_WALKWAY","CT_place_WATER","CT_round_start_equip_sum","CT_scoped_count","CT_shots_fired_sum","CT_spread_xy","CT_start_balance_sum","CT_unique_places","CT_velocity_mean","CT_walking_count","T1__X","T1__Y","T1__alive","T1__armor","T1__duck_amount","T1__has_bomb","T1__has_defuser","T1__has_helmet","T1__hp","T1__is_scoped","T1__is_walking","T1__shots_fired","T2__X","T2__Y","T2__alive","T2__armor","T2__duck_amount","T2__has_bomb","T2__has_defuser","T2__has_helmet","T2__hp","T2__is_scoped","T2__is_walking","T2__shots_fired","T3__X","T3__Y","T3__alive","T3__armor","T3__duck_amount","T3__has_bomb","T3__has_defuser","T3__has_helmet","T3__hp","T3__is_scoped","T3__is_walking","T3__shots_fired","T4__X","T4__Y","T4__alive","T4__armor","T4__duck_amount","T4__has_bomb","T4__has_defuser","T4__has_helmet","T4__hp","T4__is_scoped","T4__is_walking","T4__shots_fired","T5__X","T5__Y","T5__alive","T5__armor","T5__duck_amount","T5__has_bomb","T5__has_defuser","T5__has_helmet","T5__hp","T5__is_scoped","T5__is_walking","T5__shots_fired","T_alive","T_armor_sum","T_bomb_carrier_alive","T_bomb_zone_count","T_burning_players","T_cash_spent_round_sum","T_closest_enemy_dist","T_damage_last_5s","T_defuser_count","T_defusing_count","T_duck_amount_mean","T_equip_value_sum","T_flashed_players","T_helmet_count","T_hp_sum","T_kills_last_3s","T_macro_A","T_macro_B","T_macro_MID","T_macro_OTHER","T_mean_X","T_mean_Y","T_money_sum","T_place_ADMIN","T_place_ALLEY","T_place_APARTMENTS","T_place_ARAMP","T_place_ARCH","T_place_BACKALLEY","T_place_BACKOFA","T_place_BACKOFB","T_place_BALCONY","T_place_BANANA","T_place_BDOORS","T_place_BOMBSITEA","T_place_BOMBSITEB","T_place_BRICKS","T_place_BRIDGE","T_place_CANAL","T_place_CATWALK","T_place_CONNECTOR","T_place_CONSTRUCTION","T_place_CONTROL","T_place_CRANE","T_place_CTSIDEUPPER","T_place_CTSPAWN","T_place_DECK","T_place_DECON","T_place_DUMPSTER","T_place_ELECTRICALBOX","T_place_ENTRANCE","T_place_EXTENDEDA","T_place_FOUNTAIN","T_place_GARAGE","T_place_GRAVEYARD","T_place_HEAVEN","T_place_HELL","T_place_HOLE","T_place_HOUSE","T_place_HUT","T_place_HUTROOF","T_place_IVY","T_place_JUNGLE","T_place_KITCHEN","T_place_LADDER","T_place_LIBRARY","T_place_LOBBY","T_place_LOCKERROOM","T_place_LONGA","T_place_LONGDOG","T_place_LONGDOORS","T_place_LOWERMID","T_place_LOWERPARK","T_place_LOWERTUNNEL","T_place_MAIN","T_place_MAINHALL","T_place_MIDDLE","T_place_MIDDOORS","T_place_MINI","T_place_OBSERVATION","T_place_OUTSIDE","T_place_OUTSIDELONG","T_place_OUTSIDETUNNEL","T_place_PALACEALLEY","T_place_PALACEINTERIOR","T_place_PIPE","T_place_PIT","T_place_PLAYGROUND","T_place_QUAD","T_place_RAFTERS","T_place_RAMP","T_place_RESTROOM","T_place_ROOF","T_place_RUINS","T_place_SCAFFOLDING","T_place_SECONDMID","T_place_SECRET","T_place_SHOP","T_place_SHORTSTAIRS","T_place_SIDE","T_place_SIDEALLEY","T_place_SIDEENTRANCE","T_place_SIDEHALL","T_place_SILO","T_place_SNIPERSNEST","T_place_SQUEAKY","T_place_STAIRS","T_place_STORAGEROOM","T_place_STREET","T_place_TMAIN","T_place_TOPOFMID","T_place_TRAMP","T_place_TROPHY","T_place_TRUCK","T_place_TSIDELOWER","T_place_TSIDEUPPER","T_place_TSPAWN","T_place_TSTAIRS","T_place_TUNNEL","T_place_TUNNELS","T_place_TUNNELSTAIRS","T_place_UNDERA","T_place_UNDERPASS","T_place_UNKNOWN","T_place_UPPERPARK","T_place_UPPERTUNNEL","T_place_UPSTAIRS","T_place_VENDING","T_place_VENTS","T_place_WALKWAY","T_place_WATER","T_round_start_equip_sum","T_scoped_count","T_shots_fired_sum","T_spread_xy","T_start_balance_sum","T_unique_places","T_velocity_mean","T_walking_count","alive_diff","armor_diff","bomb_events_last_5s","bomb_planted","centroid_distance_xy","closest_enemy_dist_diff","damage_diff_last_5s","equip_diff","hp_diff","kill_diff_last_3s","money_diff","round_num","seconds_in_round","spread_diff"],"feature_types":["float","float","int","float","float","int","int","int","float","int","int","float","float","float","int","float","float","int","int","int","float","int","int","float","float","float","int","float","float","int","int","int","float","int","int","float","float","float","int","float","float","int","int","int","float","int","int","float","float","float","int","float","float","int","int","int","float","int","int","float","int","int","int","int","int","int","float","float","int","int","float","int","int","int","int","int","int","int","int","int","float","float","int","int","int","int","int","int","int","int","int","int","int","int","int","int","int","int","int","int","int","int","int","int","int","int","int","int","int","int","int","int","int","int","int","int","int","int","int","int","int","int","int","int","int","int","int","int","int","int","int","int","int","int","int","int","int","int","int","int","int","int","int","int","int","int","int","int","int","int","int","int","int","int","int","int","int","int","int","int","int","int","int","int","int","int","int","int","int","int","int","int","int","int","int","int","int","int","int","int","int","int","int","int","int","int","int","int","int","int","int","int","int","float","float","int","int","float","int","float","float","int","float","float","int","int","int","float","int","int","float","float","float","int","float","float","int","int","int","float","int","int","float","float","float","int","float","float","int","int","int","float","int","int","float","float","float","int","float","float","int","int","int","float","int","int","float","float","float","int","float","float","int","int","int","float","int","int","float","int","int","int","int","int","int","float","float","int","int","float","int","int","int","int","int","int","int","int","int","float","float","int","int","int","int","int","int","int","int","int","int","int","int","int","int","int","int","int","int","int","int","int","int","int","int","int","int","int","int","int","int","int","int","int","int","int","int","int","int","int","int","int","int","int","int","int","int","int","int","int","int","int","int","int","int","int","int","int","int","int","int","int","int","int","int","int","int","int","int","int","int","int","int","int","int","int","int","int","int","int","int","int","int","int","int","int","int","int","int","int","int","int","int","int","int","int","int","int","int","int","int","int","int","int","int","int","int","int","int","int","int","int","float","float","int","int","float","int","int","int","int","int","float","float","float","int","int","int","int","int","float","float"],"gradient_booster":{"model":{"cats":{"enc":[],"feature_segments":[],"sorted_idx":[]},"gbtree_model_param":{"num_parallel_tree":"1","num_trees":"1045"},"iteration_indptr":[0,1,2,3,4,5,6,7,8,9,10,11,12,13,14,15,16,17,18,19,20,21,22,23,24,25,26,27,28,29,30,31,32,33,34,35,36,37,38,39,40,41,42,43,44,45,46,47,48,49,50,51,52,53,54,55,56,57,58,59,60,61,62,63,64,65,66,67,68,69,70,71,72,73,74,75,76,77,78,79,80,81,82,83,84,85,86,87,88,89,90,91,92,93,94,95,96,97,98,99,100,101,102,103,104,105,106,107,108,109,110,111,112,113,114,115,116,117,118,119,120,121,122,123,124,125,126,127,128,129,130,131,132,133,134,135,136,137,138,139,140,141,142,143,144,145,146,147,148,149,150,151,152,153,154,155,156,157,158,159,160,161,162,163,164,165,166,167,168,169,170,171,172,173,174,175,176,177,178,179,180,181,182,183,184,185,186,187,188,189,190,191,192,193,194,195,196,197,198,199,200,201,202,203,204,205,206,207,208,209,210,211,212,213,214,215,216,217,218,219,220,221,222,223,224,225,226,227,228,229,230,231,232,233,234,235,236,237,238,239,240,241,242,243,244,245,246,247,248,249,250,251,252,253,254,255,256,257,258,259,260,261,262,263,264,265,266,267,268,269,270,271,272,273,274,275,276,277,278,279,280,281,282,283,284,285,286,287,288,289,290,291,292,293,294,295,296,297,298,299,300,301,302,303,304,305,306,307,308,309,310,311,312,313,314,315,316,317,318,319,320,321,322,323,324,325,326,327,328,329,330,331,332,333,334,335,336,337,338,339,340,341,342,343,344,345,346,347,348,349,350,351,352,353,354,355,356,357,358,359,360,361,362,363,364,365,366,367,368,369,370,371,372,373,374,375,376,377,378,379,380,381,382,383,384,385,386,387,388,389,390,391,392,393,394,395,396,397,398,399,400,401,402,403,404,405,406,407,408,409,410,411,412,413,414,415,416,417,418,419,420,421,422,423,424,425,426,427,428,429,430,431,432,433,434,435,436,437,438,439,440,441,442,443,444,445,446,447,448,449,450,451,452,453,454,455,456,457,458,459,460,461,462,463,464,465,466,467,468,469,470,471,472,473,474,475,476,477,478,479,480,481,482,483,484,485,486,487,488,489,490,491,492,493,494,495,496,497,498,499,500,501,502,503,504,505,506,507,508,509,510,511,512,513,514,515,516,517,518,519,520,521,522,523,524,525,526,527,528,529,530,531,532,533,534,535,536,537,538,539,540,541,542,543,544,545,546,547,548,549,550,551,552,553,554,555,556,557,558,559,560,561,562,563,564,565,566,567,568,569,570,571,572,573,574,575,576,577,578,579,580,581,582,583,584,585,586,587,588,589,590,591,592,593,594,595,596,597,598,599,600,601,602,603,604,605,606,607,608,609,610,611,612,613,614,615,616,617,618,619,620,621,622,623,624,625,626,627,628,629,630,631,632,633,634,635,636,637,638,639,640,641,642,643,644,645,646,647,648,649,650,651,652,653,654,655,656,657,658,659,660,661,662,663,664,665,666,667,668,669,670,671,672,673,674,675,676,677,678,679,680,681,682,683,684,685,686,687,688,689,690,691,692,693,694,695,696,697,698,699,700,701,702,703,704,705,706,707,708,709,710,711,712,713,714,715,716,717,718,719,720,721,722,723,724,725,726,727,728,729,730,731,732,733,734,735,736,737,738,739,740,741,742,743,744,745,746,747,748,749,750,751,752,753,754,755,756,757,758,759,760,761,762,763,764,765,766,767,768,769,770,771,772,773,774,775,776,777,778,779,780,781,782,783,784,785,786,787,788,789,790,791,792,793,794,795,796,797,798,799,800,801,802,803,804,805,806,807,808,809,810,811,812,813,814,815,816,817,818,819,820,821,822,823,824,825,826,827,828,829,830,831,832,833,834,835,836,837,838,839,840,841,842,843,844,845,846,847,848,849,850,851,852,853,854,855,856,857,858,859,860,861,862,863,864,865,866,867,868,869,870,871,872,873,874,875,876,877,878,879,880,881,882,883,884,885,886,887,888,889,890,891,892,893,894,895,896,897,898,899,900,901,902,903,904,905,906,907,908,909,910,911,912,913,914,915,916,917,918,919,920,921,922,923,924,925,926,927,928,929,930,931,932,933,934,935,936,937,938,939,940,941,942,943,944,945,946,947,948,949,950,951,952,953,954,955,956,957,958,959,960,961,962,963,964,965,966,967,968,969,970,971,972,973,974,975,976,977,978,979,980,981,982,983,984,985,986,987,988,989,990,991,992,993,994,995,996,997,998,999,1000,1001,1002,1003,1004,1005,1006,1007,1008,1009,1010,1011,1012,1013,1014,1015,1016,1017,1018,1019,1020,1021,1022,1023,1024,1025,1026,1027,1028,1029,1030,1031,1032,1033,1034,1035,1036,1037,1038,1039,1040,1041,1042,1043,1044,1045],"tree_info":[0,0,0,0,0,0,0,0,0,0,0,0,0,0,0,0,0,0,0,0,0,0,0,0,0,0,0,0,0,0,0,0,0,0,0,0,0,0,0,0,0,0,0,0,0,0,0,0,0,0,0,0,0,0,0,0,0,0,0,0,0,0,0,0,0,0,0,0,0,0,0,0,0,0,0,0,0,0,0,0,0,0,0,0,0,0,0,0,0,0,0,0,0,0,0,0,0,0,0,0,0,0,0,0,0,0,0,0,0,0,0,0,0,0,0,0,0,0,0,0,0,0,0,0,0,0,0,0,0,0,0,0,0,0,0,0,0,0,0,0,0,0,0,0,0,0,0,0,0,0,0,0,0,0,0,0,0,0,0,0,0,0,0,0,0,0,0,0,0,0,0,0,0,0,0,0,0,0,0,0,0,0,0,0,0,0,0,0,0,0,0,0,0,0,0,0,0,0,0,0,0,0,0,0,0,0,0,0,0,0,0,0,0,0,0,0,0,0,0,0,0,0,0,0,0,0,0,0,0,0,0,0,0,0,0,0,0,0,0,0,0,0,0,0,0,0,0,0,0,0,0,0,0,0,0,0,0,0,0,0,0,0,0,0,0,0,0,0,0,0,0,0,0,0,0,0,0,0,0,0,0,0,0,0,0,0,0,0,0,0,0,0,0,0,0,0,0,0,0,0,0,0,0,0,0,0,0,0,0,0,0,0,0,0,0,0,0,0,0,0,0,0,0,0,0,0,0,0,0,0,0,0,0,0,0,0,0,0,0,0,0,0,0,0,0,0,0,0,0,0,0,0,0,0,0,0,0,0,0,0,0,0,0,0,0,0,0,0,0,0,0,0,0,0,0,0,0,0,0,0,0,0,0,0,0,0,0,0,0,0,0,0,0,0,0,0,0,0,0,0,0,0,0,0,0,0,0,0,0,0,0,0,0,0,0,0,0,0,0,0,0,0,0,0,0,0,0,0,0,0,0,0,0,0,0,0,0,0,0,0,0,0,0,0,0,0,0,0,0,0,0,0,0,0,0,0,0,0,0,0,0,0,0,0,0,0,0,0,0,0,0,0,0,0,0,0,0,0,0,0,0,0,0,0,0,0,0,0,0,0,0,0,0,0,0,0,0,0,0,0,0,0,0,0,0,0,0,0,0,0,0,0,0,0,0,0,0,0,0,0,0,0,0,0,0,0,0,0,0,0,0,0,0,0,0,0,0,0,0,0,0,0,0,0,0,0,0,0,0,0,0,0,0,0,0,0,0,0,0,0,0,0,0,0,0,0,0,0,0,0,0,0,0,0,0,0,0,0,0,0,0,0,0,0,0,0,0,0,0,0,0,0,0,0,0,0,0,0,0,0,0,0,0,0,0,0,0,0,0,0,0,0,0,0,0,0,0,0,0,0,0,0,0,0,0,0,0,0,0,0,0,0,0,0,0,0,0,0,0,0,0,0,0,0,0,0,0,0,0,0,0,0,0,0,0,0,0,0,0,0,0,0,0,0,0,0,0,0,0,0,0,0,0,0,0,0,0,0,0,0,0,0,0,0,0,0,0,0,0,0,0,0,0,0,0,0,0,0,0,0,0,0,0,0,0,0,0,0,0,0,0,0,0,0,0,0,0,0,0,0,0,0,0,0,0,0,0,0,0,0,0,0,0,0,0,0,0,0,0,0,0,0,0,0,0,0,0,0,0,0,0,0,0,0,0,0,0,0,0,0,0,0,0,0,0,0,0,0,0,0,0,0,0,0,0,0,0,0,0,0,0,0,0,0,0,0,0,0,0,0,0,0,0,0,0,0,0,0,0,0,0,0,0,0,0,0,0,0,0,0,0,0,0,0,0,0,0,0,0,0,0,0,0,0,0,0,0,0,0,0,0,0,0,0,0,0,0,0,0,0,0,0,0,0,0,0,0,0,0,0,0,0,0,0,0,0,0,0,0,0,0,0,0,0,0,0,0,0,0,0,0,0,0,0,0,0,0,0,0,0,0,0,0,0,0,0,0,0,0,0,0,0,0,0,0,0,0,0,0,0,0,0,0,0,0,0,0,0,0,0,0,0,0,0,0,0,0,0,0,0,0,0,0,0,0,0,0,0,0,0,0,0,0,0,0,0,0,0,0,0,0,0,0,0,0,0,0,0,0,0,0,0,0,0,0,0,0,0,0,0,0,0,0,0,0,0,0,0,0,0,0,0,0,0,0,0,0,0,0,0,0,0,0,0,0,0,0,0,0,0,0,0,0,0,0,0,0,0,0,0,0,0,0,0,0,0,0,0,0,0,0,0,0,0,0,0,0,0,0,0,0,0,0,0,0,0,0,0,0,0,0,0,0,0,0,0,0,0,0,0,0,0,0,0,0],"trees":[{"base_weights":[2.065546E-5,-1.1429048E0,7.3906094E-1,-1.6608998E0,-5.415591E-1,2.9401296E-1,1.4450194E0,-3.5459585E-2,-1.9873625E-2,-2.491689E-2,-3.897268E-3,1.0667115E-3,2.8101616E-2,2.1860689E-2,3.6739722E-2],"categories":[],"categories_nodes":[],"categories_segments":[],"categories_sizes":[],"default_left":[0,0,0,0,0,0,0,0,0,0,0,0,0,0,0],"id":0,"left_children":[1,3,5,7,9,11,13,-1,-1,-1,-1,-1,-1,-1,-1],"loss_changes":[6.461586E5,9.356494E4,1.45959E5,1.2049469E4,3.3945348E4,7.619909E4,2.4761562E4,0E0,0E0,0E0,0E0,0E0,0E0,0E0,0E0],"parents":[2147483647,0,0,1,1,2,2,3,3,4,4,5,5,6,6],"right_children":[2,4,6,8,10,12,14,-1,-1,-1,-1,-1,-1,-1,-1],"split_conditions":[-3.5E2,0E0,1E0,3.13E2,-1.01E4,1.415E4,2E0,-3.5459585E-2,-1.9873625E-2,-2.491689E-2,-3.897268E-3,1.0667115E-3,2.8101616E-2,2.1860689E-2,3.6739722E-2],"split_indices":[405,398,398,61,405,405,398,0,0,0,0,0,0,0,0],"split_type":[0,0,0,0,0,0,0,0,0,0,0,0,0,0,0],"sum_hessian":[7.6496506E5,3.003963E5,4.6456875E5,1.6137253E5,1.3902377E5,2.8494784E5,1.796209E5,1.3814878E5,2.3223748E4,4.5851832E4,9.317194E4,2.3422212E5,5.072573E4,9.465798E4,8.496293E4],"tree_param":{"num_deleted":"0","num_feature":"412","num_nodes":"15","size_leaf_vector":"1"}},{"base_weights":[4.078632E-4,-1.3863611E0,5.660135E-1,-1.620335E0,-5.660869E-1,1.159191E-1,1.4640924E0,-3.582629E-2,-2.4440693E-2,-1.5277806E-2,5.229787E-3,-6.6272484E-4,1.8900014E-2,1.786171E-2,3.386032E-2],"categories":[],"categories_nodes":[],"categories_segments":[],"categories_sizes":[],"default_left":[0,0,0,0,0,0,0,0,0,0,0,0,0,0,0],"id":1,"left_children":[1,3,5,7,9,11,13,-1,-1,-1,-1,-1,-1,-1,-1],"loss_changes":[5.998775E5,4.2512656E4,2.1958347E5,1.1716156E4,8.054198E3,4.47218E4,2.3690469E4,0E0,0E0,0E0,0E0,0E0,0E0,0E0,0E0],"parents":[2147483647,0,0,1,1,2,2,3,3,4,4,5,5,6,6],"right_children":[2,4,6,8,10,12,14,-1,-1,-1,-1,-1,-1,-1,-1],"split_conditions":[-4E1,3.13E2,1.04E2,-3.4E1,2.595E4,1E0,1.68E2,-3.582629E-2,-2.4440693E-2,-1.5277806E-2,5.229787E-3,-6.6272484E-4,1.8900014E-2,1.786171E-2,3.386032E-2],"split_indices":[399,61,399,406,71,398,399,0,0,0,0,0,0,0,0],"split_type":[0,0,0,0,0,0,0,0,0,0,0,0,0,0,0],"sum_hessian":[7.6477425E5,2.215517E5,5.4322256E5,1.7237369E5,4.9178016E4,3.6187294E5,1.8134964E5,1.2057672E5,5.179697E4,3.9692164E4,9.485852E3,3.0673622E5,5.5136727E4,5.1913285E4,1.2943634E5],"tree_param":{"num_deleted":"0","num_feature":"412","num_nodes":"15","size_leaf_vector":"1"}},{"base_weights":[-1.5116206E-4,-1.5138801E0,4.640675E-1,-1.6725944E0,-7.9384506E-1,4.706876E-2,1.3217022E0,-2.9205453E-2,-3.7385494E-2,3.157479E-2,-1.736776E-2,-5.7695853E-3,1.073358E-2,1.9279316E-2,3.5109878E-2],"categories":[],"categories_nodes":[],"categories_segments":[],"categories_sizes":[],"default_left":[0,0,0,0,0,0,0,0,0,0,0,0,0,0,0],"id":2,"left_children":[1,3,5,7,9,11,13,-1,-1,-1,-1,-1,-1,-1,-1],"loss_changes":[5.37271E5,2.0492469E4,2.0926206E5,6.110625E3,5.7493613E3,6.468462E4,2.9688031E4,0E0,0E0,0E0,0E0,0E0,0E0,0E0,0E0],"parents":[2147483647,0,0,1,1,2,2,3,3,4,4,5,5,6,6],"right_children":[2,4,6,8,10,12,14,-1,-1,-1,-1,-1,-1,-1,-1],"split_conditions":[0E0,3.13E2,1E0,1E0,1.08E2,4E0,2E0,-2.9205453E-2,-3.7385494E-2,3.157479E-2,-1.736776E-2,-5.7695853E-3,1.073358E-2,1.9279316E-2,3.5109878E-2],"split_indices":[398,61,398,401,260,73,398,0,0,0,0,0,0,0,0],"split_type":[0,0,0,0,0,0,0,0,0,0,0,0,0,0,0],"sum_hessian":[7.6455856E5,1.7943445E5,5.851241E5,1.4701464E5,3.2419807E4,3.937072E5,1.9141694E5,7.073849E4,7.627616E4,9.8112604E2,3.143868E4,2.336095E5,1.6009769E5,1.04923266E5,8.649368E4],"tree_param":{"num_deleted":"0","num_feature":"412","num_nodes":"15","size_leaf_vector":"1"}},{"base_weights":[-1.0056369E-3,-1.3400966E0,5.456249E-1,-1.4989489E0,-3.237247E-1,1.11580156E-1,1.4125193E0,-3.398827E-2,-2.206203E-2,-1.4626607E-2,4.9292166E-3,-5.494638E-4,1.4622298E-2,1.7144531E-2,3.2717787E-2],"categories":[],"categories_nodes":[],"categories_segments":[],"categories_sizes":[],"default_left":[0,0,0,0,0,0,0,0,0,0,0,0,0,0,0],"id":3,"left_children":[1,3,5,7,9,11,13,-1,-1,-1,-1,-1,-1,-1,-1],"loss_changes":[5.5942244E5,3.576278E4,2.0420398E5,1.5183344E4,6.964664E3,3.1156178E4,2.244375E4,0E0,0E0,0E0,0E0,0E0,0E0,0E0,0E0],"parents":[2147483647,0,0,1,1,2,2,3,3,4,4,5,5,6,6],"right_children":[2,4,6,8,10,12,14,-1,-1,-1,-1,-1,-1,-1,-1],"split_conditions":[-4E1,2.03E4,1.04E2,-3.6E1,4.01E2,5.9E1,1.68E2,-3.398827E-2,-2.206203E-2,-1.4626607E-2,4.9292166E-3,-5.494638E-4,1.4622298E-2,1.7144531E-2,3.2717787E-2],"split_indices":[399,71,399,406,74,406,399,0,0,0,0,0,0,0,0],"split_type":[0,0,0,0,0,0,0,0,0,0,0,0,0,0,0],"sum_hessian":[7.6422994E5,2.2152988E5,5.4270006E5,1.915817E5,2.9948172E4,3.6164178E5,1.8105827E5,1.2715396E5,6.4427746E4,1.7462516E4,1.2485658E4,2.9535844E5,6.628336E4,5.1953664E4,1.291046E5],"tree_param":{"num_deleted":"0","num_feature":"412","num_nodes":"15","size_leaf_vector":"1"}},{"base_weights":[-4.628514E-5,-1.0377547E0,7.095329E-1,-1.4777464E0,-3.8687348E-1,2.6122233E-1,1.4466532E0,-3.1771943E-2,-1.6418638E-2,-2.40954E-2,-4.1317856E-3,2.2419079E-3,1.9006196E-2,1.8731432E-2,3.2493718E-2],"categories":[],"categories_nodes":[],"categories_segments":[],"categories_sizes":[],"default_left":[0,0,0,0,0,0,0,0,0,0,0,0,0,0,0],"id":4,"left_children":[1,3,5,7,9,11,13,-1,-1,-1,-1,-1,-1,-1,-1],"loss_changes":[5.6227956E5,8.880291E4,1.4986192E5,1.3457281E4,1.84424E4,2.8978611E4,1.5558406E4,0E0,0E0,0E0,0E0,0E0,0E0,0E0,0E0],"parents":[2147483647,0,0,1,1,2,2,3,3,4,4,5,5,6,6],"right_children":[2,4,6,8,10,12,14,-1,-1,-1,-1,-1,-1,-1,-1],"split_conditions":[-1.5E2,-5.8E1,1.04E2,3.13E2,0E0,1E0,1.68E2,-3.1771943E-2,-1.6418638E-2,-2.40954E-2,-4.1317856E-3,2.2419079E-3,1.9006196E-2,1.8731432E-2,3.2493718E-2],"split_indices":[405,399,399,61,398,398,399,0,0,0,0,0,0,0,0],"split_type":[0,0,0,0,0,0,0,0,0,0,0,0,0,0,0],"sum_hessian":[7.635973E5,3.1009762E5,4.534997E5,1.8501506E5,1.2508256E5,2.8200244E5,1.7149727E5,1.5828605E5,2.6729023E4,2.2580674E4,1.0250189E5,2.3184148E5,5.016094E4,4.4387758E4,1.271095E5],"tree_param":{"num_deleted":"0","num_feature":"412","num_nodes":"15","size_leaf_vector":"1"}},{"base_weights":[5.696266E-4,-1.2905544E0,5.255917E-1,-1.6286701E0,-8.847632E-1,1.0775782E-1,1.3632826E0,-3.559924E-2,-2.8346492E-2,-1.18394755E-2,-3.3752162E-2,-6.377831E-4,1.7709132E-2,1.6659804E-2,3.1535503E-2],"categories":[],"categories_nodes":[],"categories_segments":[],"categories_sizes":[],"default_left":[0,0,0,0,0,0,0,0,0,0,0,0,0,0,0],"id":5,"left_children":[1,3,5,7,9,11,13,-1,-1,-1,-1,-1,-1,-1,-1],"loss_changes":[5.171335E5,3.0243219E4,1.8982684E5,3.8193125E3,2.3556695E4,3.9300332E4,2.0419531E4,0E0,0E0,0E0,0E0,0E0,0E0,0E0,0E0],"parents":[2147483647,0,0,1,1,2,2,3,3,4,4,5,5,6,6],"right_children":[2,4,6,8,10,12,14,-1,-1,-1,-1,-1,-1,-1,-1],"split_conditions":[-4E1,-1.15E2,1.04E2,-1E0,1E0,1E0,1.68E2,-3.559924E-2,-2.8346492E-2,-1.18394755E-2,-3.3752162E-2,-6.377831E-4,1.7709132E-2,1.6659804E-2,3.1535503E-2],"split_indices":[399,399,399,398,401,398,399,0,0,0,0,0,0,0,0],"split_type":[0,0,0,0,0,0,0,0,0,0,0,0,0,0,0],"sum_hessian":[7.6286156E5,2.2052794E5,5.423336E5,1.2027775E5,1.0025019E5,3.6185503E5,1.8047858E5,7.005283E4,5.0224918E4,7.347338E4,2.6776805E4,3.0677803E5,5.5077004E4,5.1818562E4,1.28660016E5],"tree_param":{"num_deleted":"0","num_feature":"412","num_nodes":"15","size_leaf_vector":"1"}},{"base_weights":[1.0694957E-3,-1.4163657E0,4.3326524E-1,-1.6205565E0,-9.249255E-1,4.6096615E-2,1.233107E0,-3.529034E-2,-2.8971246E-2,-1.4910618E-2,-3.475478E-2,-1.1430622E-2,6.9106454E-3,1.7938344E-2,3.2874055E-2],"categories":[],"categories_nodes":[],"categories_segments":[],"categories_sizes":[],"default_left":[0,0,0,0,0,0,0,0,0,0,0,0,0,0,0],"id":6,"left_children":[1,3,5,7,9,11,13,-1,-1,-1,-1,-1,-1,-1,-1],"loss_changes":[4.6689112E5,1.7854219E4,1.808641E5,3.0875625E3,7.611742E3,7.278704E4,2.6280312E4,0E0,0E0,0E0,0E0,0E0,0E0,0E0,0E0],"parents":[2147483647,0,0,1,1,2,2,3,3,4,4,5,5,6,6],"right_children":[2,4,6,8,10,12,14,-1,-1,-1,-1,-1,-1,-1,-1],"split_conditions":[0E0,1.435E4,1E0,-1E0,1E0,1.725E4,2E0,-3.529034E-2,-2.8971246E-2,-1.4910618E-2,-3.475478E-2,-1.1430622E-2,6.9106454E-3,1.7938344E-2,3.2874055E-2],"split_indices":[398,71,398,398,401,71,398,0,0,0,0,0,0,0,0],"split_type":[0,0,0,0,0,0,0,0,0,0,0,0,0,0,0],"sum_hessian":[7.6211506E5,1.780747E5,5.840404E5,1.2578679E5,5.228791E4,3.9355078E5,1.9048958E5,6.8421055E4,5.736573E4,4.285049E4,9.437425E3,1.2849714E5,2.6505366E5,1.0475285E5,8.573673E4],"tree_param":{"num_deleted":"0","num_feature":"412","num_nodes":"15","size_leaf_vector":"1"}},{"base_weights":[2.2442613E-4,-1.0161115E0,6.556965E-1,-1.4714289E0,-4.9292165E-1,2.6814765E-1,1.2751253E0,-2.4845472E-2,-3.4799602E-2,-2.2634849E-2,-3.6169537E-3,9.7153033E-4,2.5687585E-2,1.9212723E-2,3.258E-2],"categories":[],"categories_nodes":[],"categories_segments":[],"categories_sizes":[],"default_left":[0,0,0,0,0,0,0,0,0,0,0,0,0,0,0],"id":7,"left_children":[1,3,5,7,9,11,13,-1,-1,-1,-1,-1,-1,-1,-1],"loss_changes":[5.071939E5,7.110075E4,1.1110559E5,9.798625E3,2.7691504E4,6.3531062E4,1.9806969E4,0E0,0E0,0E0,0E0,0E0,0E0,0E0,0E0],"parents":[2147483647,0,0,1,1,2,2,3,3,4,4,5,5,6,6],"right_children":[2,4,6,8,10,12,14,-1,-1,-1,-1,-1,-1,-1,-1],"split_conditions":[-3.5E2,0E0,1E0,1E0,-1.01E4,1.415E4,2E0,-2.4845472E-2,-3.4799602E-2,-2.2634849E-2,-3.6169537E-3,9.7153033E-4,2.5687585E-2,1.9212723E-2,3.258E-2],"split_indices":[405,398,398,401,405,405,398,0,0,0,0,0,0,0,0],"split_type":[0,0,0,0,0,0,0,0,0,0,0,0,0,0,0],"sum_hessian":[7.6132656E5,2.9849378E5,4.6283278E5,1.5958888E5,1.389049E5,2.8471472E5,1.7811805E5,8.614231E4,7.3446555E4,4.5578E4,9.332691E4,2.3413716E5,5.0577574E4,9.4327734E4,8.379031E4],"tree_param":{"num_deleted":"0","num_feature":"412","num_nodes":"15","size_leaf_vector":"1"}},{"base_weights":[-7.016796E-5,-9.991045E-1,6.441293E-1,-1.3954527E0,-4.0033504E-1,2.2081144E-1,1.3322439E0,-3.3885915E-2,-2.3715513E-2,-4.994001E-3,-2.9488765E-2,1.885002E-3,1.7637964E-2,1.7084414E-2,3.0428406E-2],"categories":[],"categories_nodes":[],"categories_segments":[],"categories_sizes":[],"default_left":[0,0,0,0,0,0,0,0,0,0,0,0,0,0,0],"id":8,"left_children":[1,3,5,7,9,11,13,-1,-1,-1,-1,-1,-1,-1,-1],"loss_changes":[4.8891703E5,7.067297E4,1.3453375E5,1.12070625E4,1.9190475E4,2.3924902E4,1.58936875E4,0E0,0E0,0E0,0E0,0E0,0E0,0E0,0E0],"parents":[2147483647,0,0,1,1,2,2,3,3,4,4,5,5,6,6],"right_children":[2,4,6,8,10,12,14,-1,-1,-1,-1,-1,-1,-1,-1],"split_conditions":[-3.5E2,-6.1E1,1.01E2,-1E0,1E0,1E0,1.68E2,-3.3885915E-2,-2.3715513E-2,-4.994001E-3,-2.9488765E-2,1.885002E-3,1.7637964E-2,1.7084414E-2,3.0428406E-2],"split_indices":[405,399,399,398,401,398,399,0,0,0,0,0,0,0,0],"split_type":[0,0,0,0,0,0,0,0,0,0,0,0,0,0,0],"sum_hessian":[7.596659E5,2.9781094E5,4.618549E5,1.7918645E5,1.1862449E5,2.8595416E5,1.7590073E5,7.385306E4,1.053334E5,1.0404577E5,1.4578723E4,2.4001655E5,4.5937617E4,4.989106E4,1.2600968E5],"tree_param":{"num_deleted":"0","num_feature":"412","num_nodes":"15","size_leaf_vector":"1"}},{"base_weights":[-1.9679352E-5,-9.804002E-1,6.315448E-1,-1.344006E0,-3.7299266E-1,2.2902633E-1,1.1886396E0,-2.9459957E-2,-9.6569145E-3,-1.5460909E-2,-4.167082E-3,-6.107087E-4,1.664152E-2,3.2294918E-2,1.760795E-2],"categories":[],"categories_nodes":[],"categories_segments":[],"categories_sizes":[],"default_left":[0,0,0,0,0,0,0,0,0,0,0,0,0,0,0],"id":9,"left_children":[1,3,5,7,9,11,13,-1,-1,-1,-1,-1,-1,-1,-1],"loss_changes":[4.698785E5,6.566203E4,1.0349484E5,2.0652188E4,7.332213E3,4.1944066E4,2.5412531E4,0E0,0E0,0E0,0E0,0E0,0E0,0E0,0E0],"parents":[2147483647,0,0,1,1,2,2,3,3,4,4,5,5,6,6],"right_children":[2,4,6,8,10,12,14,-1,-1,-1,-1,-1,-1,-1,-1],"split_conditions":[-3.5E2,3.13E2,7.95E3,5E0,-1.1E1,4.9E1,7.15E3,-2.9459957E-2,-9.6569145E-3,-1.5460909E-2,-4.167082E-3,-6.107087E-4,1.664152E-2,3.2294918E-2,1.760795E-2],"split_indices":[405,61,405,406,406,406,270,0,0,0,0,0,0,0,0],"split_type":[0,0,0,0,0,0,0,0,0,0,0,0,0,0,0],"sum_hessian":[7.5885944E5,2.9732122E5,4.6153822E5,1.8597817E5,1.11343055E5,2.6795056E5,1.9358767E5,1.6174322E5,2.4234941E4,3.2451008E4,7.889205E4,1.8733003E5,8.062052E4,8.12396E4,1.1234808E5],"tree_param":{"num_deleted":"0","num_feature":"412","num_nodes":"15","size_leaf_vector":"1"}},{"base_weights":[-2.8555543E-4,-9.367541E-1,6.377245E-1,-1.346836E0,-3.5823137E-1,2.3158514E-1,1.3142055E0,-2.8981585E-2,-1.457324E-2,-4.298828E-3,-2.7714128E-2,1.97982E-3,1.698199E-2,1.6791752E-2,2.9634075E-2],"categories":[],"categories_nodes":[],"categories_segments":[],"categories_sizes":[],"default_left":[0,0,0,0,0,0,0,0,0,0,0,0,0,0,0],"id":10,"left_children":[1,3,5,7,9,11,13,-1,-1,-1,-1,-1,-1,-1,-1],"loss_changes":[4.5261838E5,7.282166E4,1.23790016E5,1.1342125E4,1.874577E4,2.3052389E4,1.3423844E4,0E0,0E0,0E0,0E0,0E0,0E0,0E0,0E0],"parents":[2147483647,0,0,1,1,2,2,3,3,4,4,5,5,6,6],"right_children":[2,4,6,8,10,12,14,-1,-1,-1,-1,-1,-1,-1,-1],"split_conditions":[-1.5E2,-6.1E1,1.04E2,3.13E2,1E0,1E0,1.68E2,-2.8981585E-2,-1.457324E-2,-4.298828E-3,-2.7714128E-2,1.97982E-3,1.698199E-2,1.6791752E-2,2.9634075E-2],"split_indices":[405,399,399,61,401,398,399,0,0,0,0,0,0,0,0],"split_type":[0,0,0,0,0,0,0,0,0,0,0,0,0,0,0],"sum_hessian":[7.575296E5,3.0696434E5,4.5056528E5,1.7962455E5,1.2733978E5,2.8154697E5,1.690183E5,1.5411956E5,2.5504988E4,1.11765805E5,1.5573977E4,2.3178908E5,4.9757887E4,4.4105562E4,1.24912734E5],"tree_param":{"num_deleted":"0","num_feature":"412","num_nodes":"15","size_leaf_vector":"1"}},{"base_weights":[1.0184344E-3,-9.46252E-1,6.0956705E-1,-1.3287014E0,-3.752745E-1,2.8538048E-1,1.4322343E0,-3.2505937E-2,-2.2433233E-2,-4.6287044E-3,-2.8158363E-2,1.8464003E-3,1.7553817E-2,3.1225888E-2,2.1469716E-2],"categories":[],"categories_nodes":[],"categories_segments":[],"categories_sizes":[],"default_left":[0,0,0,0,0,0,0,0,0,0,0,0,0,0,0],"id":11,"left_children":[1,3,5,7,9,11,13,-1,-1,-1,-1,-1,-1,-1,-1],"loss_changes":[4.357871E5,6.456478E4,1.2275031E5,1.08541875E4,1.7616262E4,3.7755754E4,6.0059375E3,0E0,0E0,0E0,0E0,0E0,0E0,0E0,0E0],"parents":[2147483647,0,0,1,1,2,2,3,3,4,4,5,5,6,6],"right_children":[2,4,6,8,10,12,14,-1,-1,-1,-1,-1,-1,-1,-1],"split_conditions":[-3.5E2,-6.1E1,1.54E2,-1E0,1E0,1E0,2E2,-3.2505937E-2,-2.2433233E-2,-4.6287044E-3,-2.8158363E-2,1.8464003E-3,1.7553817E-2,3.1225888E-2,2.1469716E-2],"split_indices":[405,399,399,398,401,398,260,0,0,0,0,0,0,0,0],"split_type":[0,0,0,0,0,0,0,0,0,0,0,0,0,0,0],"sum_hessian":[7.559506E5,2.956828E5,4.6026784E5,1.7706669E5,1.1861612E5,3.3017194E5,1.3009591E5,7.276098E4,1.043057E5,1.0412514E5,1.4490976E4,2.4901816E5,8.1153766E4,9.565034E4,3.4445566E4],"tree_param":{"num_deleted":"0","num_feature":"412","num_nodes":"15","size_leaf_vector":"1"}},{"base_weights":[4.9503625E-4,-9.041964E-1,6.152965E-1,-1.3634526E0,-4.0952027E-1,2.9301843E-1,1.4130301E0,-2.94167E-2,-1.626587E-2,-1.9878015E-2,-2.0415443E-3,2.0519798E-3,1.7161416E-2,3.0956687E-2,2.1846052E-2],"categories":[],"categories_nodes":[],"categories_segments":[],"categories_sizes":[],"default_left":[0,0,0,0,0,0,0,0,0,0,0,0,0,0,0],"id":12,"left_children":[1,3,5,7,9,11,13,-1,-1,-1,-1,-1,-1,-1,-1],"loss_changes":[4.1964162E5,6.934509E4,1.1548242E5,9.33875E3,2.640574E4,3.4425746E4,5.5701875E3,0E0,0E0,0E0,0E0,0E0,0E0,0E0,0E0],"parents":[2147483647,0,0,1,1,2,2,3,3,4,4,5,5,6,6],"right_children":[2,4,6,8,10,12,14,-1,-1,-1,-1,-1,-1,-1,-1],"split_conditions":[-1.5E2,0E0,1.54E2,1.725E4,-9.1E3,1E0,1.93E2,-2.94167E-2,-1.626587E-2,-1.9878015E-2,-2.0415443E-3,2.0519798E-3,1.7161416E-2,3.0956687E-2,2.1846052E-2],"split_indices":[405,398,399,71,405,398,260,0,0,0,0,0,0,0,0],"split_type":[0,0,0,0,0,0,0,0,0,0,0,0,0,0,0],"sum_hessian":[7.544519E5,3.0525634E5,4.4919556E5,1.5828564E5,1.4697069E5,3.1995194E5,1.2924361E5,1.3242133E5,2.5864322E4,5.0657727E4,9.631295E4,2.3931636E5,8.0635586E4,9.096863E4,3.8274984E4],"tree_param":{"num_deleted":"0","num_feature":"412","num_nodes":"15","size_leaf_vector":"1"}},{"base_weights":[5.2855197E-5,-1.137831E0,4.5691738E-1,-1.288208E0,-3.0291486E-1,1.6047256E-1,1.3741498E0,-2.1778507E-2,-3.197146E-2,-1.3159255E-2,3.6698713E-3,-4.1753548E-4,1.6346833E-2,3.0272411E-2,2.0186145E-2],"categories":[],"categories_nodes":[],"categories_segments":[],"categories_sizes":[],"default_left":[0,0,0,0,0,0,0,0,0,0,0,0,0,0,0],"id":13,"left_children":[1,3,5,7,9,11,13,-1,-1,-1,-1,-1,-1,-1,-1],"loss_changes":[3.9112312E5,2.7056719E4,1.4596522E5,1.12775625E4,5.684797E3,4.833058E4,6.6555938E3,0E0,0E0,0E0,0E0,0E0,0E0,0E0,0E0],"parents":[2147483647,0,0,1,1,2,2,3,3,4,4,5,5,6,6],"right_children":[2,4,6,8,10,12,14,-1,-1,-1,-1,-1,-1,-1,-1],"split_conditions":[-4E1,1.93E4,1.54E2,1E0,0E0,1E0,2E2,-2.1778507E-2,-3.197146E-2,-1.3159255E-2,3.6698713E-3,-4.1753548E-4,1.6346833E-2,3.0272411E-2,2.0186145E-2],"split_indices":[399,71,399,401,398,398,260,0,0,0,0,0,0,0,0],"split_type":[0,0,0,0,0,0,0,0,0,0,0,0,0,0,0],"sum_hessian":[7.523442E5,2.1552747E5,5.3681675E5,1.8262827E5,3.2899203E4,4.0570678E5,1.3110997E5,1.1124563E5,7.138264E4,1.9015867E4,1.3883334E4,3.1793912E5,8.776766E4,9.482677E4,3.62832E4],"tree_param":{"num_deleted":"0","num_feature":"412","num_nodes":"15","size_leaf_vector":"1"}},{"base_weights":[6.7025085E-4,-9.0218E-1,5.7922983E-1,-1.2714926E0,-3.563E-1,2.7272686E-1,1.3679789E0,-2.1639487E-2,-3.172847E-2,-4.337051E-3,-2.7277522E-2,1.7506374E-3,1.3164586E-2,2.9876133E-2,2.0413717E-2],"categories":[],"categories_nodes":[],"categories_segments":[],"categories_sizes":[],"default_left":[0,0,0,0,0,0,0,0,0,0,0,0,0,0,0],"id":14,"left_children":[1,3,5,7,9,11,13,-1,-1,-1,-1,-1,-1,-1,-1],"loss_changes":[3.9214897E5,5.9103516E4,1.10607484E5,1.0419125E4,1.6622285E4,2.3524002E4,5.5787188E3,0E0,0E0,0E0,0E0,0E0,0E0,0E0,0E0],"parents":[2147483647,0,0,1,1,2,2,3,3,4,4,5,5,6,6],"right_children":[2,4,6,8,10,12,14,-1,-1,-1,-1,-1,-1,-1,-1],"split_conditions":[-3.5E2,-6.1E1,1.54E2,1E0,1E0,6.7E1,2E2,-2.1639487E-2,-3.172847E-2,-4.337051E-3,-2.7277522E-2,1.7506374E-3,1.3164586E-2,2.9876133E-2,2.0413717E-2],"split_indices":[405,399,399,401,401,399,260,0,0,0,0,0,0,0,0],"split_type":[0,0,0,0,0,0,0,0,0,0,0,0,0,0,0],"sum_hessian":[7.5071575E5,2.9318703E5,4.5752875E5,1.7486722E5,1.183198E5,3.2950094E5,1.28027805E5,1.0919977E5,6.5667445E4,1.03946484E5,1.4373316E4,2.2258483E5,1.069161E5,9.395295E4,3.407485E4],"tree_param":{"num_deleted":"0","num_feature":"412","num_nodes":"15","size_leaf_vector":"1"}},{"base_weights":[4.038029E-4,-1.1024226E0,4.4089258E-1,-1.3536865E0,-5.3872174E-1,8.9044124E-2,1.1673555E0,-2.8434115E-2,-1.3735663E-2,-1.6505452E-2,-2.9522823E-3,-5.3882436E-4,1.4858203E-2,2.5752654E-2,7.462783E-3],"categories":[],"categories_nodes":[],"categories_segments":[],"categories_sizes":[],"default_left":[0,0,0,0,0,0,0,0,0,0,0,0,0,0,0],"id":15,"left_children":[1,3,5,7,9,11,13,-1,-1,-1,-1,-1,-1,-1,-1],"loss_changes":[3.6388853E5,3.0273953E4,1.3681817E5,6.69725E3,7.3878516E3,2.735024E4,1.667889E4,0E0,0E0,0E0,0E0,0E0,0E0,0E0,0E0],"parents":[2147483647,0,0,1,1,2,2,3,3,4,4,5,5,6,6],"right_children":[2,4,6,8,10,12,14,-1,-1,-1,-1,-1,-1,-1,-1],"split_conditions":[-4E1,3E2,1.04E2,5E0,4.01E2,1E0,4E0,-2.8434115E-2,-1.3735663E-2,-1.6505452E-2,-2.9522823E-3,-5.3882436E-4,1.4858203E-2,2.5752654E-2,7.462783E-3],"split_indices":[399,61,399,406,74,398,272,0,0,0,0,0,0,0,0],"split_type":[0,0,0,0,0,0,0,0,0,0,0,0,0,0,0],"sum_hessian":[7.4905675E5,2.1378911E5,5.352676E5,1.4786492E5,6.5924195E4,3.6062012E5,1.7464752E5,1.3416862E5,1.3696292E4,3.8040812E4,2.788338E4,3.0629722E5,5.43229E4,1.5167144E5,2.2976078E4],"tree_param":{"num_deleted":"0","num_feature":"412","num_nodes":"15","size_leaf_vector":"1"}},{"base_weights":[3.1111962E-5,-8.5007423E-1,5.752339E-1,-1.2917652E0,-3.8295016E-1,2.8371313E-1,1.3577458E0,-2.149839E-2,-3.10333E-2,-1.8793147E-2,-1.8527758E-3,1.9558524E-3,1.6193656E-2,2.9412381E-2,2.1280825E-2],"categories":[],"categories_nodes":[],"categories_segments":[],"categories_sizes":[],"default_left":[0,0,0,0,0,0,0,0,0,0,0,0,0,0,0],"id":16,"left_children":[1,3,5,7,9,11,13,-1,-1,-1,-1,-1,-1,-1,-1],"loss_changes":[3.652335E5,6.218714E4,1.0162078E5,8.713578E3,2.3677967E4,3.1739877E4,3.9916719E3,0E0,0E0,0E0,0E0,0E0,0E0,0E0,0E0],"parents":[2147483647,0,0,1,1,2,2,3,3,4,4,5,5,6,6],"right_children":[2,4,6,8,10,12,14,-1,-1,-1,-1,-1,-1,-1,-1],"split_conditions":[-1.5E2,0E0,1.68E2,1E0,-9.1E3,1E0,1.93E2,-2.149839E-2,-3.10333E-2,-1.8793147E-2,-1.8527758E-3,1.9558524E-3,1.6193656E-2,2.9412381E-2,2.1280825E-2],"split_indices":[405,398,399,401,405,398,260,0,0,0,0,0,0,0,0],"split_type":[0,0,0,0,0,0,0,0,0,0,0,0,0,0,0],"sum_hessian":[7.4690456E5,3.0142144E5,4.4548312E5,1.5491869E5,1.4650277E5,3.2457775E5,1.2090538E5,8.448392E4,7.0434766E4,5.0204855E4,9.629791E4,2.3981897E5,8.475877E4,8.7309414E4,3.3595973E4],"tree_param":{"num_deleted":"0","num_feature":"412","num_nodes":"15","size_leaf_vector":"1"}},{"base_weights":[-3.205166E-4,-8.3675164E-1,5.649024E-1,-1.2735534E0,-3.7730122E-1,2.7776876E-1,1.3394382E0,-2.7577596E-2,-1.4808333E-2,-1.9454692E-2,-2.318216E-3,1.9069471E-3,1.590251E-2,2.9024407E-2,2.0979237E-2],"categories":[],"categories_nodes":[],"categories_segments":[],"categories_sizes":[],"default_left":[0,0,0,0,0,0,0,0,0,0,0,0,0,0,0],"id":17,"left_children":[1,3,5,7,9,11,13,-1,-1,-1,-1,-1,-1,-1,-1],"loss_changes":[3.5222316E5,6.028797E4,9.8869734E4,8.636906E3,2.2789744E4,3.0611006E4,3.8877344E3,0E0,0E0,0E0,0E0,0E0,0E0,0E0,0E0],"parents":[2147483647,0,0,1,1,2,2,3,3,4,4,5,5,6,6],"right_children":[2,4,6,8,10,12,14,-1,-1,-1,-1,-1,-1,-1,-1],"split_conditions":[-1.5E2,0E0,1.68E2,1.725E4,-1.01E4,1E0,1.93E2,-2.7577596E-2,-1.4808333E-2,-1.9454692E-2,-2.318216E-3,1.9069471E-3,1.590251E-2,2.9024407E-2,2.0979237E-2],"split_indices":[405,398,399,71,405,398,260,0,0,0,0,0,0,0,0],"split_type":[0,0,0,0,0,0,0,0,0,0,0,0,0,0,0],"sum_hessian":[7.4499925E5,3.0042238E5,4.445769E5,1.5399742E5,1.4642494E5,3.2434938E5,1.2022753E5,1.285786E5,2.5418814E4,4.4660836E4,1.0176411E5,2.3980594E5,8.454345E4,8.678757E4,3.3439957E4],"tree_param":{"num_deleted":"0","num_feature":"412","num_nodes":"15","size_leaf_vector":"1"}},{"base_weights":[4.2486133E-4,-8.220527E-1,5.5543745E-1,-1.249215E0,-3.9204663E-1,1.9511794E-1,1.0469741E0,-2.7477661E-2,-1.4626238E-2,-1.7887378E-2,-3.1133587E-3,-7.522854E-4,1.4496701E-2,2.8678251E-2,1.5515615E-2],"categories":[],"categories_nodes":[],"categories_segments":[],"categories_sizes":[],"default_left":[0,0,0,0,0,0,0,0,0,0,0,0,0,0,0],"id":18,"left_children":[1,3,5,7,9,11,13,-1,-1,-1,-1,-1,-1,-1,-1],"loss_changes":[3.3911506E5,5.497408E4,7.855719E4,9.683656E3,1.7711406E4,3.1555504E4,1.9675453E4,0E0,0E0,0E0,0E0,0E0,0E0,0E0,0E0],"parents":[2147483647,0,0,1,1,2,2,3,3,4,4,5,5,6,6],"right_children":[2,4,6,8,10,12,14,-1,-1,-1,-1,-1,-1,-1,-1],"split_conditions":[-1.5E2,-2.5E1,7.95E3,1.63E4,-9.1E3,4.9E1,7.15E3,-2.7477661E-2,-1.4626238E-2,-1.7887378E-2,-3.1133587E-3,-7.522854E-4,1.4496701E-2,2.8678251E-2,1.5515615E-2],"split_indices":[405,406,405,71,405,406,270,0,0,0,0,0,0,0,0],"split_type":[0,0,0,0,0,0,0,0,0,0,0,0,0,0,0],"sum_hessian":[7.4286225E5,2.9930875E5,4.4355353E5,1.501407E5,1.4916805E5,2.5594716E5,1.8760636E5,1.20997086E5,2.914362E4,4.7723074E4,1.0144497E5,1.778273E5,7.811987E4,7.7287484E4,1.10318875E5],"tree_param":{"num_deleted":"0","num_feature":"412","num_nodes":"15","size_leaf_vector":"1"}},{"base_weights":[-1.4647045E-4,-7.4073786E-1,5.96692E-1,-1.2399974E0,-2.9884312E-1,1.343388E-1,1.0536762E0,-2.0465197E-2,-3.008262E-2,-1.5817536E-2,-2.586225E-4,3.9323717E-3,-1.4498787E-2,1.4042694E-2,2.6401507E-2],"categories":[],"categories_nodes":[],"categories_segments":[],"categories_sizes":[],"default_left":[0,0,0,0,0,0,0,0,0,0,0,0,0,0,0],"id":19,"left_children":[1,3,5,7,9,11,13,-1,-1,-1,-1,-1,-1,-1,-1],"loss_changes":[3.2765297E5,7.29767E4,8.67265E4,8.874828E3,2.4687965E4,1.0921191E4,1.9322453E4,0E0,0E0,0E0,0E0,0E0,0E0,0E0,0E0],"parents":[2147483647,0,0,1,1,2,2,3,3,4,4,5,5,6,6],"right_children":[2,4,6,8,10,12,14,-1,-1,-1,-1,-1,-1,-1,-1],"split_conditions":[5E2,0E0,8E1,1E0,-6.95E3,1E0,1.68E2,-2.0465197E-2,-3.008262E-2,-1.5817536E-2,-2.586225E-4,3.9323717E-3,-1.4498787E-2,1.4042694E-2,2.6401507E-2],"split_indices":[405,398,399,401,405,401,399,0,0,0,0,0,0,0,0],"split_type":[0,0,0,0,0,0,0,0,0,0,0,0,0,0,0],"sum_hessian":[7.4125325E5,3.307892E5,4.1046406E5,1.553045E5,1.7548469E5,2.0404038E5,2.0642367E5,8.533397E4,6.997052E4,6.4487375E4,1.1099731E5,1.9025884E5,1.3781534E4,8.900748E4,1.17416195E5],"tree_param":{"num_deleted":"0","num_feature":"412","num_nodes":"15","size_leaf_vector":"1"}},{"base_weights":[-3.051702E-4,-1.1674954E0,3.4273526E-1,-1.3033243E0,-5.834831E-1,3.673091E-2,9.992204E-1,-2.2245452E-2,-2.9689118E-2,2.3992708E-2,-1.2748061E-2,-9.39404E-3,5.6219716E-3,1.4074118E-2,2.7532725E-2],"categories":[],"categories_nodes":[],"categories_segments":[],"categories_sizes":[],"default_left":[0,0,0,0,0,0,0,0,0,0,0,0,0,0,0],"id":20,"left_children":[1,3,5,7,9,11,13,-1,-1,-1,-1,-1,-1,-1,-1],"loss_changes":[2.960499E5,1.3314375E4,1.14795695E5,4.69725E3,3.056421E3,4.8238543E4,2.0252422E4,0E0,0E0,0E0,0E0,0E0,0E0,0E0,0E0],"parents":[2147483647,0,0,1,1,2,2,3,3,4,4,5,5,6,6],"right_children":[2,4,6,8,10,12,14,-1,-1,-1,-1,-1,-1,-1,-1],"split_conditions":[0E0,3.13E2,1E0,1E0,1.08E2,1.725E4,2E0,-2.2245452E-2,-2.9689118E-2,2.3992708E-2,-1.2748061E-2,-9.39404E-3,5.6219716E-3,1.4074118E-2,2.7532725E-2],"split_indices":[398,61,398,401,260,71,398,0,0,0,0,0,0,0,0],"split_type":[0,0,0,0,0,0,0,0,0,0,0,0,0,0,0],"sum_hessian":[7.393763E5,1.6793983E5,5.714365E5,1.3624008E5,3.169975E4,3.8976734E5,1.8166914E5,6.6340836E4,6.989924E4,9.238739E2,3.0775877E4,1.2685645E5,2.629109E5,1.0190686E5,7.976227E4],"tree_param":{"num_deleted":"0","num_feature":"412","num_nodes":"15","size_leaf_vector":"1"}},{"base_weights":[-3.8978638E-4,-8.092344E-1,5.12618E-1,-1.2083578E0,-3.7574792E-1,2.1307908E-1,1.0821244E0,-1.98625E-2,-2.9371122E-2,-1.8413793E-2,-2.330493E-3,-3.2024895E-4,1.6163126E-2,2.738791E-2,1.4388124E-2],"categories":[],"categories_nodes":[],"categories_segments":[],"categories_sizes":[],"default_left":[0,0,0,0,0,0,0,0,0,0,0,0,0,0,0],"id":21,"left_children":[1,3,5,7,9,11,13,-1,-1,-1,-1,-1,-1,-1,-1],"loss_changes":[3.0573938E5,4.946989E4,7.6909555E4,8.32175E3,1.9364643E4,4.0281555E4,1.61815E4,0E0,0E0,0E0,0E0,0E0,0E0,0E0,0E0],"parents":[2147483647,0,0,1,1,2,2,3,3,4,4,5,5,6,6],"right_children":[2,4,6,8,10,12,14,-1,-1,-1,-1,-1,-1,-1,-1],"split_conditions":[-3.5E2,0E0,9.55E3,1E0,-1.01E4,1E0,2.18E2,-1.98625E-2,-2.9371122E-2,-1.8413793E-2,-2.330493E-3,-3.2024895E-4,1.6163126E-2,2.738791E-2,1.4388124E-2],"split_indices":[405,398,405,401,405,398,260,0,0,0,0,0,0,0,0],"split_type":[0,0,0,0,0,0,0,0,0,0,0,0,0,0,0],"sum_hessian":[7.3680094E5,2.8594866E5,4.5085225E5,1.4886516E5,1.370835E5,2.9546397E5,1.5538828E5,8.149997E4,6.736519E4,4.418015E4,9.290335E4,2.1334161E5,8.2122375E4,8.669608E4,6.86922E4],"tree_param":{"num_deleted":"0","num_feature":"412","num_nodes":"15","size_leaf_vector":"1"}},{"base_weights":[-1.1215332E-5,-7.9635453E-1,5.0412095E-1,-1.1683531E0,-3.3743045E-1,2.3931317E-1,1.2600362E0,-2.649392E-2,-1.6872149E-2,-3.8228408E-3,-2.5733812E-2,1.2478128E-3,1.3223406E-2,5.333518E-4,2.5783531E-2],"categories":[],"categories_nodes":[],"categories_segments":[],"categories_sizes":[],"default_left":[0,0,0,0,0,0,0,0,0,0,0,0,0,0,0],"id":22,"left_children":[1,3,5,7,9,11,13,-1,-1,-1,-1,-1,-1,-1,-1],"loss_changes":[2.949757E5,4.8621188E4,9.005876E4,7.9746406E3,1.770665E4,2.4868996E4,4.1942812E3,0E0,0E0,0E0,0E0,0E0,0E0,0E0,0E0],"parents":[2147483647,0,0,1,1,2,2,3,3,4,4,5,5,6,6],"right_children":[2,4,6,8,10,12,14,-1,-1,-1,-1,-1,-1,-1,-1],"split_conditions":[-3.5E2,-7.4E1,1.68E2,-1.2E2,1E0,4.9E1,1E3,-2.649392E-2,-1.6872149E-2,-3.8228408E-3,-2.5733812E-2,1.2478128E-3,1.3223406E-2,5.333518E-4,2.5783531E-2],"split_indices":[405,399,399,399,401,406,405,0,0,0,0,0,0,0,0],"split_type":[0,0,0,0,0,0,0,0,0,0,0,0,0,0,0],"sum_hessian":[7.347324E5,2.8481856E5,4.499138E5,1.5729805E5,1.2752053E5,3.3320225E5,1.1671155E5,1.0615777E5,5.114027E4,1.1050369E5,1.701684E4,2.347592E5,9.8443055E4,2.6945652E3,1.1401698E5],"tree_param":{"num_deleted":"0","num_feature":"412","num_nodes":"15","size_leaf_vector":"1"}},{"base_weights":[-6.9690257E-4,-6.962785E-1,5.5777043E-1,-1.1067367E0,-2.3606095E-1,1.8289992E-1,1.0751723E0,-2.5030533E-2,-1.2740213E-2,-2.2720266E-3,-2.2598164E-2,3.4807398E-4,9.342669E-3,1.4798286E-2,2.5766706E-2],"categories":[],"categories_nodes":[],"categories_segments":[],"categories_sizes":[],"default_left":[0,0,0,0,0,0,0,0,0,0,0,0,0,0,0],"id":23,"left_children":[1,3,5,7,9,11,13,-1,-1,-1,-1,-1,-1,-1,-1],"loss_changes":[2.846077E5,6.1630312E4,7.8818805E4,1.1720359E4,1.6836285E4,1.1085154E4,1.2190781E4,0E0,0E0,0E0,0E0,0E0,0E0,0E0,0E0],"parents":[2147483647,0,0,1,1,2,2,3,3,4,4,5,5,6,6],"right_children":[2,4,6,8,10,12,14,-1,-1,-1,-1,-1,-1,-1,-1],"split_conditions":[5E2,-6.1E1,1E2,3E2,1E0,6.3E3,1.86E2,-2.5030533E-2,-1.2740213E-2,-2.2720266E-3,-2.2598164E-2,3.4807398E-4,9.342669E-3,1.4798286E-2,2.5766706E-2],"split_indices":[405,399,399,61,401,405,399,0,0,0,0,0,0,0,0],"split_type":[0,0,0,0,0,0,0,0,0,0,0,0,0,0,0],"sum_hessian":[7.3263644E5,3.2626512E5,4.063713E5,1.7244767E5,1.5381747E5,2.3565086E5,1.7072044E5,1.318026E5,4.0645082E4,1.3529375E5,1.8523723E4,1.489412E5,8.670966E4,6.637488E4,1.0434556E5],"tree_param":{"num_deleted":"0","num_feature":"412","num_nodes":"15","size_leaf_vector":"1"}},{"base_weights":[3.1585142E-4,-1.0173615E0,3.656974E-1,-1.2223295E0,-5.14043E-1,1.2178926E-1,1.1922532E0,-2.5733234E-2,-1.1601512E-2,-8.479838E-3,-3.0619698E-2,-5.4832076E-4,1.3838885E-2,2.6620077E-2,1.6769284E-2],"categories":[],"categories_nodes":[],"categories_segments":[],"categories_sizes":[],"default_left":[0,0,0,0,0,0,0,0,0,0,0,0,0,0,0],"id":24,"left_children":[1,3,5,7,9,11,13,-1,-1,-1,-1,-1,-1,-1,-1],"loss_changes":[2.7153284E5,1.9895172E4,1.08324445E5,5.6556406E3,5.10687E3,3.5296387E4,5.9977188E3,0E0,0E0,0E0,0E0,0E0,0E0,0E0,0E0],"parents":[2147483647,0,0,1,1,2,2,3,3,4,4,5,5,6,6],"right_children":[2,4,6,8,10,12,14,-1,-1,-1,-1,-1,-1,-1,-1],"split_conditions":[-5.3E1,3E2,1.54E2,5E0,1E0,1E0,2E2,-2.5733234E-2,-1.1601512E-2,-8.479838E-3,-3.0619698E-2,-5.4832076E-4,1.3838885E-2,2.6620077E-2,1.6769284E-2],"split_indices":[399,61,399,406,401,398,260,0,0,0,0,0,0,0,0],"split_type":[0,0,0,0,0,0,0,0,0,0,0,0,0,0,0],"sum_hessian":[7.3022006E5,1.9290714E5,5.3731294E5,1.3707172E5,5.5835418E4,4.1489406E5,1.2241884E5,1.24582E5,1.248972E4,5.1306973E4,4.528446E3,3.2884656E5,8.604751E4,8.791194E4,3.4506902E4],"tree_param":{"num_deleted":"0","num_feature":"412","num_nodes":"15","size_leaf_vector":"1"}},{"base_weights":[-4.8267222E-5,-1.1035291E0,3.1782696E-1,-8.7060654E-1,-1.4199897E0,8.211141E-2,1.06096E0,-2.5425788E-2,-1.2353365E-2,-2.5539301E-2,-2.9315492E-2,2.4967402E-2,3.1054523E-4,2.5604807E-2,1.3599387E-2],"categories":[],"categories_nodes":[],"categories_segments":[],"categories_sizes":[],"default_left":[0,0,0,0,0,0,0,0,0,0,0,0,0,0,0],"id":25,"left_children":[1,3,5,7,9,11,13,-1,-1,-1,-1,-1,-1,-1,-1],"loss_changes":[2.5532255E5,1.19858125E4,9.8987016E4,9.497523E3,4.3176562E2,3.3315727E4,1.1359156E4,0E0,0E0,0E0,0E0,0E0,0E0,0E0,0E0],"parents":[2147483647,0,0,1,1,2,2,3,3,4,4,5,5,6,6],"right_children":[2,4,6,8,10,12,14,-1,-1,-1,-1,-1,-1,-1,-1],"split_conditions":[0E0,1E0,1E2,-1.02E2,1.0277759E3,6.1E1,2.18E2,-2.5425788E-2,-1.2353365E-2,-2.5539301E-2,-2.9315492E-2,2.4967402E-2,3.1054523E-4,2.5604807E-2,1.3599387E-2],"split_indices":[398,401,406,406,265,260,260,0,0,0,0,0,0,0,0],"split_type":[0,0,0,0,0,0,0,0,0,0,0,0,0,0,0],"sum_hessian":[7.27872E5,1.6277748E5,5.650945E5,9.378725E4,6.899023E4,4.2902366E5,1.3607088E5,3.6277332E4,5.7509918E4,1.6803084E4,5.2187145E4,2.3160896E4,4.0586275E5,8.6348E4,4.972287E4],"tree_param":{"num_deleted":"0","num_feature":"412","num_nodes":"15","size_leaf_vector":"1"}},{"base_weights":[-2.5877389E-4,-1.0901141E0,3.1234008E-1,-1.269929E0,-6.82664E-1,3.489709E-2,9.2218727E-1,-2.8186118E-2,-2.2195432E-2,-1.0475939E-2,-2.8834907E-2,-8.707678E-3,5.2251928E-3,1.2752311E-2,2.5920069E-2],"categories":[],"categories_nodes":[],"categories_segments":[],"categories_sizes":[],"default_left":[0,0,0,0,0,0,0,0,0,0,0,0,0,0,0],"id":26,"left_children":[1,3,5,7,9,11,13,-1,-1,-1,-1,-1,-1,-1,-1],"loss_changes":[2.4736148E5,1.1847516E4,9.546567E4,2.4892969E3,5.9700547E3,4.128542E4,1.8758625E4,0E0,0E0,0E0,0E0,0E0,0E0,0E0,0E0],"parents":[2147483647,0,0,1,1,2,2,3,3,4,4,5,5,6,6],"right_children":[2,4,6,8,10,12,14,-1,-1,-1,-1,-1,-1,-1,-1],"split_conditions":[0E0,1.435E4,1E0,-1E0,1E0,1.725E4,2E0,-2.8186118E-2,-2.2195432E-2,-1.0475939E-2,-2.8834907E-2,-8.707678E-3,5.2251928E-3,1.2752311E-2,2.5920069E-2],"split_indices":[398,71,398,398,401,71,398,0,0,0,0,0,0,0,0],"split_type":[0,0,0,0,0,0,0,0,0,0,0,0,0,0,0],"sum_hessian":[7.260444E5,1.6182562E5,5.6421875E5,1.1226055E5,4.956507E4,3.8780338E5,1.7641536E5,5.9980617E4,5.227993E4,4.1001637E4,8.563436E3,1.2600662E5,2.6179677E5,1.0018045E5,7.62349E4],"tree_param":{"num_deleted":"0","num_feature":"412","num_nodes":"15","size_leaf_vector":"1"}},{"base_weights":[-2.5496856E-4,-9.822004E-1,3.4817275E-1,-1.2477261E0,-6.3746655E-1,1.1421271E-1,1.1560813E0,-2.7283456E-2,-2.0640962E-2,-7.7988165E-3,-2.6336543E-2,-5.4419675E-4,1.3149693E-2,1.8817363E-2,2.673863E-2],"categories":[],"categories_nodes":[],"categories_segments":[],"categories_sizes":[],"default_left":[0,0,0,0,0,0,0,0,0,0,0,0,0,0,0],"id":27,"left_children":[1,3,5,7,9,11,13,-1,-1,-1,-1,-1,-1,-1,-1],"loss_changes":[2.4755739E5,1.7337484E4,1.0094515E5,2.6730469E3,1.3863051E4,3.1819393E4,4.6540312E3,0E0,0E0,0E0,0E0,0E0,0E0,0E0,0E0],"parents":[2147483647,0,0,1,1,2,2,3,3,4,4,5,5,6,6],"right_children":[2,4,6,8,10,12,14,-1,-1,-1,-1,-1,-1,-1,-1],"split_conditions":[-5.3E1,-1.15E2,1.54E2,3E0,1E0,1E0,2.42E2,-2.7283456E-2,-2.0640962E-2,-7.7988165E-3,-2.6336543E-2,-5.4419675E-4,1.3149693E-2,1.8817363E-2,2.673863E-2],"split_indices":[399,399,399,196,401,398,399,0,0,0,0,0,0,0,0],"split_type":[0,0,0,0,0,0,0,0,0,0,0,0,0,0,0],"sum_hessian":[7.23541E5,1.894924E5,5.340486E5,1.07028016E5,8.246439E4,4.1413303E5,1.1991558E5,6.946637E4,3.756164E4,6.0454375E4,2.2010014E4,3.2860175E5,8.553128E4,5.478562E4,6.512996E4],"tree_param":{"num_deleted":"0","num_feature":"412","num_nodes":"15","size_leaf_vector":"1"}},{"base_weights":[-2.943213E-4,-7.556762E-1,4.489799E-1,-1.1201034E0,-3.584519E-1,1.764554E-1,9.991604E-1,-1.8198824E-2,-2.760009E-2,-1.6146805E-2,-1.6929678E-3,-4.888872E-4,1.4600688E-2,2.5554003E-2,1.3235003E-2],"categories":[],"categories_nodes":[],"categories_segments":[],"categories_sizes":[],"default_left":[0,0,0,0,0,0,0,0,0,0,0,0,0,0,0],"id":28,"left_children":[1,3,5,7,9,11,13,-1,-1,-1,-1,-1,-1,-1,-1],"loss_changes":[2.4482156E5,3.8941766E4,6.7822125E4,7.6502344E3,1.5822572E4,3.364484E4,1.4073016E4,0E0,0E0,0E0,0E0,0E0,0E0,0E0,0E0],"parents":[2147483647,0,0,1,1,2,2,3,3,4,4,5,5,6,6],"right_children":[2,4,6,8,10,12,14,-1,-1,-1,-1,-1,-1,-1,-1],"split_conditions":[-5.5E2,0E0,9.55E3,1E0,-9.1E3,1E0,2.18E2,-1.8198824E-2,-2.760009E-2,-1.6146805E-2,-1.6929678E-3,-4.888872E-4,1.4600688E-2,2.5554003E-2,1.3235003E-2],"split_indices":[405,398,405,401,405,398,260,0,0,0,0,0,0,0,0],"split_type":[0,0,0,0,0,0,0,0,0,0,0,0,0,0,0],"sum_hessian":[7.213717E5,2.6903188E5,4.523398E5,1.4029812E5,1.28733766E5,3.0250978E5,1.4983003E5,7.7597945E4,6.2700176E4,4.8764855E4,7.996891E4,2.2196536E5,8.054442E4,8.2058984E4,6.777105E4],"tree_param":{"num_deleted":"0","num_feature":"412","num_nodes":"15","size_leaf_vector":"1"}},{"base_weights":[-6.2715495E-4,-9.734029E-1,3.2984936E-1,-1.1596237E0,-5.0179887E-1,1.039902E-1,1.129057E0,-2.449052E-2,-1.0332808E-2,-1.7450443E-2,-5.590829E-3,-6.204607E-4,1.2671298E-2,2.5392132E-2,1.5518018E-2],"categories":[],"categories_nodes":[],"categories_segments":[],"categories_sizes":[],"default_left":[0,0,0,0,0,0,0,0,0,0,0,0,0,0,0],"id":29,"left_children":[1,3,5,7,9,11,13,-1,-1,-1,-1,-1,-1,-1,-1],"loss_changes":[2.310909E5,1.6001875E4,9.685084E4,5.446047E3,4.250383E3,2.9911766E4,5.8572344E3,0E0,0E0,0E0,0E0,0E0,0E0,0E0,0E0],"parents":[2147483647,0,0,1,1,2,2,3,3,4,4,5,5,6,6],"right_children":[2,4,6,8,10,12,14,-1,-1,-1,-1,-1,-1,-1,-1],"split_conditions":[-5.8E1,3E2,1.54E2,5E0,-7.3E1,1E0,2E2,-2.449052E-2,-1.0332808E-2,-1.7450443E-2,-5.590829E-3,-6.204607E-4,1.2671298E-2,2.5392132E-2,1.5518018E-2],"split_indices":[399,61,399,406,406,398,260,0,0,0,0,0,0,0,0],"split_type":[0,0,0,0,0,0,0,0,0,0,0,0,0,0,0],"sum_hessian":[7.188143E5,1.8227094E5,5.3654344E5,1.30661445E5,5.160949E4,4.183329E5,1.1821051E5,1.186729E5,1.1988548E4,1.9332172E4,3.2277318E4,3.3335438E5,8.497852E4,8.453835E4,3.367216E4],"tree_param":{"num_deleted":"0","num_feature":"412","num_nodes":"15","size_leaf_vector":"1"}},{"base_weights":[-6.83524E-4,-7.3446214E-1,4.342935E-1,-1.03769E0,-2.6166484E-1,2.0213534E-1,1.1522648E0,-2.2932863E-2,-4.5668283E-3,-9.599073E-3,-8.8662124E-4,1.1927977E-3,1.2950056E-2,2.4395476E-3,2.3775894E-2],"categories":[],"categories_nodes":[],"categories_segments":[],"categories_sizes":[],"default_left":[0,0,0,0,0,0,0,0,0,0,0,0,0,0,0],"id":30,"left_children":[1,3,5,7,9,11,13,-1,-1,-1,-1,-1,-1,-1,-1],"loss_changes":[2.2864773E5,3.8219594E4,7.496372E4,1.4320141E4,4.942595E3,2.1568695E4,4.1340312E3,0E0,0E0,0E0,0E0,0E0,0E0,0E0,0E0],"parents":[2147483647,0,0,1,1,2,2,3,3,4,4,5,5,6,6],"right_children":[2,4,6,8,10,12,14,-1,-1,-1,-1,-1,-1,-1,-1],"split_conditions":[-5.5E2,3.13E2,1.68E2,1.5E1,-5.15E3,1E0,1.35E3,-2.2932863E-2,-4.5668283E-3,-9.599073E-3,-8.8662124E-4,1.1927977E-3,1.2950056E-2,2.4395476E-3,2.3775894E-2],"split_indices":[405,61,399,406,405,398,405,0,0,0,0,0,0,0,0],"split_type":[0,0,0,0,0,0,0,0,0,0,0,0,0,0,0],"sum_hessian":[7.163461E5,2.6660094E5,4.4974516E5,1.6242011E5,1.04180836E5,3.3986303E5,1.0988214E5,1.4314545E5,1.9274652E4,5.1969285E4,5.2211547E4,2.5749103E5,8.2371984E4,3.7644075E3,1.06117734E5],"tree_param":{"num_deleted":"0","num_feature":"412","num_nodes":"15","size_leaf_vector":"1"}},{"base_weights":[8.67517E-5,-7.238695E-1,4.280544E-1,-1.2034578E0,-4.3023232E-1,2.0007734E-1,1.1379187E0,-2.634666E-2,-1.9745821E-2,-5.036193E-3,-2.474256E-2,9.006685E-4,1.1694253E-2,2.5201729E-2,1.6678313E-2],"categories":[],"categories_nodes":[],"categories_segments":[],"categories_sizes":[],"default_left":[0,0,0,0,0,0,0,0,0,0,0,0,0,0,0],"id":31,"left_children":[1,3,5,7,9,11,13,-1,-1,-1,-1,-1,-1,-1,-1],"loss_changes":[2.2120844E5,3.7348844E4,7.26135E4,2.4654062E3,2.368486E4,2.0254586E4,4.0394688E3,0E0,0E0,0E0,0E0,0E0,0E0,0E0,0E0],"parents":[2147483647,0,0,1,1,2,2,3,3,4,4,5,5,6,6],"right_children":[2,4,6,8,10,12,14,-1,-1,-1,-1,-1,-1,-1,-1],"split_conditions":[-5.5E2,-1.15E2,1.68E2,3E0,1E0,4.9E1,1.93E2,-2.634666E-2,-1.9745821E-2,-5.036193E-3,-2.474256E-2,9.006685E-4,1.1694253E-2,2.5201729E-2,1.6678313E-2],"split_indices":[405,399,399,196,401,406,260,0,0,0,0,0,0,0,0],"split_type":[0,0,0,0,0,0,0,0,0,0,0,0,0,0,0],"sum_hessian":[7.1394725E5,2.652458E5,4.4870147E5,1.0071626E5,1.6452955E5,3.3963825E5,1.0906321E5,6.593076E4,3.4785504E4,1.3474767E5,2.9781875E4,2.4207267E5,9.756557E4,7.7775016E4,3.1288195E4],"tree_param":{"num_deleted":"0","num_feature":"412","num_nodes":"15","size_leaf_vector":"1"}},{"base_weights":[-1.2680075E-4,-5.828693E-1,5.1850903E-1,-1.0674556E0,-2.1815225E-1,2.7104673E-1,1.1563649E0,-1.7118292E-2,-2.6821772E-2,-1.3386475E-2,2.6232696E-5,2.583206E-3,1.2698127E-2,2.5490576E-2,1.8207476E-2],"categories":[],"categories_nodes":[],"categories_segments":[],"categories_sizes":[],"default_left":[0,0,0,0,0,0,0,0,0,0,0,0,0,0,0],"id":32,"left_children":[1,3,5,7,9,11,13,-1,-1,-1,-1,-1,-1,-1,-1],"loss_changes":[2.1506086E5,5.9218188E4,5.9424656E4,8.316578E3,1.893202E4,1.4003865E4,3.0462812E3,0E0,0E0,0E0,0E0,0E0,0E0,0E0,0E0],"parents":[2147483647,0,0,1,1,2,2,3,3,4,4,5,5,6,6],"right_children":[2,4,6,8,10,12,14,-1,-1,-1,-1,-1,-1,-1,-1],"split_conditions":[1E3,0E0,1.68E2,1E0,-6.95E3,1E0,1.78E2,-1.7118292E-2,-2.6821772E-2,-1.3386475E-2,2.6232696E-5,2.583206E-3,1.2698127E-2,2.5490576E-2,1.8207476E-2],"split_indices":[405,398,399,401,405,398,260,0,0,0,0,0,0,0,0],"split_type":[0,0,0,0,0,0,0,0,0,0,0,0,0,0,0],"sum_hessian":[7.115569E5,3.3506978E5,3.764871E5,1.438804E5,1.9118938E5,2.712631E5,1.0522402E5,8.117151E4,6.2708895E4,6.255991E4,1.2862946E5,1.951712E5,7.609189E4,7.1050266E4,3.4173754E4],"tree_param":{"num_deleted":"0","num_feature":"412","num_nodes":"15","size_leaf_vector":"1"}},{"base_weights":[-5.6456844E-5,-5.669737E-1,5.1514304E-1,-1.0531313E0,-2.0955215E-1,2.697688E-1,1.1464388E0,-1.6836802E-2,-2.6582466E-2,-1.3232177E-2,7.0778806E-5,2.0798647E-3,1.17440885E-2,2.503809E-2,1.7444558E-2],"categories":[],"categories_nodes":[],"categories_segments":[],"categories_sizes":[],"default_left":[0,0,0,0,0,0,0,0,0,0,0,0,0,0,0],"id":33,"left_children":[1,3,5,7,9,11,13,-1,-1,-1,-1,-1,-1,-1,-1],"loss_changes":[2.0701275E5,5.8632953E4,5.751507E4,8.325172E3,1.8734766E4,1.4070715E4,2.9936562E3,0E0,0E0,0E0,0E0,0E0,0E0,0E0,0E0],"parents":[2147483647,0,0,1,1,2,2,3,3,4,4,5,5,6,6],"right_children":[2,4,6,8,10,12,14,-1,-1,-1,-1,-1,-1,-1,-1],"split_conditions":[1.1E3,0E0,1.68E2,1E0,-6.95E3,4.2E1,1.93E2,-1.6836802E-2,-2.6582466E-2,-1.3232177E-2,7.0778806E-5,2.0798647E-3,1.17440885E-2,2.503809E-2,1.7444558E-2],"split_indices":[405,398,399,401,405,406,260,0,0,0,0,0,0,0,0],"split_type":[0,0,0,0,0,0,0,0,0,0,0,0,0,0,0],"sum_hessian":[7.0874406E5,3.374353E5,3.7130875E5,1.4296131E5,1.94474E5,2.6739275E5,1.03916E5,8.0995914E4,6.196539E4,6.229655E4,1.3217744E5,1.7566777E5,9.172499E4,7.5023234E4,2.8892768E4],"tree_param":{"num_deleted":"0","num_feature":"412","num_nodes":"15","size_leaf_vector":"1"}},{"base_weights":[3.5340243E-4,-5.631431E-1,5.006778E-1,-1.0411663E0,-2.0816647E-1,9.2316043E-1,2.065609E-1,-1.6589629E-2,-2.636835E-2,-1.4759731E-2,-6.2729104E-4,-2.5104056E-3,2.0182233E-2,3.700807E-4,9.126257E-3],"categories":[],"categories_nodes":[],"categories_segments":[],"categories_sizes":[],"default_left":[0,0,0,0,0,0,0,0,0,0,0,0,0,0,0],"id":34,"left_children":[1,3,5,7,9,11,13,-1,-1,-1,-1,-1,-1,-1,-1],"loss_changes":[1.9906197E5,5.634517E4,4.647032E4,8.2930625E3,1.785114E4,1.38371875E4,1.0356563E4,0E0,0E0,0E0,0E0,0E0,0E0,0E0,0E0],"parents":[2147483647,0,0,1,1,2,2,3,3,4,4,5,5,6,6],"right_children":[2,4,6,8,10,12,14,-1,-1,-1,-1,-1,-1,-1,-1],"split_conditions":[1E3,0E0,3E0,1E0,-9.1E3,-4E0,6.3E3,-1.6589629E-2,-2.636835E-2,-1.4759731E-2,-6.2729104E-4,-2.5104056E-3,2.0182233E-2,3.700807E-4,9.126257E-3],"split_indices":[405,398,272,401,405,406,405,0,0,0,0,0,0,0,0],"split_type":[0,0,0,0,0,0,0,0,0,0,0,0,0,0,0],"sum_hessian":[7.060459E5,3.3205872E5,3.7398712E5,1.4149548E5,1.9056323E5,1.5348764E5,2.2049948E5,8.0258875E4,6.1236613E4,4.7671695E4,1.4289153E5,1.1626425E4,1.4186122E5,1.2579294E5,9.4706555E4],"tree_param":{"num_deleted":"0","num_feature":"412","num_nodes":"15","size_leaf_vector":"1"}},{"base_weights":[-2.4619795E-4,-9.057597E-1,2.9985124E-1,-1.154573E0,-5.721689E-1,9.518202E-2,1.0572554E0,-2.5424391E-2,-1.8680854E-2,-1.7185317E-2,-4.9452023E-3,-6.591891E-4,8.406136E-3,2.4225306E-2,1.4654054E-2],"categories":[],"categories_nodes":[],"categories_segments":[],"categories_sizes":[],"default_left":[0,0,0,0,0,0,0,0,0,0,0,0,0,0,0],"id":35,"left_children":[1,3,5,7,9,11,13,-1,-1,-1,-1,-1,-1,-1,-1],"loss_changes":[1.913277E5,1.4539328E4,8.197482E4,2.569125E3,6.983582E3,1.7345457E4,5.6134375E3,0E0,0E0,0E0,0E0,0E0,0E0,0E0,0E0],"parents":[2147483647,0,0,1,1,2,2,3,3,4,4,5,5,6,6],"right_children":[2,4,6,8,10,12,14,-1,-1,-1,-1,-1,-1,-1,-1],"split_conditions":[-5.8E1,-1.15E2,1.54E2,4E0,3.44E2,7.2E1,1.93E2,-2.5424391E-2,-1.8680854E-2,-1.7185317E-2,-4.9452023E-3,-6.591891E-4,8.406136E-3,2.4225306E-2,1.4654054E-2],"split_indices":[399,399,399,60,74,399,260,0,0,0,0,0,0,0,0],"split_type":[0,0,0,0,0,0,0,0,0,0,0,0,0,0,0],"sum_hessian":[7.0405656E5,1.75247E5,5.2880956E5,1.0036341E5,7.48836E4,4.1632125E5,1.1248829E5,6.560971E4,3.475369E4,3.97456E4,3.5137996E4,2.9863028E5,1.1769099E5,7.626791E4,3.622038E4],"tree_param":{"num_deleted":"0","num_feature":"412","num_nodes":"15","size_leaf_vector":"1"}},{"base_weights":[-3.3463223E-4,-9.03386E-1,2.9064763E-1,-1.0842364E0,-4.4909576E-1,9.64545E-2,1.0712373E0,-2.5784569E-2,-1.8305534E-2,-7.38435E-3,-2.7962072E-2,-6.0041645E-4,1.1564593E-2,2.4071684E-2,1.5215012E-2],"categories":[],"categories_nodes":[],"categories_segments":[],"categories_sizes":[],"default_left":[0,0,0,0,0,0,0,0,0,0,0,0,0,0,0],"id":36,"left_children":[1,3,5,7,9,11,13,-1,-1,-1,-1,-1,-1,-1,-1],"loss_changes":[1.8441606E5,1.4046031E4,8.0457E4,4.223875E3,3.687126E3,2.5899896E4,4.335008E3,0E0,0E0,0E0,0E0,0E0,0E0,0E0,0E0],"parents":[2147483647,0,0,1,1,2,2,3,3,4,4,5,5,6,6],"right_children":[2,4,6,8,10,12,14,-1,-1,-1,-1,-1,-1,-1,-1],"split_conditions":[-6.1E1,3E2,1.68E2,-1E0,1E0,1E0,1.93E2,-2.5784569E-2,-1.8305534E-2,-7.38435E-3,-2.7962072E-2,-6.0041645E-4,1.1564593E-2,2.4071684E-2,1.5215012E-2],"split_indices":[399,61,399,398,401,398,260,0,0,0,0,0,0,0,0],"split_type":[0,0,0,0,0,0,0,0,0,0,0,0,0,0,0],"sum_hessian":[7.017892E5,1.7101884E5,5.307703E5,1.2231215E5,4.87067E4,4.250415E5,1.0572882E5,5.523179E4,6.708036E4,4.4938758E4,3.7679412E3,3.3666844E5,8.837308E4,7.410893E4,3.1619895E4],"tree_param":{"num_deleted":"0","num_feature":"412","num_nodes":"15","size_leaf_vector":"1"}},{"base_weights":[-8.4006914E-4,-9.6785927E-1,2.631076E-1,-7.419641E-1,-1.2930869E0,7.035372E-2,1.0433446E0,-2.3004416E-2,-1.0128689E-2,-2.2812124E-2,-2.6855882E-2,-1.825426E-2,2.7117047E-3,2.3853553E-2,1.3790346E-2],"categories":[],"categories_nodes":[],"categories_segments":[],"categories_sizes":[],"default_left":[0,0,0,0,0,0,0,0,0,0,0,0,0,0,0],"id":37,"left_children":[1,3,5,7,9,11,13,-1,-1,-1,-1,-1,-1,-1,-1],"loss_changes":[1.7851347E5,1.1007031E4,8.26285E4,8.5054375E3,4.4928125E2,2.8254719E4,5.7419766E3,0E0,0E0,0E0,0E0,0E0,0E0,0E0,0E0],"parents":[2147483647,0,0,1,1,2,2,3,3,4,4,5,5,6,6],"right_children":[2,4,6,8,10,12,14,-1,-1,-1,-1,-1,-1,-1,-1],"split_conditions":[0E0,1E0,1.54E2,-1.32E2,1.0277759E3,-1.15E2,2E2,-2.3004416E-2,-1.0128689E-2,-2.2812124E-2,-2.6855882E-2,-1.825426E-2,2.7117047E-3,2.3853553E-2,1.3790346E-2],"split_indices":[398,401,399,399,265,399,260,0,0,0,0,0,0,0,0],"split_type":[0,0,0,0,0,0,0,0,0,0,0,0,0,0,0],"sum_hessian":[6.993665E5,1.4995472E5,5.494118E5,8.851144E4,6.1443277E4,4.4058012E5,1.0883167E5,3.2366912E4,5.6144523E4,1.5167539E4,4.627574E4,2.7406994E4,4.1317312E5,7.651376E4,3.2317914E4],"tree_param":{"num_deleted":"0","num_feature":"412","num_nodes":"15","size_leaf_vector":"1"}},{"base_weights":[-2.4367953E-4,-5.307475E-1,4.7943717E-1,-9.995975E-1,-1.9755583E-1,2.51148E-1,1.0914221E0,-1.577129E-2,-2.5630312E-2,-1.2452877E-2,1.25973775E-5,2.4049936E-3,1.1805077E-2,2.4225015E-2,1.693482E-2],"categories":[],"categories_nodes":[],"categories_segments":[],"categories_sizes":[],"default_left":[0,0,0,0,0,0,0,0,0,0,0,0,0,0,0],"id":38,"left_children":[1,3,5,7,9,11,13,-1,-1,-1,-1,-1,-1,-1,-1],"loss_changes":[1.7729748E5,5.1679867E4,5.11149E4,8.165625E3,1.6294352E4,1.1828373E4,2.9033047E3,0E0,0E0,0E0,0E0,0E0,0E0,0E0,0E0],"parents":[2147483647,0,0,1,1,2,2,3,3,4,4,5,5,6,6],"right_children":[2,4,6,8,10,12,14,-1,-1,-1,-1,-1,-1,-1,-1],"split_conditions":[1.1E3,0E0,1.68E2,1E0,-6.95E3,1E0,1.78E2,-1.577129E-2,-2.5630312E-2,-1.2452877E-2,1.25973775E-5,2.4049936E-3,1.1805077E-2,2.4225015E-2,1.693482E-2],"split_indices":[405,398,399,401,405,398,260,0,0,0,0,0,0,0,0],"split_type":[0,0,0,0,0,0,0,0,0,0,0,0,0,0,0],"sum_hessian":[6.9670494E5,3.3082647E5,3.6587847E5,1.3742612E5,1.9340036E5,2.6648597E5,9.93925E4,7.861671E4,5.8809406E4,6.1490105E4,1.3191025E5,1.9227912E5,7.420684E4,6.669021E4,3.2702283E4],"tree_param":{"num_deleted":"0","num_feature":"412","num_nodes":"15","size_leaf_vector":"1"}},{"base_weights":[1.0553259E-4,-5.2177227E-1,4.7166988E-1,-1.0067809E0,-2.1112382E-1,2.4614136E-1,1.0819923E0,-2.2131192E-2,-8.227779E-3,-1.7766146E-2,-2.0381026E-3,1.8217172E-3,1.0920723E-2,2.4055544E-2,1.6738217E-2],"categories":[],"categories_nodes":[],"categories_segments":[],"categories_sizes":[],"default_left":[0,0,0,0,0,0,0,0,0,0,0,0,0,0,0],"id":39,"left_children":[1,3,5,7,9,11,13,-1,-1,-1,-1,-1,-1,-1,-1],"loss_changes":[1.7085519E5,4.9649242E4,5.019708E4,7.638297E3,1.4857151E4,1.2383081E4,2.9019219E3,0E0,0E0,0E0,0E0,0E0,0E0,0E0,0E0],"parents":[2147483647,0,0,1,1,2,2,3,3,4,4,5,5,6,6],"right_children":[2,4,6,8,10,12,14,-1,-1,-1,-1,-1,-1,-1,-1],"split_conditions":[1.1E3,-3.6E1,1.68E2,1.885E4,-1.15E2,4.2E1,1.78E2,-2.2131192E-2,-8.227779E-3,-1.7766146E-2,-2.0381026E-3,1.8217172E-3,1.0920723E-2,2.4055544E-2,1.6738217E-2],"split_indices":[405,406,399,71,399,406,260,0,0,0,0,0,0,0,0],"split_type":[0,0,0,0,0,0,0,0,0,0,0,0,0,0,0],"sum_hessian":[6.9423356E5,3.29536E5,3.6469756E5,1.2865139E5,2.0088462E5,2.663061E5,9.839148E4,1.1017789E5,1.8473502E4,2.78891E4,1.7299552E5,1.7555356E5,9.075252E4,6.588141E4,3.2510068E4],"tree_param":{"num_deleted":"0","num_feature":"412","num_nodes":"15","size_leaf_vector":"1"}},{"base_weights":[-2.695997E-4,-9.3808776E-1,2.5160664E-1,-7.1370184E-1,-1.2662625E0,-1.8002989E-2,7.72197E-1,-2.2452638E-2,-9.640698E-3,-2.2176139E-2,-2.6356112E-2,-1.7629322E-2,1.0457349E-3,2.1702664E-2,9.384672E-3],"categories":[],"categories_nodes":[],"categories_segments":[],"categories_sizes":[],"default_left":[0,0,0,0,0,0,0,0,0,0,0,0,0,0,0],"id":40,"left_children":[1,3,5,7,9,11,13,-1,-1,-1,-1,-1,-1,-1,-1],"loss_changes":[1.6340311E5,1.0774758E4,7.653685E4,8.236547E3,4.668047E2,2.1805098E4,1.7633625E4,0E0,0E0,0E0,0E0,0E0,0E0,0E0,0E0],"parents":[2147483647,0,0,1,1,2,2,3,3,4,4,5,5,6,6],"right_children":[2,4,6,8,10,12,14,-1,-1,-1,-1,-1,-1,-1,-1],"split_conditions":[0E0,1E0,9.5E1,-1.32E2,1.0277759E3,-1.15E2,1.93E2,-2.2452638E-2,-9.640698E-3,-2.2176139E-2,-2.6356112E-2,-1.7629322E-2,1.0457349E-3,2.1702664E-2,9.384672E-3],"split_indices":[398,401,399,399,265,399,260,0,0,0,0,0,0,0,0],"split_type":[0,0,0,0,0,0,0,0,0,0,0,0,0,0,0],"sum_hessian":[6.91737E5,1.4644553E5,5.4529144E5,8.699629E4,5.9449242E4,3.5924866E5,1.860428E5,3.1446777E4,5.5549508E4,1.471974E4,4.4729504E4,2.7034475E4,3.322142E5,9.150164E4,9.454116E4],"tree_param":{"num_deleted":"0","num_feature":"412","num_nodes":"15","size_leaf_vector":"1"}},{"base_weights":[-7.896746E-4,-5.084732E-1,4.5742562E-1,-9.6751934E-1,-1.893006E-1,2.3751864E-1,1.063064E0,-1.5120711E-2,-2.5101118E-2,-1.4800591E-2,-9.6120965E-4,1.7842228E-3,1.0672067E-2,2.3663795E-2,1.6434256E-2],"categories":[],"categories_nodes":[],"categories_segments":[],"categories_sizes":[],"default_left":[0,0,0,0,0,0,0,0,0,0,0,0,0,0,0],"id":41,"left_children":[1,3,5,7,9,11,13,-1,-1,-1,-1,-1,-1,-1,-1],"loss_changes":[1.6036338E5,4.7911805E4,4.82535E4,8.145414E3,1.5005244E4,1.1672169E4,2.7875547E3,0E0,0E0,0E0,0E0,0E0,0E0,0E0,0E0],"parents":[2147483647,0,0,1,1,2,2,3,3,4,4,5,5,6,6],"right_children":[2,4,6,8,10,12,14,-1,-1,-1,-1,-1,-1,-1,-1],"split_conditions":[1.1E3,0E0,1.68E2,1E0,-1.055E4,4.4E1,1.78E2,-1.5120711E-2,-2.5101118E-2,-1.4800591E-2,-9.6120965E-4,1.7842228E-3,1.0672067E-2,2.3663795E-2,1.6434256E-2],"split_indices":[405,398,399,401,405,406,260,0,0,0,0,0,0,0,0],"split_type":[0,0,0,0,0,0,0,0,0,0,0,0,0,0,0],"sum_hessian":[6.893339E5,3.2701472E5,3.6231916E5,1.3411034E5,1.9290438E5,2.6581622E5,9.6502945E4,7.729673E4,5.6813617E4,3.9365023E4,1.5353936E5,1.771147E5,8.870151E4,6.440556E4,3.2097387E4],"tree_param":{"num_deleted":"0","num_feature":"412","num_nodes":"15","size_leaf_vector":"1"}},{"base_weights":[-1.8954776E-4,-9.159371E-1,2.4319237E-1,-6.9218403E-1,-1.2472409E0,2.331094E-2,7.6037246E-1,-2.309427E-2,-9.904328E-3,-2.2384075E-2,-2.6231684E-2,-7.3037106E-3,4.1765333E-3,9.987339E-3,2.2719963E-2],"categories":[],"categories_nodes":[],"categories_segments":[],"categories_sizes":[],"default_left":[0,0,0,0,0,0,0,0,0,0,0,0,0,0,0],"id":42,"left_children":[1,3,5,7,9,11,13,-1,-1,-1,-1,-1,-1,-1,-1],"loss_changes":[1.530594E5,1.0679805E4,6.1697305E4,7.836832E3,4.629375E2,2.7439043E4,1.58618125E4,0E0,0E0,0E0,0E0,0E0,0E0,0E0,0E0],"parents":[2147483647,0,0,1,1,2,2,3,3,4,4,5,5,6,6],"right_children":[2,4,6,8,10,12,14,-1,-1,-1,-1,-1,-1,-1,-1],"split_conditions":[0E0,1E0,1E0,-1E0,1.1262086E3,1.725E4,2E0,-2.309427E-2,-9.904328E-3,-2.2384075E-2,-2.6231684E-2,-7.3037106E-3,4.1765333E-3,9.987339E-3,2.2719963E-2],"split_indices":[398,401,398,398,402,71,398,0,0,0,0,0,0,0,0],"split_type":[0,0,0,0,0,0,0,0,0,0,0,0,0,0,0],"sum_hessian":[6.867243E5,1.4418555E5,5.4253875E5,8.608133E4,5.8104227E4,3.8069562E5,1.6184312E5,2.569398E4,6.0387348E4,1.9498152E4,3.860607E4,1.2303372E5,2.576619E5,9.550541E4,6.633771E4],"tree_param":{"num_deleted":"0","num_feature":"412","num_nodes":"15","size_leaf_vector":"1"}},{"base_weights":[-7.621844E-4,-6.541707E-1,3.3456445E-1,-1.0099436E0,-3.38338E-1,1.08443655E-1,8.5355693E-1,-2.2638882E-2,-1.0012495E-2,-1.1974344E-2,-8.872387E-4,-8.3503354E-4,1.1730848E-2,2.3878152E-2,1.2482945E-2],"categories":[],"categories_nodes":[],"categories_segments":[],"categories_sizes":[],"default_left":[0,0,0,0,0,0,0,0,0,0,0,0,0,0,0],"id":43,"left_children":[1,3,5,7,9,11,13,-1,-1,-1,-1,-1,-1,-1,-1],"loss_changes":[1.4994897E5,2.6076148E4,5.3074516E4,6.7755547E3,9.412167E3,2.2622092E4,1.0708086E4,0E0,0E0,0E0,0E0,0E0,0E0,0E0,0E0],"parents":[2147483647,0,0,1,1,2,2,3,3,4,4,5,5,6,6],"right_children":[2,4,6,8,10,12,14,-1,-1,-1,-1,-1,-1,-1,-1],"split_conditions":[-1.1E3,-3.6E1,9.55E3,1.63E4,1.23E4,7E1,1.78E2,-2.2638882E-2,-1.0012495E-2,-1.1974344E-2,-8.872387E-4,-8.3503354E-4,1.1730848E-2,2.3878152E-2,1.2482945E-2],"split_indices":[405,406,405,71,71,406,260,0,0,0,0,0,0,0,0],"split_type":[0,0,0,0,0,0,0,0,0,0,0,0,0,0,0],"sum_hessian":[6.843486E5,2.3209186E5,4.5225675E5,1.0913363E5,1.2295823E5,3.150187E5,1.3723806E5,8.80333E4,2.1100336E4,6.5198844E4,5.7759387E4,2.3971925E5,7.529945E4,5.523996E4,8.199809E4],"tree_param":{"num_deleted":"0","num_feature":"412","num_nodes":"15","size_leaf_vector":"1"}},{"base_weights":[-3.2664408E-4,-6.4359564E-1,3.2871583E-1,-1.0807227E0,-3.7681305E-1,1.4477608E-1,9.957659E-1,-2.4054442E-2,-1.714301E-2,-4.370414E-3,-2.285897E-2,-6.5215006E-3,4.966025E-3,1.455389E-4,2.0775305E-2],"categories":[],"categories_nodes":[],"categories_segments":[],"categories_sizes":[],"default_left":[0,0,0,0,0,0,0,0,0,0,0,0,0,0,0],"id":44,"left_children":[1,3,5,7,9,11,13,-1,-1,-1,-1,-1,-1,-1,-1],"loss_changes":[1.4425555E5,2.6892117E4,5.5321516E4,2.3728438E3,1.7368604E4,1.722954E4,4.1419688E3,0E0,0E0,0E0,0E0,0E0,0E0,0E0,0E0],"parents":[2147483647,0,0,1,1,2,2,3,3,4,4,5,5,6,6],"right_children":[2,4,6,8,10,12,14,-1,-1,-1,-1,-1,-1,-1,-1],"split_conditions":[-1.1E3,-1.2E2,1.68E2,3E0,1E0,-4E0,1.35E3,-2.4054442E-2,-1.714301E-2,-4.370414E-3,-2.285897E-2,-6.5215006E-3,4.966025E-3,1.455389E-4,2.0775305E-2],"split_indices":[405,399,399,196,401,406,405,0,0,0,0,0,0,0,0],"split_type":[0,0,0,0,0,0,0,0,0,0,0,0,0,0,0],"sum_hessian":[6.815137E5,2.3062986E5,4.5088384E5,8.739669E4,1.4323317E5,3.5343634E5,9.744749E4,5.651252E4,3.088417E4,1.1871822E5,2.4514955E4,6.3698574E4,2.8973778E5,4.0630896E3,9.33844E4],"tree_param":{"num_deleted":"0","num_feature":"412","num_nodes":"15","size_leaf_vector":"1"}},{"base_weights":[-4.4495348E-4,-8.893671E-1,2.3196714E-1,-1.075095E0,-5.074561E-1,-4.204994E-2,7.099987E-1,-2.465071E-2,-1.8134506E-2,-1.5693784E-2,-4.931387E-3,-1.0994304E-2,1.5193174E-3,9.012603E-3,2.1259274E-2],"categories":[],"categories_nodes":[],"categories_segments":[],"categories_sizes":[],"default_left":[0,0,0,0,0,0,0,0,0,0,0,0,0,0,0],"id":45,"left_children":[1,3,5,7,9,11,13,-1,-1,-1,-1,-1,-1,-1,-1],"loss_changes":[1.4040039E5,9.984906E3,7.056855E4,2.4997188E3,3.3324062E3,2.0517574E4,1.7964938E4,0E0,0E0,0E0,0E0,0E0,0E0,0E0,0E0],"parents":[2147483647,0,0,1,1,2,2,3,3,4,4,5,5,6,6],"right_children":[2,4,6,8,10,12,14,-1,-1,-1,-1,-1,-1,-1,-1],"split_conditions":[0E0,1.435E4,6.3E3,-1E0,3.44E2,-6.25E3,1.68E2,-2.465071E-2,-1.8134506E-2,-1.5693784E-2,-4.931387E-3,-1.0994304E-2,1.5193174E-3,9.012603E-3,2.1259274E-2],"split_indices":[398,71,405,398,74,405,399,0,0,0,0,0,0,0,0],"split_type":[0,0,0,0,0,0,0,0,0,0,0,0,0,0,0],"sum_hessian":[6.795668E5,1.4084395E5,5.387229E5,9.47476E4,4.609635E4,3.4243884E5,1.96284E5,4.892851E4,4.5819086E4,2.233747E4,2.3758879E4,6.458419E4,2.7785466E5,1.1315717E5,8.312683E4],"tree_param":{"num_deleted":"0","num_feature":"412","num_nodes":"15","size_leaf_vector":"1"}},{"base_weights":[3.137523E-4,-4.7191188E-1,4.2440832E-1,-9.37787E-1,-1.8714051E-1,2.181749E-1,1.0156795E0,-1.4759462E-2,-2.484136E-2,-1.6367178E-2,-1.7769161E-3,1.5353124E-3,1.0061051E-2,2.285963E-2,1.5268909E-2],"categories":[],"categories_nodes":[],"categories_segments":[],"categories_sizes":[],"default_left":[0,0,0,0,0,0,0,0,0,0,0,0,0,0,0],"id":46,"left_children":[1,3,5,7,9,11,13,-1,-1,-1,-1,-1,-1,-1,-1],"loss_changes":[1.3557477E5,4.249221E4,4.34883E4,7.377789E3,1.2333936E4,1.0652251E4,2.9518828E3,0E0,0E0,0E0,0E0,0E0,0E0,0E0,0E0],"parents":[2147483647,0,0,1,1,2,2,3,3,4,4,5,5,6,6],"right_children":[2,4,6,8,10,12,14,-1,-1,-1,-1,-1,-1,-1,-1],"split_conditions":[1.1E3,-3.6E1,1.68E2,1E0,-1.15E2,4.4E1,1.78E2,-1.4759462E-2,-2.484136E-2,-1.6367178E-2,-1.7769161E-3,1.5353124E-3,1.0061051E-2,2.285963E-2,1.5268909E-2],"split_indices":[405,406,399,401,399,406,260,0,0,0,0,0,0,0,0],"split_type":[0,0,0,0,0,0,0,0,0,0,0,0,0,0,0],"sum_hessian":[6.769451E5,3.202962E5,3.5664894E5,1.2150082E5,1.9879536E5,2.644309E5,9.221804E4,7.336197E4,4.813885E4,2.6775166E4,1.720202E5,1.7672248E5,8.770843E4,6.1261863E4,3.0956182E4],"tree_param":{"num_deleted":"0","num_feature":"412","num_nodes":"15","size_leaf_vector":"1"}},{"base_weights":[8.6433167E-4,-8.706206E-1,2.2595786E-1,-6.481773E-1,-1.210546E0,-3.91838E-2,6.928442E-1,-2.1027204E-2,-8.271003E-3,-2.089879E-2,-2.5360273E-2,-3.0202237E-3,9.834116E-3,2.188986E-2,9.33169E-3],"categories":[],"categories_nodes":[],"categories_segments":[],"categories_sizes":[],"default_left":[0,0,0,0,0,0,0,0,0,0,0,0,0,0,0],"id":47,"left_children":[1,3,5,7,9,11,13,-1,-1,-1,-1,-1,-1,-1,-1],"loss_changes":[1.3234275E5,1.0462727E4,6.637288E4,7.915707E3,5.068672E2,2.0302986E4,1.7642625E4,0E0,0E0,0E0,0E0,0E0,0E0,0E0,0E0],"parents":[2147483647,0,0,1,1,2,2,3,3,4,4,5,5,6,6],"right_children":[2,4,6,8,10,12,14,-1,-1,-1,-1,-1,-1,-1,-1],"split_conditions":[0E0,1E0,6.3E3,-1.02E2,1.0414705E3,7E1,1.95E2,-2.1027204E-2,-8.271003E-3,-2.089879E-2,-2.5360273E-2,-3.0202237E-3,9.834116E-3,2.188986E-2,9.33169E-3],"split_indices":[398,401,405,406,265,406,260,0,0,0,0,0,0,0,0],"split_type":[0,0,0,0,0,0,0,0,0,0,0,0,0,0,0],"sum_hessian":[6.746286E5,1.3847398E5,5.361546E5,8.371958E4,5.475441E4,3.4196412E5,1.941905E5,3.0783768E4,5.2935812E4,1.4157736E4,4.0596676E4,2.824718E5,5.949234E4,6.995966E4,1.24230836E5],"tree_param":{"num_deleted":"0","num_feature":"412","num_nodes":"15","size_leaf_vector":"1"}},{"base_weights":[-4.9180066E-4,-8.600067E-1,2.2065687E-1,-6.3816684E-1,-1.2018994E0,-3.3359785E-2,6.9211817E-1,-2.0858087E-2,-8.087717E-3,-2.1917481E-2,-2.5493735E-2,-2.8995397E-3,9.72393E-3,2.193245E-2,9.358487E-3],"categories":[],"categories_nodes":[],"categories_segments":[],"categories_sizes":[],"default_left":[0,0,0,0,0,0,0,0,0,0,0,0,0,0,0],"id":48,"left_children":[1,3,5,7,9,11,13,-1,-1,-1,-1,-1,-1,-1,-1],"loss_changes":[1.27878445E5,1.0433523E4,6.4081527E4,7.897797E3,4.029297E2,2.016656E4,1.698482E4,0E0,0E0,0E0,0E0,0E0,0E0,0E0,0E0],"parents":[2147483647,0,0,1,1,2,2,3,3,4,4,5,5,6,6],"right_children":[2,4,6,8,10,12,14,-1,-1,-1,-1,-1,-1,-1,-1],"split_conditions":[0E0,1E0,6.55E3,-1.02E2,1.0245671E3,7E1,1.93E2,-2.0858087E-2,-8.087717E-3,-2.1917481E-2,-2.5493735E-2,-2.8995397E-3,9.72393E-3,2.193245E-2,9.358487E-3],"split_indices":[398,401,405,406,66,406,260,0,0,0,0,0,0,0,0],"split_type":[0,0,0,0,0,0,0,0,0,0,0,0,0,0,0],"sum_hessian":[6.7273756E5,1.3766433E5,5.3507325E5,8.3509086E4,5.415524E4,3.4773006E5,1.8734322E5,3.0561717E4,5.2947367E4,2.2113135E4,3.2042104E4,2.862438E5,6.1486254E4,6.679187E4,1.2055135E5],"tree_param":{"num_deleted":"0","num_feature":"412","num_nodes":"15","size_leaf_vector":"1"}},{"base_weights":[6.748721E-4,-7.8081834E-1,2.3793028E-1,-1.0130165E0,-4.388154E-1,1.0832764E-2,7.351287E-1,-2.1416571E-2,-4.3868525E-3,-6.5744272E-3,-2.5076076E-2,-2.159911E-3,9.939768E-3,9.089071E-3,2.0576043E-2],"categories":[],"categories_nodes":[],"categories_segments":[],"categories_sizes":[],"default_left":[0,0,0,0,0,0,0,0,0,0,0,0,0,0,0],"id":49,"left_children":[1,3,5,7,9,11,13,-1,-1,-1,-1,-1,-1,-1,-1],"loss_changes":[1.2429093E5,1.2392508E4,5.8062652E4,4.2633047E3,5.66137E3,2.03936E4,1.3284586E4,0E0,0E0,0E0,0E0,0E0,0E0,0E0,0E0],"parents":[2147483647,0,0,1,1,2,2,3,3,4,4,5,5,6,6],"right_children":[2,4,6,8,10,12,14,-1,-1,-1,-1,-1,-1,-1,-1],"split_conditions":[-6.1E1,2.46E2,7.8E3,2.8E1,1E0,7E1,1.68E2,-2.1416571E-2,-4.3868525E-3,-6.5744272E-3,-2.5076076E-2,-2.159911E-3,9.939768E-3,9.089071E-3,2.0576043E-2],"split_indices":[399,61,405,406,401,406,399,0,0,0,0,0,0,0,0],"split_type":[0,0,0,0,0,0,0,0,0,0,0,0,0,0,0],"sum_hessian":[6.7032506E5,1.561056E5,5.142195E5,9.296635E4,6.313924E4,3.529975E5,1.61222E5,8.665063E4,6.315715E3,5.563805E4,7.501187E3,2.8366912E5,6.932837E4,8.2449266E4,7.8772734E4],"tree_param":{"num_deleted":"0","num_feature":"412","num_nodes":"15","size_leaf_vector":"1"}},{"base_weights":[6.339125E-4,-8.4364516E-1,2.15278E-1,-1.0467768E0,-4.911203E-1,-3.553407E-2,6.634393E-1,-2.414161E-2,-1.7518423E-2,-7.306637E-3,-2.0603556E-2,-1.0399892E-2,1.5245215E-3,2.1377604E-2,8.809539E-3],"categories":[],"categories_nodes":[],"categories_segments":[],"categories_sizes":[],"default_left":[0,0,0,0,0,0,0,0,0,0,0,0,0,0,0],"id":50,"left_children":[1,3,5,7,9,11,13,-1,-1,-1,-1,-1,-1,-1,-1],"loss_changes":[1.2102487E5,9.687961E3,5.9851938E4,2.340461E3,3.3526406E3,1.8485707E4,1.7266633E4,0E0,0E0,0E0,0E0,0E0,0E0,0E0,0E0],"parents":[2147483647,0,0,1,1,2,2,3,3,4,4,5,5,6,6],"right_children":[2,4,6,8,10,12,14,-1,-1,-1,-1,-1,-1,-1,-1],"split_conditions":[0E0,1.335E4,6.3E3,-1E0,1.7733024E3,-6.25E3,1.95E2,-2.414161E-2,-1.7518423E-2,-7.306637E-3,-2.0603556E-2,-1.0399892E-2,1.5245215E-3,2.1377604E-2,8.809539E-3],"split_indices":[398,71,405,398,402,405,260,0,0,0,0,0,0,0,0],"split_type":[0,0,0,0,0,0,0,0,0,0,0,0,0,0,0],"sum_hessian":[6.6781644E5,1.3536022E5,5.324562E5,8.586313E4,4.9497094E4,3.4140094E5,1.9105528E5,4.4266492E4,4.159664E4,4.0146695E4,9.350398E3,6.3988332E4,2.774126E5,6.777359E4,1.2328169E5],"tree_param":{"num_deleted":"0","num_feature":"412","num_nodes":"15","size_leaf_vector":"1"}},{"base_weights":[-3.0428063E-4,-8.330888E-1,2.102118E-1,-6.104404E-1,-1.1822294E0,5.9634004E-2,9.4228137E-1,-2.1469135E-2,-8.165871E-3,-2.0673659E-2,-2.500329E-2,-1.0295487E-2,3.1378728E-3,2.1567127E-2,1.2000833E-2],"categories":[],"categories_nodes":[],"categories_segments":[],"categories_sizes":[],"default_left":[0,0,0,0,0,0,0,0,0,0,0,0,0,0,0],"id":51,"left_children":[1,3,5,7,9,11,13,-1,-1,-1,-1,-1,-1,-1,-1],"loss_changes":[1.1669081E5,1.0432375E4,5.856626E4,7.6728477E3,5.1365625E2,2.4619723E4,4.2138516E3,0E0,0E0,0E0,0E0,0E0,0E0,0E0,0E0],"parents":[2147483647,0,0,1,1,2,2,3,3,4,4,5,5,6,6],"right_children":[2,4,6,8,10,12,14,-1,-1,-1,-1,-1,-1,-1,-1],"split_conditions":[0E0,1E0,1.68E2,-1.58E2,1.1428945E3,-6.25E3,2E2,-2.1469135E-2,-8.165871E-3,-2.0673659E-2,-2.500329E-2,-1.0295487E-2,3.1378728E-3,2.1567127E-2,1.2000833E-2],"split_indices":[398,401,399,399,265,405,260,0,0,0,0,0,0,0,0],"split_type":[0,0,0,0,0,0,0,0,0,0,0,0,0,0,0],"sum_hessian":[6.655867E5,1.3429558E5,5.312911E5,8.202011E4,5.2275473E4,4.4066353E5,9.062759E4,2.491247E4,5.710764E4,1.645842E4,3.581705E4,6.380261E4,3.768609E5,6.4828652E4,2.5798941E4],"tree_param":{"num_deleted":"0","num_feature":"412","num_nodes":"15","size_leaf_vector":"1"}},{"base_weights":[-7.5759186E-4,-6.5409666E-1,2.6142645E-1,-9.2227453E-1,-2.2075024E-1,1.053839E-1,9.466815E-1,-1.43014705E-2,-2.3408066E-2,-7.4678096E-3,1.7697995E-3,-1.5288323E-2,3.1212207E-3,2.1584691E-2,1.2293111E-2],"categories":[],"categories_nodes":[],"categories_segments":[],"categories_sizes":[],"default_left":[0,0,0,0,0,0,0,0,0,0,0,0,0,0,0],"id":52,"left_children":[1,3,5,7,9,11,13,-1,-1,-1,-1,-1,-1,-1,-1],"loss_changes":[1.13588586E5,2.2066664E4,5.0598992E4,6.0216094E3,3.4277595E3,1.699151E4,3.8554844E3,0E0,0E0,0E0,0E0,0E0,0E0,0E0,0E0],"parents":[2147483647,0,0,1,1,2,2,3,3,4,4,5,5,6,6],"right_children":[2,4,6,8,10,12,14,-1,-1,-1,-1,-1,-1,-1,-1],"split_conditions":[-4E0,3.13E2,1.68E2,1E0,2.545E4,-1.15E2,2E2,-1.43014705E-2,-2.3408066E-2,-7.4678096E-3,1.7697995E-3,-1.5288323E-2,3.1212207E-3,2.1584691E-2,1.2293111E-2],"split_indices":[406,61,399,401,71,399,260,0,0,0,0,0,0,0,0],"split_type":[0,0,0,0,0,0,0,0,0,0,0,0,0,0,0],"sum_hessian":[6.6309525E5,1.8989069E5,4.7320456E5,1.1729189E5,7.25988E4,3.8544534E5,8.775923E4,6.3939773E4,5.335212E4,4.8605953E4,2.3992842E4,2.121251E4,3.6423284E5,6.2702707E4,2.5056518E4],"tree_param":{"num_deleted":"0","num_feature":"412","num_nodes":"15","size_leaf_vector":"1"}},{"base_weights":[-6.7912653E-4,-7.4626684E-1,2.2099526E-1,-9.8311454E-1,-4.1185418E-1,6.025818E-3,7.016961E-1,-2.1543916E-2,-1.4001346E-2,-6.0552643E-3,-2.4511594E-2,1.4756977E-3,-1.0888811E-2,2.191639E-2,9.876483E-3],"categories":[],"categories_nodes":[],"categories_segments":[],"categories_sizes":[],"default_left":[0,0,0,0,0,0,0,0,0,0,0,0,0,0,0],"id":53,"left_children":[1,3,5,7,9,11,13,-1,-1,-1,-1,-1,-1,-1,-1],"loss_changes":[1.09241555E5,1.199307E4,5.264735E4,2.3528125E3,5.572342E3,1.3131634E4,1.2892078E4,0E0,0E0,0E0,0E0,0E0,0E0,0E0,0E0],"parents":[2147483647,0,0,1,1,2,2,3,3,4,4,5,5,6,6],"right_children":[2,4,6,8,10,12,14,-1,-1,-1,-1,-1,-1,-1,-1],"split_conditions":[-6.1E1,2.21E2,7.8E3,-1.15E2,1E0,1E0,1.78E2,-2.1543916E-2,-1.4001346E-2,-6.0552643E-3,-2.4511594E-2,1.4756977E-3,-1.0888811E-2,2.191639E-2,9.876483E-3],"split_indices":[399,61,405,399,401,401,260,0,0,0,0,0,0,0,0],"split_type":[0,0,0,0,0,0,0,0,0,0,0,0,0,0,0],"sum_hessian":[6.609361E5,1.5146625E5,5.0946988E5,8.865532E4,6.281094E4,3.5204597E5,1.5742392E5,6.651626E4,2.2139062E4,5.5398473E4,7.4124673E3,3.1346925E5,3.85767E4,5.4343613E4,1.03080305E5],"tree_param":{"num_deleted":"0","num_feature":"412","num_nodes":"15","size_leaf_vector":"1"}},{"base_weights":[2.319243E-4,-8.0686104E-1,2.0092535E-1,-1.0142219E0,-4.5669547E-1,5.748929E-2,9.156608E-1,-2.3540381E-2,-1.653837E-2,-1.4174053E-2,-3.807644E-3,-9.944771E-3,3.010876E-3,2.1279868E-2,1.2065095E-2],"categories":[],"categories_nodes":[],"categories_segments":[],"categories_sizes":[],"default_left":[0,0,0,0,0,0,0,0,0,0,0,0,0,0,0],"id":54,"left_children":[1,3,5,7,9,11,13,-1,-1,-1,-1,-1,-1,-1,-1],"loss_changes":[1.067753E5,9.526656E3,5.4121156E4,2.5031797E3,3.27638E3,2.269774E4,4.0817734E3,0E0,0E0,0E0,0E0,0E0,0E0,0E0,0E0],"parents":[2147483647,0,0,1,1,2,2,3,3,4,4,5,5,6,6],"right_children":[2,4,6,8,10,12,14,-1,-1,-1,-1,-1,-1,-1,-1],"split_conditions":[0E0,1.335E4,1.68E2,-1.02E2,3.44E2,-6.25E3,1.93E2,-2.3540381E-2,-1.653837E-2,-1.4174053E-2,-3.807644E-3,-9.944771E-3,3.010876E-3,2.1279868E-2,1.2065095E-2],"split_indices":[398,71,399,406,74,405,260,0,0,0,0,0,0,0,0],"split_type":[0,0,0,0,0,0,0,0,0,0,0,0,0,0,0],"sum_hessian":[6.5917606E5,1.312637E5,5.279124E5,8.243E4,4.88337E4,4.396859E5,8.822646E4,4.407006E4,3.8359938E4,2.50814E4,2.3752299E4,6.315438E4,3.7653153E5,5.9804957E4,2.84215E4],"tree_param":{"num_deleted":"0","num_feature":"412","num_nodes":"15","size_leaf_vector":"1"}},{"base_weights":[-8.47871E-5,-6.3124436E-1,2.5086585E-1,-4.1590735E-1,-1.158456E0,1.0172977E-1,9.2363894E-1,-1.943041E-2,-4.9034925E-3,-2.0467464E-2,-2.5000123E-2,-1.4786734E-2,2.999258E-3,2.1149136E-2,1.1913823E-2],"categories":[],"categories_nodes":[],"categories_segments":[],"categories_sizes":[],"default_left":[0,0,0,0,0,0,0,0,0,0,0,0,0,0,0],"id":55,"left_children":[1,3,5,7,9,11,13,-1,-1,-1,-1,-1,-1,-1,-1],"loss_changes":[1.0401483E5,2.1204383E4,4.7143594E4,1.2581684E4,6.5610156E2,1.560427E4,3.7345781E3,0E0,0E0,0E0,0E0,0E0,0E0,0E0,0E0],"parents":[2147483647,0,0,1,1,2,2,3,3,4,4,5,5,6,6],"right_children":[2,4,6,8,10,12,14,-1,-1,-1,-1,-1,-1,-1,-1],"split_conditions":[-4E0,1E0,1.68E2,-1.32E2,1.1826355E3,-1.15E2,2E2,-1.943041E-2,-4.9034925E-3,-2.0467464E-2,-2.5000123E-2,-1.4786734E-2,2.999258E-3,2.1149136E-2,1.1913823E-2],"split_indices":[406,401,399,399,402,399,260,0,0,0,0,0,0,0,0],"split_type":[0,0,0,0,0,0,0,0,0,0,0,0,0,0,0],"sum_hessian":[6.5667994E5,1.8681416E5,4.6986575E5,1.3265202E5,5.4162145E4,3.8461828E5,8.524748E4,3.1169053E4,1.0148297E5,2.193106E4,3.2231084E4,2.0852297E4,3.6376597E5,6.05262E4,2.472128E4],"tree_param":{"num_deleted":"0","num_feature":"412","num_nodes":"15","size_leaf_vector":"1"}},{"base_weights":[-8.380916E-4,-7.915662E-1,1.9359803E-1,-5.715177E-1,-1.1493466E0,-3.3282705E-2,6.293625E-1,-1.990293E-2,-6.984099E-3,-2.0099605E-2,-2.447263E-2,-2.6690057E-3,9.672852E-3,2.1415686E-2,8.665663E-3],"categories":[],"categories_nodes":[],"categories_segments":[],"categories_sizes":[],"default_left":[0,0,0,0,0,0,0,0,0,0,0,0,0,0,0],"id":56,"left_children":[1,3,5,7,9,11,13,-1,-1,-1,-1,-1,-1,-1,-1],"loss_changes":[1.006721E5,1.0167094E4,5.1960734E4,7.5339707E3,5.1435547E2,1.7896705E4,1.5569727E4,0E0,0E0,0E0,0E0,0E0,0E0,0E0,0E0],"parents":[2147483647,0,0,1,1,2,2,3,3,4,4,5,5,6,6],"right_children":[2,4,6,8,10,12,14,-1,-1,-1,-1,-1,-1,-1,-1],"split_conditions":[0E0,1E0,6.55E3,-1.05E2,1.1262086E3,1E0,1.78E2,-1.990293E-2,-6.984099E-3,-2.0099605E-2,-2.447263E-2,-2.6690057E-3,9.672852E-3,2.1415686E-2,8.665663E-3],"split_indices":[398,401,405,406,402,398,260,0,0,0,0,0,0,0,0],"split_type":[0,0,0,0,0,0,0,0,0,0,0,0,0,0,0],"sum_hessian":[6.5477275E5,1.2922281E5,5.2554994E5,8.002928E4,4.9193535E4,3.456145E5,1.7993545E5,2.75308E4,5.2498477E4,1.6765127E4,3.2428406E4,2.8952066E5,5.6093844E4,5.532906E4,1.2460639E5],"tree_param":{"num_deleted":"0","num_feature":"412","num_nodes":"15","size_leaf_vector":"1"}},{"base_weights":[-3.390307E-4,-7.8336465E-1,1.9102517E-1,-5.64118E-1,-1.1432308E0,-3.786014E-2,6.117842E-1,-2.060088E-2,-7.382079E-3,-1.9221276E-2,-2.4108933E-2,-2.6690566E-3,9.482163E-3,2.1095848E-2,8.406822E-3],"categories":[],"categories_nodes":[],"categories_segments":[],"categories_sizes":[],"default_left":[0,0,0,0,0,0,0,0,0,0,0,0,0,0,0],"id":57,"left_children":[1,3,5,7,9,11,13,-1,-1,-1,-1,-1,-1,-1,-1],"loss_changes":[9.7722266E4,1.0098359E4,5.04724E4,7.229324E3,5.368828E2,1.6613078E4,1.5655102E4,0E0,0E0,0E0,0E0,0E0,0E0,0E0,0E0],"parents":[2147483647,0,0,1,1,2,2,3,3,4,4,5,5,6,6],"right_children":[2,4,6,8,10,12,14,-1,-1,-1,-1,-1,-1,-1,-1],"split_conditions":[0E0,1E0,6.3E3,-1.58E2,1.0277759E3,1E0,1.78E2,-2.060088E-2,-7.382079E-3,-1.9221276E-2,-2.4108933E-2,-2.6690566E-3,9.482163E-3,2.1095848E-2,8.406822E-3],"split_indices":[398,401,405,399,265,398,260,0,0,0,0,0,0,0,0],"split_type":[0,0,0,0,0,0,0,0,0,0,0,0,0,0,0],"sum_hessian":[6.5214225E5,1.2807087E5,5.240714E5,7.9601336E4,4.8469535E4,3.3943397E5,1.846374E5,2.3473387E4,5.612795E4,1.2383779E4,3.6085754E4,2.860349E5,5.3399086E4,5.5699152E4,1.2893826E5],"tree_param":{"num_deleted":"0","num_feature":"412","num_nodes":"15","size_leaf_vector":"1"}},{"base_weights":[-4.3563865E-4,-7.740996E-1,1.8728033E-1,-5.5543065E-1,-1.1356896E0,5.281834E-2,8.8235986E-1,-2.0342156E-2,-7.29349E-3,-2.0423068E-2,-2.4308307E-2,-1.4928873E-2,2.021165E-3,2.046262E-2,1.0926598E-2],"categories":[],"categories_nodes":[],"categories_segments":[],"categories_sizes":[],"default_left":[0,0,0,0,0,0,0,0,0,0,0,0,0,0,0],"id":58,"left_children":[1,3,5,7,9,11,13,-1,-1,-1,-1,-1,-1,-1,-1],"loss_changes":[9.44052E4,1.0028797E4,4.8890633E4,6.9631934E3,4.2323828E2,1.6901146E4,4.0047031E3,0E0,0E0,0E0,0E0,0E0,0E0,0E0,0E0],"parents":[2147483647,0,0,1,1,2,2,3,3,4,4,5,5,6,6],"right_children":[2,4,6,8,10,12,14,-1,-1,-1,-1,-1,-1,-1,-1],"split_conditions":[0E0,1E0,1.68E2,-1.58E2,1.0245671E3,-1.15E2,2E2,-2.0342156E-2,-7.29349E-3,-2.0423068E-2,-2.4308307E-2,-1.4928873E-2,2.021165E-3,2.046262E-2,1.0926598E-2],"split_indices":[398,401,399,399,66,399,260,0,0,0,0,0,0,0,0],"split_type":[0,0,0,0,0,0,0,0,0,0,0,0,0,0,0],"sum_hessian":[6.500217E5,1.2691525E5,5.231064E5,7.910435E4,4.78109E4,4.383247E5,8.478171E4,2.3114781E4,5.5989574E4,1.9681465E4,2.8129436E4,2.494068E4,4.1338403E5,5.9735234E4,2.5046475E4],"tree_param":{"num_deleted":"0","num_feature":"412","num_nodes":"15","size_leaf_vector":"1"}},{"base_weights":[-5.7137024E-4,-6.0315204E-1,2.3581432E-1,-3.942327E-1,-1.132771E0,6.6472106E-2,7.7643996E-1,-1.5435348E-2,-3.3854858E-3,-2.0022625E-2,-2.4642112E-2,-1.2516896E-3,9.170936E-3,2.1302002E-2,1.1452802E-2],"categories":[],"categories_nodes":[],"categories_segments":[],"categories_sizes":[],"default_left":[0,0,0,0,0,0,0,0,0,0,0,0,0,0,0],"id":59,"left_children":[1,3,5,7,9,11,13,-1,-1,-1,-1,-1,-1,-1,-1],"loss_changes":[9.2313875E4,2.0199508E4,4.261417E4,1.1121066E4,6.6202344E2,1.7936262E4,6.524703E3,0E0,0E0,0E0,0E0,0E0,0E0,0E0,0E0],"parents":[2147483647,0,0,1,1,2,2,3,3,4,4,5,5,6,6],"right_children":[2,4,6,8,10,12,14,-1,-1,-1,-1,-1,-1,-1,-1],"split_conditions":[-4E0,1E0,9.95E3,-5.3E3,1.2340712E3,7E1,7.15E3,-1.5435348E-2,-3.3854858E-3,-2.0022625E-2,-2.4642112E-2,-1.2516896E-3,9.170936E-3,2.1302002E-2,1.1452802E-2],"split_indices":[406,401,405,405,402,406,270,0,0,0,0,0,0,0,0],"split_type":[0,0,0,0,0,0,0,0,0,0,0,0,0,0,0],"sum_hessian":[6.480617E5,1.8259264E5,4.6546903E5,1.3095368E5,5.1638957E4,3.5445412E5,1.1101491E5,4.8885543E4,8.206814E4,2.2258436E4,2.938052E4,2.666805E5,8.777365E4,4.592388E4,6.5091023E4],"tree_param":{"num_deleted":"0","num_feature":"412","num_nodes":"15","size_leaf_vector":"1"}},{"base_weights":[1.7539339E-4,-5.5805457E-1,2.4903953E-1,-9.6381634E-1,-3.1689972E-1,1.067007E-1,8.6333287E-1,-2.1971289E-2,-1.4733593E-2,-1.1771216E-2,-2.4331775E-3,-5.839993E-3,4.0026447E-3,-1.4173575E-3,1.8226266E-2],"categories":[],"categories_nodes":[],"categories_segments":[],"categories_sizes":[],"default_left":[0,0,0,0,0,0,0,0,0,0,0,0,0,0,0],"id":60,"left_children":[1,3,5,7,9,11,13,-1,-1,-1,-1,-1,-1,-1,-1],"loss_changes":[8.971902E4,1.948207E4,3.9055668E4,2.2629219E3,6.624593E3,1.3510232E4,3.7673906E3,0E0,0E0,0E0,0E0,0E0,0E0,0E0,0E0],"parents":[2147483647,0,0,1,1,2,2,3,3,4,4,5,5,6,6],"right_children":[2,4,6,8,10,12,14,-1,-1,-1,-1,-1,-1,-1,-1],"split_conditions":[-1.65E3,-1.2E2,1.68E2,3E0,-8E0,-4E0,1.35E3,-2.1971289E-2,-1.4733593E-2,-1.1771216E-2,-2.4331775E-3,-5.839993E-3,4.0026447E-3,-1.4173575E-3,1.8226266E-2],"split_indices":[405,399,399,196,406,406,405,0,0,0,0,0,0,0,0],"split_type":[0,0,0,0,0,0,0,0,0,0,0,0,0,0,0],"sum_hessian":[6.4579675E5,1.9912444E5,4.4667234E5,7.421682E4,1.24907625E5,3.626538E5,8.401851E4,4.655656E4,2.7660262E4,5.222234E4,7.268528E4,6.884524E4,2.938086E5,4.1038066E3,7.9914695E4],"tree_param":{"num_deleted":"0","num_feature":"412","num_nodes":"15","size_leaf_vector":"1"}},{"base_weights":[5.097667E-4,-6.839668E-1,1.9611573E-1,-9.249395E-1,-3.5274094E-1,6.47469E-2,8.4857327E-1,-1.9767204E-2,-4.0417267E-3,-5.0481176E-3,-2.3489768E-2,2.5256753E-3,-1.0594003E-2,1.2429895E-2,2.0723788E-2],"categories":[],"categories_nodes":[],"categories_segments":[],"categories_sizes":[],"default_left":[0,0,0,0,0,0,0,0,0,0,0,0,0,0,0],"id":61,"left_children":[1,3,5,7,9,11,13,-1,-1,-1,-1,-1,-1,-1,-1],"loss_changes":[8.617602E4,1.1414406E4,4.290599E4,3.7935703E3,4.965158E3,1.5243709E4,3.5671836E3,0E0,0E0,0E0,0E0,0E0,0E0,0E0,0E0],"parents":[2147483647,0,0,1,1,2,2,3,3,4,4,5,5,6,6],"right_children":[2,4,6,8,10,12,14,-1,-1,-1,-1,-1,-1,-1,-1],"split_conditions":[-6.1E1,2.46E2,1.68E2,2.3E1,1E0,1E0,2.42E2,-1.9767204E-2,-4.0417267E-3,-5.0481176E-3,-2.3489768E-2,2.5256753E-3,-1.0594003E-2,1.2429895E-2,2.0723788E-2],"split_indices":[399,61,399,406,401,401,399,0,0,0,0,0,0,0,0],"split_type":[0,0,0,0,0,0,0,0,0,0,0,0,0,0,0],"sum_hessian":[6.4362475E5,1.4304511E5,5.0057962E5,8.279266E4,6.0252457E4,4.1669256E5,8.388706E4,7.611074E4,6.6819155E3,5.3708457E4,6.544E3,3.7761106E5,3.9081492E4,3.797294E4,4.5914117E4],"tree_param":{"num_deleted":"0","num_feature":"412","num_nodes":"15","size_leaf_vector":"1"}},{"base_weights":[4.0658086E-4,-7.4267036E-1,1.7670144E-1,-9.5606583E-1,-3.9989367E-1,5.0898697E-2,8.516241E-1,-2.2752255E-2,-1.5492375E-2,-5.6052255E-3,-1.9112023E-2,-2.0570738E-2,1.6697834E-3,1.9924339E-2,1.024692E-2],"categories":[],"categories_nodes":[],"categories_segments":[],"categories_sizes":[],"default_left":[0,0,0,0,0,0,0,0,0,0,0,0,0,0,0],"id":62,"left_children":[1,3,5,7,9,11,13,-1,-1,-1,-1,-1,-1,-1,-1],"loss_changes":[8.406678E4,8.996742E3,4.4038406E4,2.4883672E3,3.1369077E3,1.5380836E4,3.9918672E3,0E0,0E0,0E0,0E0,0E0,0E0,0E0,0E0],"parents":[2147483647,0,0,1,1,2,2,3,3,4,4,5,5,6,6],"right_children":[2,4,6,8,10,12,14,-1,-1,-1,-1,-1,-1,-1,-1],"split_conditions":[0E0,1.335E4,1.68E2,-1E0,1.7853514E3,-2.91E2,2E2,-2.2752255E-2,-1.5492375E-2,-5.6052255E-3,-1.9112023E-2,-2.0570738E-2,1.6697834E-3,1.9924339E-2,1.024692E-2],"split_indices":[398,71,399,398,402,399,260,0,0,0,0,0,0,0,0],"split_type":[0,0,0,0,0,0,0,0,0,0,0,0,0,0,0],"sum_hessian":[6.4170894E5,1.2304474E5,5.1866422E5,7.582231E4,4.7222426E4,4.3718606E5,8.147816E4,3.7872855E4,3.794946E4,3.8870414E4,8.352011E3,1.2803277E4,4.2438278E5,5.7115824E4,2.4362326E4],"tree_param":{"num_deleted":"0","num_feature":"412","num_nodes":"15","size_leaf_vector":"1"}},{"base_weights":[4.5766385E-5,-5.397277E-1,2.3853071E-1,-3.75519E-1,-1.1158617E0,8.190245E-2,7.6300436E-1,-1.6470047E-2,-3.6206078E-3,-1.8893039E-2,-2.4040239E-2,1.066574E-4,1.5123373E-2,1.0159615E-2,2.0474534E-2],"categories":[],"categories_nodes":[],"categories_segments":[],"categories_sizes":[],"default_left":[0,0,0,0,0,0,0,0,0,0,0,0,0,0,0],"id":63,"left_children":[1,3,5,7,9,11,13,-1,-1,-1,-1,-1,-1,-1,-1],"loss_changes":[8.2374695E4,1.854666E4,3.6458004E4,1.3295031E4,6.2909766E2,1.7644818E4,6.780258E3,0E0,0E0,0E0,0E0,0E0,0E0,0E0,0E0],"parents":[2147483647,0,0,1,1,2,2,3,3,4,4,5,5,6,6],"right_children":[2,4,6,8,10,12,14,-1,-1,-1,-1,-1,-1,-1,-1],"split_conditions":[-1.65E3,1E0,1E2,-1.26E2,1.1262086E3,1.6E4,2E0,-1.6470047E-2,-3.6206078E-3,-1.8893039E-2,-2.4040239E-2,1.066574E-4,1.5123373E-2,1.0159615E-2,2.0474534E-2],"split_indices":[405,401,406,399,402,405,398,0,0,0,0,0,0,0,0],"split_type":[0,0,0,0,0,0,0,0,0,0,0,0,0,0,0],"sum_hessian":[6.398939E5,1.9608094E5,4.4381294E5,1.5260361E5,4.347733E4,3.4176197E5,1.0205097E5,4.6185516E4,1.0641809E5,1.4596149E4,2.888118E4,3.0691906E5,3.4842883E4,5.1605184E4,5.0445785E4],"tree_param":{"num_deleted":"0","num_feature":"412","num_nodes":"15","size_leaf_vector":"1"}},{"base_weights":[-5.9264386E-4,-5.7200694E-1,2.203902E-1,-8.6438227E-1,-2.2815706E-1,6.1949603E-2,7.405378E-1,-2.2178091E-2,-1.3537373E-2,-1.1778712E-2,-1.1584526E-3,-1.2140967E-3,9.226708E-3,2.0670805E-2,1.0836398E-2],"categories":[],"categories_nodes":[],"categories_segments":[],"categories_sizes":[],"default_left":[0,0,0,0,0,0,0,0,0,0,0,0,0,0,0],"id":64,"left_children":[1,3,5,7,9,11,13,-1,-1,-1,-1,-1,-1,-1,-1],"loss_changes":[8.04988E4,1.7870945E4,3.7885383E4,4.397133E3,5.0181284E3,1.726267E4,6.2433086E3,0E0,0E0,0E0,0E0,0E0,0E0,0E0,0E0],"parents":[2147483647,0,0,1,1,2,2,3,3,4,4,5,5,6,6],"right_children":[2,4,6,8,10,12,14,-1,-1,-1,-1,-1,-1,-1,-1],"split_conditions":[-4E0,1.435E4,9.95E3,-1.02E2,3.41E2,1E0,7.15E3,-2.2178091E-2,-1.3537373E-2,-1.1778712E-2,-1.1584526E-3,-1.2140967E-3,9.226708E-3,2.0670805E-2,1.0836398E-2],"split_indices":[406,71,405,406,74,398,270,0,0,0,0,0,0,0,0],"split_type":[0,0,0,0,0,0,0,0,0,0,0,0,0,0,0],"sum_hessian":[6.3747794E5,1.7777503E5,4.597029E5,9.607018E4,8.170486E4,3.5237816E5,1.0732476E5,4.167408E4,5.4396098E4,2.6184604E4,5.5520258E4,2.695922E5,8.278598E4,4.335488E4,6.396988E4],"tree_param":{"num_deleted":"0","num_feature":"412","num_nodes":"15","size_leaf_vector":"1"}},{"base_weights":[-7.679216E-4,-5.27534E-1,2.3081408E-1,-3.6523172E-1,-1.1064984E0,7.8760594E-2,7.463084E-1,-1.6194703E-2,-3.5048642E-3,-1.735097E-2,-2.3345478E-2,1.1099579E-4,1.4648416E-2,1.9063681E-2,8.4539745E-3],"categories":[],"categories_nodes":[],"categories_segments":[],"categories_sizes":[],"default_left":[0,0,0,0,0,0,0,0,0,0,0,0,0,0,0],"id":65,"left_children":[1,3,5,7,9,11,13,-1,-1,-1,-1,-1,-1,-1,-1],"loss_changes":[7.757389E4,1.8242996E4,3.4621867E4,1.2808381E4,6.0635547E2,1.6323659E4,6.7310664E3,0E0,0E0,0E0,0E0,0E0,0E0,0E0,0E0],"parents":[2147483647,0,0,1,1,2,2,3,3,4,4,5,5,6,6],"right_children":[2,4,6,8,10,12,14,-1,-1,-1,-1,-1,-1,-1,-1],"split_conditions":[-1.65E3,1E0,1E2,-1.26E2,9.306573E2,1.6E4,2.18E2,-1.6194703E-2,-3.5048642E-3,-1.735097E-2,-2.3345478E-2,1.1099579E-4,1.4648416E-2,1.9063681E-2,8.4539745E-3],"split_indices":[405,401,406,399,265,405,260,0,0,0,0,0,0,0,0],"split_type":[0,0,0,0,0,0,0,0,0,0,0,0,0,0,0],"sum_hessian":[6.3588475E5,1.9418098E5,4.4170378E5,1.5167803E5,4.250295E4,3.4110247E5,1.0060133E5,4.5407055E4,1.0627098E5,8.65115E3,3.38518E4,3.067562E5,3.434627E4,6.1356613E4,3.924472E4],"tree_param":{"num_deleted":"0","num_feature":"412","num_nodes":"15","size_leaf_vector":"1"}},{"base_weights":[1.4700185E-3,-7.132275E-1,1.6745304E-1,-4.9693298E-1,-1.092111E0,-3.500973E-2,5.5268115E-1,-1.9501507E-2,-6.4504556E-3,-1.7743282E-2,-2.325509E-2,-2.4294485E-3,8.7041445E-3,2.0048639E-2,7.500498E-3],"categories":[],"categories_nodes":[],"categories_segments":[],"categories_sizes":[],"default_left":[0,0,0,0,0,0,0,0,0,0,0,0,0,0,0],"id":66,"left_children":[1,3,5,7,9,11,13,-1,-1,-1,-1,-1,-1,-1,-1],"loss_changes":[7.5133016E4,9.776223E3,4.008825E4,6.334879E3,6.166875E2,1.3698459E4,1.414391E4,0E0,0E0,0E0,0E0,0E0,0E0,0E0,0E0],"parents":[2147483647,0,0,1,1,2,2,3,3,4,4,5,5,6,6],"right_children":[2,4,6,8,10,12,14,-1,-1,-1,-1,-1,-1,-1,-1],"split_conditions":[0E0,1E0,6.3E3,-1E0,1.0196044E3,1E0,1.76E2,-1.9501507E-2,-6.4504556E-3,-1.7743282E-2,-2.325509E-2,-2.4294485E-3,8.7041445E-3,2.0048639E-2,7.500498E-3],"split_indices":[398,401,405,398,265,398,260,0,0,0,0,0,0,0,0],"split_type":[0,0,0,0,0,0,0,0,0,0,0,0,0,0,0],"sum_hessian":[6.3333256E5,1.1935827E5,5.1397425E5,7.599772E4,4.336056E4,3.369128E5,1.7706145E5,2.0299129E4,5.569859E4,1.1151604E4,3.2208953E4,2.84591E5,5.2321816E4,5.012263E4,1.2693882E5],"tree_param":{"num_deleted":"0","num_feature":"412","num_nodes":"15","size_leaf_vector":"1"}},{"base_weights":[-6.971725E-4,-5.5244136E-1,2.1043499E-1,-3.528349E-1,-1.090795E0,8.843962E-1,9.369108E-2,-1.7636152E-2,-4.111528E-3,-1.9019032E-2,-2.4000533E-2,2.051685E-2,9.83657E-3,4.621482E-4,1.2850707E-2],"categories":[],"categories_nodes":[],"categories_segments":[],"categories_sizes":[],"default_left":[0,0,0,0,0,0,0,0,0,0,0,0,0,0,0],"id":67,"left_children":[1,3,5,7,9,11,13,-1,-1,-1,-1,-1,-1,-1,-1],"loss_changes":[7.355987E4,1.8775414E4,3.5932406E4,9.930111E3,7.0959766E2,3.7384336E3,1.508022E4,0E0,0E0,0E0,0E0,0E0,0E0,0E0,0E0],"parents":[2147483647,0,0,1,1,2,2,3,3,4,4,5,5,6,6],"right_children":[2,4,6,8,10,12,14,-1,-1,-1,-1,-1,-1,-1,-1],"split_conditions":[-4E0,1E0,1.08E2,-1.02E2,1.2340712E3,1E0,1.23E2,-1.7636152E-2,-4.111528E-3,-1.9019032E-2,-2.4000533E-2,2.051685E-2,9.83657E-3,4.621482E-4,1.2850707E-2],"split_indices":[406,401,260,406,402,401,406,0,0,0,0,0,0,0,0],"split_type":[0,0,0,0,0,0,0,0,0,0,0,0,0,0,0],"sum_hessian":[6.314429E5,1.7475275E5,4.5669016E5,1.27497734E5,4.725502E4,6.7417805E4,3.8927234E5,2.775275E4,9.974498E4,2.076854E4,2.648648E4,4.9547832E4,1.7869973E4,3.4492484E5,4.4347508E4],"tree_param":{"num_deleted":"0","num_feature":"412","num_nodes":"15","size_leaf_vector":"1"}},{"base_weights":[-3.1474928E-4,-6.733721E-1,1.668274E-1,-5.062421E-1,-1.0888965E0,5.051182E-2,7.975082E-1,-1.644893E-2,-4.8357546E-3,-1.8688226E-2,-2.331024E-2,2.2699288E-3,-1.090955E-2,1.935353E-2,1.0138867E-2],"categories":[],"categories_nodes":[],"categories_segments":[],"categories_sizes":[],"default_left":[0,0,0,0,0,0,0,0,0,0,0,0,0,0,0],"id":68,"left_children":[1,3,5,7,9,11,13,-1,-1,-1,-1,-1,-1,-1,-1],"loss_changes":[7.083801E4,8.693109E3,3.7002918E4,7.4695312E3,4.1333203E2,1.5987691E4,3.8780664E3,0E0,0E0,0E0,0E0,0E0,0E0,0E0,0E0],"parents":[2147483647,0,0,1,1,2,2,3,3,4,4,5,5,6,6],"right_children":[2,4,6,8,10,12,14,-1,-1,-1,-1,-1,-1,-1,-1],"split_conditions":[-7.4E1,1E0,1.68E2,-1.58E2,1.1210508E3,1E0,1.83E2,-1.644893E-2,-4.8357546E-3,-1.8688226E-2,-2.331024E-2,2.2699288E-3,-1.090955E-2,1.935353E-2,1.0138867E-2],"split_indices":[399,401,399,399,402,401,260,0,0,0,0,0,0,0,0],"split_type":[0,0,0,0,0,0,0,0,0,0,0,0,0,0,0],"sum_hessian":[6.2967025E5,1.2525547E5,5.0441478E5,8.934365E4,3.591182E4,4.2588162E5,7.853317E4,4.0680133E4,4.866352E4,1.1951856E4,2.3959963E4,3.851839E5,4.0697703E4,4.951177E4,2.9021402E4],