{"learner":{"attributes":{"scikit_learn":"{\"_estimator_type\": \"classifier\"}"},"feature_names":["round_num","seconds_in_round","bomb_planted","bomb_events_last_5s","T_alive","T_hp_sum","T_armor_sum","T_money_sum","T_start_balance_sum","T_cash_spent_round_sum","T_equip_value_sum","T_round_start_equip_sum","T_helmet_count","T_scoped_count","T_walking_count","T_bomb_zone_count","T_flashed_players","T_burning_players","T_duck_amount_mean","T_shots_fired_sum","T_velocity_mean","T_bomb_carrier_alive","T_unique_places","T_macro_A","T_macro_B","T_macro_MID","T_macro_OTHER","T_mean_X","T_mean_Y","T_spread_xy","T_place_RAMP","T_place_OUTSIDE","T_place_BOMBSITEB","T_place_TSIDEUPPER","T_place_TSIDELOWER","T_place_RUINS","T_place_SIDEENTRANCE","T_place_SIDEHALL","T_place_HOUSE","T_place_TOPOFMID","T_place_TUNNEL","T_place_ALLEY","T_place_MAINHALL","T_place_BOMBSITEA","T_place_TSPAWN","T_place_CTSPAWN","T_place_WATER","T_place_MIDDLE","CT_alive","CT_hp_sum","CT_armor_sum","CT_money_sum","CT_start_balance_sum","CT_cash_spent_round_sum","CT_equip_value_sum","CT_round_start_equip_sum","CT_helmet_count","CT_defuser_count","CT_scoped_count","CT_walking_count","CT_defusing_count","CT_flashed_players","CT_burning_players","CT_duck_amount_mean","CT_shots_fired_sum","CT_velocity_mean","CT_unique_places","CT_macro_A","CT_macro_B","CT_macro_MID","CT_macro_OTHER","CT_mean_X","CT_mean_Y","CT_spread_xy","CT_place_RAMP","CT_place_OUTSIDE","CT_place_BOMBSITEB","CT_place_TSIDEUPPER","CT_place_TSIDELOWER","CT_place_UNKNOWN","CT_place_RUINS","CT_place_SIDEENTRANCE","CT_place_SIDEHALL","CT_place_HOUSE","CT_place_TOPOFMID","CT_place_TUNNEL","CT_place_ALLEY","CT_place_MAINHALL","CT_place_BOMBSITEA","CT_place_TSPAWN","CT_place_CTSPAWN","CT_place_WATER","CT_place_MIDDLE","alive_diff","hp_diff","armor_diff","money_diff","equip_diff","spread_diff","centroid_distance_xy","T_closest_enemy_dist","CT_closest_enemy_dist","closest_enemy_dist_diff","T_damage_last_5s","CT_damage_last_5s","T_kills_last_3s","CT_kills_last_3s","T1__alive","T1__hp","T1__armor","T1__has_helmet","T1__is_scoped","T1__is_walking","T1__duck_amount","T1__shots_fired","T1__X","T1__Y","T1__has_bomb","T2__alive","T2__hp","T2__armor","T2__has_helmet","T2__is_scoped","T2__is_walking","T2__duck_amount","T2__shots_fired","T2__X","T2__Y","T2__has_bomb","T3__alive","T3__hp","T3__armor","T3__has_helmet","T3__is_scoped","T3__is_walking","T3__duck_amount","T3__shots_fired","T3__X","T3__Y","T3__has_bomb","T4__alive","T4__hp","T4__armor","T4__has_helmet","T4__is_scoped","T4__is_walking","T4__duck_amount","T4__shots_fired","T4__X","T4__Y","T4__has_bomb","T5__alive","T5__hp","T5__armor","T5__has_helmet","T5__is_scoped","T5__is_walking","T5__duck_amount","T5__shots_fired","T5__X","T5__Y","T5__has_bomb","CT1__alive","CT1__hp","CT1__armor","CT1__has_helmet","CT1__has_defuser","CT1__is_scoped","CT1__is_walking","CT1__duck_amount","CT1__shots_fired","CT1__X","CT1__Y","CT2__alive","CT2__hp","CT2__armor","CT2__has_helmet","CT2__has_defuser","CT2__is_scoped","CT2__is_walking","CT2__duck_amount","CT2__shots_fired","CT2__X","CT2__Y","CT3__alive","CT3__hp","CT3__armor","CT3__has_helmet","CT3__has_defuser","CT3__is_scoped","CT3__is_walking","CT3__duck_amount","CT3__shots_fired","CT3__X","CT3__Y","CT4__alive","CT4__hp","CT4__armor","CT4__has_helmet","CT4__has_defuser","CT4__is_scoped","CT4__is_walking","CT4__duck_amount","CT4__shots_fired","CT4__X","CT4__Y","CT5__alive","CT5__hp","CT5__armor","CT5__has_helmet","CT5__has_defuser","CT5__is_scoped","CT5__is_walking","CT5__duck_amount","CT5__shots_fired","CT5__X","CT5__Y","damage_diff_last_5s","kill_diff_last_3s","T_place_LOWERTUNNEL","T_place_MIDDOORS","T_place_BACKOFB","T_place_BRICKS","T_place_CONNECTOR","T_place_OUTSIDELONG","T_place_TSTAIRS","T_place_CANAL","T_place_STREET","T_place_SNIPERSNEST","T_place_TUNNELSTAIRS","T_place_FOUNTAIN","T_place_HEAVEN","T_place_WALKWAY","T_place_BRIDGE","T_place_PALACEINTERIOR","T_place_MAIN","T_place_CTSIDEUPPER","CT_place_LOWERTUNNEL","CT_place_MIDDOORS","CT_place_BACKOFB","CT_place_BRICKS","CT_place_CONNECTOR","CT_place_OUTSIDELONG","CT_place_TSTAIRS","CT_place_CANAL","CT_place_STREET","CT_place_SNIPERSNEST","CT_place_TUNNELSTAIRS","CT_place_FOUNTAIN","CT_place_HEAVEN","CT_place_WALKWAY","CT_place_BRIDGE","CT_place_PALACEINTERIOR","CT_place_MAIN","CT_place_CTSIDEUPPER","T_place_PIT","T_place_LONGA","T_place_CATWALK","T_place_EXTENDEDA","T_place_ARAMP","T_place_TRAMP","T_place_SIDE","T_place_UPPERTUNNEL","T_place_LONGDOORS","T_place_UNDERA","T_place_HOLE","T_place_BDOORS","T_place_SHORTSTAIRS","T_place_OUTSIDETUNNEL","CT_place_PIT","CT_place_LONGA","CT_place_CATWALK","CT_place_EXTENDEDA","CT_place_ARAMP","CT_place_TRAMP","CT_place_SIDE","CT_place_UPPERTUNNEL","CT_place_LONGDOORS","CT_place_UNDERA","CT_place_HOLE","CT_place_BDOORS","CT_place_SHORTSTAIRS","CT_place_OUTSIDETUNNEL","T_place_UPSTAIRS","T_place_KITCHEN","T_place_BALCONY","T_place_QUAD","T_place_BACKALLEY","T_place_SECONDMID","T_place_LOWERMID","T_place_ARCH","T_place_LIBRARY","T_place_APARTMENTS","T_place_GRAVEYARD","T_place_UNDERPASS","T_place_BANANA","CT_place_UPSTAIRS","CT_place_KITCHEN","CT_place_BALCONY","CT_place_QUAD","CT_place_BACKALLEY","CT_place_SECONDMID","CT_place_LOWERMID","CT_place_ARCH","CT_place_LIBRARY","CT_place_APARTMENTS","CT_place_GRAVEYARD","CT_place_UNDERPASS","CT_place_BANANA","T_place_DECK","CT_place_DECK","T_place_TRUCK","T_place_STAIRS","T_place_SHOP","T_place_JUNGLE","T_place_SCAFFOLDING","T_place_LADDER","T_place_SIDEALLEY","T_place_PALACEALLEY","CT_place_TRUCK","CT_place_STAIRS","CT_place_SHOP","CT_place_JUNGLE","CT_place_SCAFFOLDING","CT_place_LADDER","CT_place_SIDEALLEY","CT_place_PALACEALLEY","T_place_RAFTERS","T_place_SECRET","T_place_MINI","T_place_VENTS","T_place_GARAGE","T_place_HUTROOF","T_place_LOCKERROOM","T_place_SILO","T_place_SQUEAKY","T_place_LOBBY","T_place_ADMIN","T_place_HELL","T_place_HUT","T_place_OBSERVATION","T_place_ROOF","T_place_TROPHY","T_place_DECON","T_place_CONTROL","T_place_CRANE","T_place_VENDING","T_place_TUNNELS","CT_place_RAFTERS","CT_place_SECRET","CT_place_MINI","CT_place_VENTS","CT_place_GARAGE","CT_place_HUTROOF","CT_place_LOCKERROOM","CT_place_SILO","CT_place_SQUEAKY","CT_place_LOBBY","CT_place_ADMIN","CT_place_HELL","CT_place_HUT","CT_place_OBSERVATION","CT_place_ROOF","CT_place_TROPHY","CT_place_DECON","CT_place_CONTROL","CT_place_CRANE","CT_place_VENDING","CT_place_TUNNELS","T_place_CONSTRUCTION","T_place_PLAYGROUND","T_place_UPPERPARK","T_place_STORAGEROOM","T_place_RESTROOM","T_place_PIPE","T_place_BACKOFA","T_place_LOWERPARK","CT_place_CONSTRUCTION","CT_place_PLAYGROUND","CT_place_UPPERPARK","CT_place_STORAGEROOM","CT_place_RESTROOM","CT_place_PIPE","CT_place_BACKOFA","CT_place_LOWERPARK","T_place_ELECTRICALBOX","T_place_LONGDOG","T_place_IVY","T_place_DUMPSTER","T_place_ENTRANCE","T_place_TMAIN","CT_place_ELECTRICALBOX","CT_place_LONGDOG","CT_place_IVY","CT_place_DUMPSTER","CT_place_ENTRANCE","CT_place_TMAIN"],"feature_types":["int","float","int","int","int","float","float","float","float","float","float","float","int","int","int","int","int","int","float","float","float","int","int","int","int","int","int","float","float","float","float","float","int","float","float","float","float","float","float","float","float","float","float","int","int","float","float","float","int","float","float","float","float","float","float","float","int","int","int","int","int","int","int","float","float","float","int","int","int","int","int","float","float","float","float","float","int","float","float","int","float","float","float","float","float","float","float","float","int","int","float","float","float","int","float","float","float","float","float","float","float","float","float","float","float","int","int","int","float","float","int","int","int","float","float","float","float","int","int","float","float","int","int","int","float","float","float","float","int","int","float","float","int","int","int","float","float","float","float","int","int","float","float","int","int","int","float","float","float","float","int","int","float","float","int","int","int","float","float","float","float","int","int","float","float","int","int","int","int","float","float","float","float","int","float","float","int","int","int","int","float","float","float","float","int","float","float","int","int","int","int","float","float","float","float","int","float","float","int","int","int","int","float","float","float","float","int","float","float","int","int","int","int","float","float","float","float","float","int","float","float","float","float","float","float","float","float","float","float","float","float","float","float","float","float","float","float","float","float","float","float","float","float","float","float","float","float","float","float","float","float","float","float","float","float","float","float","float","float","float","float","float","float","float","float","float","float","float","float","float","float","float","float","float","float","float","float","float","float","float","float","float","float","float","float","float","float","float","float","float","float","float","float","float","float","float","float","float","float","float","float","float","float","float","float","float","float","float","float","float","float","float","float","float","float","float","float","float","float","float","float","float","float","float","float","float","float","float","float","float","float","float","float","float","float","float","float","float","float","float","float","float","float","float","float","float","float","float","float","float","float","float","float","float","float","float","float","float","float","float","float","float","float","float","float","float","float","float","float","float","float","float","float","float","float","float","float","float","float","float","float","float","float","float","float","float","float","float","float","float","float","float","float","float","float","float","float"],"gradient_booster":{"model":{"cats":{"enc":[],"feature_segments":[],"sorted_idx":[]},"gbtree_model_param":{"num_parallel_tree":"1","num_trees":"400"},"iteration_indptr":[0,1,2,3,4,5,6,7,8,9,10,11,12,13,14,15,16,17,18,19,20,21,22,23,24,25,26,27,28,29,30,31,32,33,34,35,36,37,38,39,40,41,42,43,44,45,46,47,48,49,50,51,52,53,54,55,56,57,58,59,60,61,62,63,64,65,66,67,68,69,70,71,72,73,74,75,76,77,78,79,80,81,82,83,84,85,86,87,88,89,90,91,92,93,94,95,96,97,98,99,100,101,102,103,104,105,106,107,108,109,110,111,112,113,114,115,116,117,118,119,120,121,122,123,124,125,126,127,128,129,130,131,132,133,134,135,136,137,138,139,140,141,142,143,144,145,146,147,148,149,150,151,152,153,154,155,156,157,158,159,160,161,162,163,164,165,166,167,168,169,170,171,172,173,174,175,176,177,178,179,180,181,182,183,184,185,186,187,188,189,190,191,192,193,194,195,196,197,198,199,200,201,202,203,204,205,206,207,208,209,210,211,212,213,214,215,216,217,218,219,220,221,222,223,224,225,226,227,228,229,230,231,232,233,234,235,236,237,238,239,240,241,242,243,244,245,246,247,248,249,250,251,252,253,254,255,256,257,258,259,260,261,262,263,264,265,266,267,268,269,270,271,272,273,274,275,276,277,278,279,280,281,282,283,284,285,286,287,288,289,290,291,292,293,294,295,296,297,298,299,300,301,302,303,304,305,306,307,308,309,310,311,312,313,314,315,316,317,318,319,320,321,322,323,324,325,326,327,328,329,330,331,332,333,334,335,336,337,338,339,340,341,342,343,344,345,346,347,348,349,350,351,352,353,354,355,356,357,358,359,360,361,362,363,364,365,366,367,368,369,370,371,372,373,374,375,376,377,378,379,380,381,382,383,384,385,386,387,388,389,390,391,392,393,394,395,396,397,398,399,400],"tree_info":[0,0,0,0,0,0,0,0,0,0,0,0,0,0,0,0,0,0,0,0,0,0,0,0,0,0,0,0,0,0,0,0,0,0,0,0,0,0,0,0,0,0,0,0,0,0,0,0,0,0,0,0,0,0,0,0,0,0,0,0,0,0,0,0,0,0,0,0,0,0,0,0,0,0,0,0,0,0,0,0,0,0,0,0,0,0,0,0,0,0,0,0,0,0,0,0,0,0,0,0,0,0,0,0,0,0,0,0,0,0,0,0,0,0,0,0,0,0,0,0,0,0,0,0,0,0,0,0,0,0,0,0,0,0,0,0,0,0,0,0,0,0,0,0,0,0,0,0,0,0,0,0,0,0,0,0,0,0,0,0,0,0,0,0,0,0,0,0,0,0,0,0,0,0,0,0,0,0,0,0,0,0,0,0,0,0,0,0,0,0,0,0,0,0,0,0,0,0,0,0,0,0,0,0,0,0,0,0,0,0,0,0,0,0,0,0,0,0,0,0,0,0,0,0,0,0,0,0,0,0,0,0,0,0,0,0,0,0,0,0,0,0,0,0,0,0,0,0,0,0,0,0,0,0,0,0,0,0,0,0,0,0,0,0,0,0,0,0,0,0,0,0,0,0,0,0,0,0,0,0,0,0,0,0,0,0,0,0,0,0,0,0,0,0,0,0,0,0,0,0,0,0,0,0,0,0,0,0,0,0,0,0,0,0,0,0,0,0,0,0,0,0,0,0,0,0,0,0,0,0,0,0,0,0,0,0,0,0,0,0,0,0,0,0,0,0,0,0,0,0,0,0,0,0,0,0,0,0,0,0,0,0,0,0,0,0,0,0,0,0,0,0,0,0,0,0,0,0,0,0,0,0,0,0,0,0,0,0,0,0,0,0,0,0,0,0,0,0,0,0],"trees":[{"base_weights":[6.381306E-4,-1.1386722E0,7.4761534E-1,-1.6781044E0,-5.1327777E-1,2.9564697E-1,1.4403391E0,-1.8232458E0,-1.1789894E0,-1.3184272E0,-1.6401169E-1,1.9277362E-2,1.3231682E0,1.0857991E0,1.8364638E0,-1.9613853E0,-1.652463E0,-1.5226008E0,-8.269673E-1,-1.7010031E0,-9.3471515E-1,-6.5887414E-2,-1.2575787E0,1.0586852E-1,-9.77995E-1,1.8511502E0,9.287084E-1,1.4658726E0,9.2412347E-1,1.8969451E0,1.485913E0,7.515702E-2,-1.9625297E0,-1.4545932E0,-1.8887545E0,3.9439935E-2,-1.5762314E0,-7.710396E-2,-9.626285E-1,-8.5253865E-1,-1.7534032E0,9.599146E-1,-1.000561E0,-2.0239583E-1,6.421912E-1,-8.405219E-1,-1.622705E0,-7.185174E-1,1.5374057E-1,-1.3517033E0,-3.8730472E-1,1.9482721E-1,1.8764355E0,2.675128E-1,1.0248572E0,1.3079649E0,1.8934233E0,4.334962E-1,9.9055046E-1,1.7400752E0,1.9439665E0,-3.6760294E-1,1.5190836E0,-9.8178625E-2,4.4594824E-2,-9.688038E-2,-6.822936E-2,-8.863298E-2,-9.874047E-2,-7.4028745E-2,7.827918E-2,-9.072193E-2,-6.826296E-2,7.6519564E-2,-1.8552944E-2,-5.122384E-2,1.3066189E-2,-6.339767E-2,8.170762E-2,-6.1129164E-2,-9.0622805E-2,-7.9404026E-2,7.879013E-2,-5.3222846E-2,1.961617E-3,2.697146E-3,-2.095681E-2,5.1788833E-2,1.5865298E-2,-5.393823E-2,-8.964992E-3,2.2311604E-2,-8.375563E-2,-6.0878348E-2,-2.32094E-2,1.6859397E-2,2.2314352E-3,-5.3757366E-2,-8.341231E-2,-1.2988389E-3,-3.7592407E-2,-6.7969054E-2,7.384911E-2,9.443053E-2,2.6316097E-2,-4.8361287E-2,3.457722E-2,8.138409E-2,4.6781193E-2,4.3131694E-2,7.199349E-2,1.930968E-2,9.53792E-2,3.0058248E-2,-2.0169046E-2,6.137651E-2,4.2783514E-2,8.956669E-2,6.1300617E-2,9.72589E-2,-2.9969895E-2,-8.042996E-2,9.2210665E-2,7.671682E-2,-8.635485E-2],"categories":[],"categories_nodes":[],"categories_segments":[],"categories_sizes":[],"default_left":[0,0,0,0,0,0,0,0,0,0,0,0,0,0,0,0,0,0,0,0,0,0,0,0,0,0,0,0,0,0,0,0,0,0,0,0,0,0,0,0,0,0,0,0,0,0,0,0,0,0,0,0,0,0,0,0,0,0,0,0,0,0,0,0,0,0,0,0,0,0,0,0,0,0,0,0,0,0,0,0,0,0,0,0,0,0,0,0,0,0,0,0,0,0,0,0,0,0,0,0,0,0,0,0,0,0,0,0,0,0,0,0,0,0,0,0,0,0,0,0,0,0,0,0,0],"id":0,"left_children":[1,3,5,7,9,11,13,15,17,19,21,23,25,27,29,31,33,35,37,39,41,43,45,47,49,51,53,55,57,59,61,-1,63,65,67,69,71,73,75,77,79,81,83,85,87,89,91,93,95,97,99,101,103,105,107,109,111,113,115,117,119,121,123,-1,-1,-1,-1,-1,-1,-1,-1,-1,-1,-1,-1,-1,-1,-1,-1,-1,-1,-1,-1,-1,-1,-1,-1,-1,-1,-1,-1,-1,-1,-1,-1,-1,-1,-1,-1,-1,-1,-1,-1,-1,-1,-1,-1,-1,-1,-1,-1,-1,-1,-1,-1,-1,-1,-1,-1,-1,-1,-1,-1,-1,-1],"loss_changes":[1.9592103E5,3.0753719E4,4.353368E4,3.5414375E3,1.187281E4,2.3896281E4,7.7064375E3,8.8802344E2,1.3319531E3,1.872002E3,3.1599734E3,5.726853E3,3.7112305E3,1.7778359E3,5.440625E2,8.8953125E1,7.878047E2,4.6762207E2,5.546626E2,2.8128516E2,7.980825E2,2.6126663E3,3.6651855E2,2.4083384E3,1.1685083E3,3.1861523E2,6.4871875E2,5.7863477E2,6.6184766E2,1.5628906E2,2.3624121E2,0E0,6.585156E1,3.9654492E2,7.01875E1,4.3887527E2,2.6618945E2,3.9697736E2,3.5012988E2,3.9235428E2,1.8427734E2,3.429759E2,4.0991113E2,1.2590293E3,5.5798193E2,1.78578E2,1.4144775E2,4.2396643E2,1.1543442E3,2.8042578E2,2.7076025E2,2.3693915E2,1.2146484E2,6.8160364E2,4.7654395E2,3.6870605E2,4.8192383E1,3.412248E2,5.7030273E2,1.3043652E2,5.4679688E1,1.949055E2,1.9133984E2,0E0,0E0,0E0,0E0,0E0,0E0,0E0,0E0,0E0,0E0,0E0,0E0,0E0,0E0,0E0,0E0,0E0,0E0,0E0,0E0,0E0,0E0,0E0,0E0,0E0,0E0,0E0,0E0,0E0,0E0,0E0,0E0,0E0,0E0,0E0,0E0,0E0,0E0,0E0,0E0,0E0,0E0,0E0,0E0,0E0,0E0,0E0,0E0,0E0,0E0,0E0,0E0,0E0,0E0,0E0,0E0,0E0,0E0,0E0,0E0,0E0,0E0],"parents":[2147483647,0,0,1,1,2,2,3,3,4,4,5,5,6,6,7,7,8,8,9,9,10,10,11,11,12,12,13,13,14,14,15,15,16,16,17,17,18,18,19,19,20,20,21,21,22,22,23,23,24,24,25,25,26,26,27,27,28,28,29,29,30,30,32,32,33,33,34,34,35,35,36,36,37,37,38,38,39,39,40,40,41,41,42,42,43,43,44,44,45,45,46,46,47,47,48,48,49,49,50,50,51,51,52,52,53,53,54,54,55,55,56,56,57,57,58,58,59,59,60,60,61,61,62,62],"right_children":[2,4,6,8,10,12,14,16,18,20,22,24,26,28,30,32,34,36,38,40,42,44,46,48,50,52,54,56,58,60,62,-1,64,66,68,70,72,74,76,78,80,82,84,86,88,90,92,94,96,98,100,102,104,106,108,110,112,114,116,118,120,122,124,-1,-1,-1,-1,-1,-1,-1,-1,-1,-1,-1,-1,-1,-1,-1,-1,-1,-1,-1,-1,-1,-1,-1,-1,-1,-1,-1,-1,-1,-1,-1,-1,-1,-1,-1,-1,-1,-1,-1,-1,-1,-1,-1,-1,-1,-1,-1,-1,-1,-1,-1,-1,-1,-1,-1,-1,-1,-1,-1,-1,-1,-1],"split_conditions":[-2E2,0E0,1E0,1.515E4,-1.055E4,1.22E4,2E0,-1E0,3.26E2,7.1E3,1E0,1E0,1.75E2,1.72E2,3E0,5.2E1,1E0,2.41E2,1.855E4,7.2E1,3.6E1,5.2E1,1.95E2,0E0,1.9E1,1E0,7.45E3,3E0,3.4E1,1.65E2,1E2,7.515702E-2,8.2E1,-1.77E4,1.1477781E3,1.7E4,-1E2,3.64E2,2.755E4,1.555E4,7E1,7.8E1,2.805E4,3.051298E2,1.7110875E2,6.5E1,-2.0222948E3,9E2,-1.0078406E2,1.015E4,1.81E2,1E0,1E0,4.93E2,1E0,5.4E1,-2.4029104E3,2.138909E3,-5.3458704E2,1E0,3E0,4.9371207E2,1.6E1,-9.8178625E-2,4.4594824E-2,-9.688038E-2,-6.822936E-2,-8.863298E-2,-9.874047E-2,-7.4028745E-2,7.827918E-2,-9.072193E-2,-6.826296E-2,7.6519564E-2,-1.8552944E-2,-5.122384E-2,1.3066189E-2,-6.339767E-2,8.170762E-2,-6.1129164E-2,-9.0622805E-2,-7.9404026E-2,7.879013E-2,-5.3222846E-2,1.961617E-3,2.697146E-3,-2.095681E-2,5.1788833E-2,1.5865298E-2,-5.393823E-2,-8.964992E-3,2.2311604E-2,-8.375563E-2,-6.0878348E-2,-2.32094E-2,1.6859397E-2,2.2314352E-3,-5.3757366E-2,-8.341231E-2,-1.2988389E-3,-3.7592407E-2,-6.7969054E-2,7.384911E-2,9.443053E-2,2.6316097E-2,-4.8361287E-2,3.457722E-2,8.138409E-2,4.6781193E-2,4.3131694E-2,7.199349E-2,1.930968E-2,9.53792E-2,3.0058248E-2,-2.0169046E-2,6.137651E-2,4.2783514E-2,8.956669E-2,6.1300617E-2,9.72589E-2,-2.9969895E-2,-8.042996E-2,9.2210665E-2,7.671682E-2,-8.635485E-2],"split_indices":[97,93,93,54,97,97,93,93,49,54,2,2,6,6,12,5,2,5,54,130,131,94,5,93,94,140,55,56,94,94,8,0,94,97,100,54,94,50,51,11,109,185,10,216,216,94,116,97,194,10,6,174,386,5,12,94,160,216,116,161,392,126,114,0,0,0,0,0,0,0,0,0,0,0,0,0,0,0,0,0,0,0,0,0,0,0,0,0,0,0,0,0,0,0,0,0,0,0,0,0,0,0,0,0,0,0,0,0,0,0,0,0,0,0,0,0,0,0,0,0,0,0,0,0,0],"split_type":[0,0,0,0,0,0,0,0,0,0,0,0,0,0,0,0,0,0,0,0,0,0,0,0,0,0,0,0,0,0,0,0,0,0,0,0,0,0,0,0,0,0,0,0,0,0,0,0,0,0,0,0,0,0,0,0,0,0,0,0,0,0,0,0,0,0,0,0,0,0,0,0,0,0,0,0,0,0,0,0,0,0,0,0,0,0,0,0,0,0,0,0,0,0,0,0,0,0,0,0,0,0,0,0,0,0,0,0,0,0,0,0,0,0,0,0,0,0,0,0,0,0,0,0,0],"sum_hessian":[2.3020995E5,9.116362E4,1.3904633E5,4.8943863E4,4.2219754E4,8.4147234E4,5.48991E4,3.791343E4,1.1030437E4,1.2771822E4,2.9447934E4,6.631319E4,1.7834041E4,2.8974125E4,2.5924977E4,2.0948246E4,1.6965182E4,5.5785356E3,5.451901E3,6.3919424E3,6.37988E3,2.7025127E4,2.4228071E3,6.1016996E4,5.296196E3,7.623136E3,1.0210905E4,8.642007E3,2.0332117E4,2.2102719E4,3.822256E3,6.050564E0,2.0942197E4,9.241057E3,7.7241245E3,1.851914E2,5.393344E3,8.3570483E2,4.6161963E3,3.738056E2,6.0181367E3,2.1336693E2,6.166513E3,2.2658322E4,4.3668037E3,1.1340588E3,1.2887482E3,3.347252E3,5.7669742E4,3.2423206E3,2.053875E3,1.14886314E2,7.50825E3,1.2972881E3,8.913617E3,6.3170435E3,2.3249631E3,2.4263376E3,1.790578E4,5.114865E3,1.6987854E4,6.6846E1,3.7554102E3,2.0935172E4,7.024428E0,1.4450715E3,7.795985E3,3.3065413E3,4.417583E3,9.281192E1,9.2379486E1,2.5260261E3,2.8673184E3,1.2789537E2,7.0780945E2,4.394463E3,2.2173343E2,3.2113803E2,5.266758E1,6.068283E2,5.411308E3,4.0919884E1,1.7244705E2,5.80947E3,3.5704306E2,1.038156E4,1.2276763E4,1.9726461E3,2.3941575E3,8.327504E2,3.013084E2,3.1467031E1,1.2572811E3,1.1274248E3,2.2198271E3,2.1506744E4,3.6163E4,1.7351526E3,1.5071681E3,1.0325627E3,1.02131226E3,5.187897E1,6.3007347E1,7.4403564E3,6.789315E1,3.3097095E2,9.6631714E2,1.1448685E3,7.7687485E3,1.4469618E3,4.8700815E3,2.2166468E1,2.3027966E3,2.0218269E3,4.0451068E2,6.488868E3,1.1416912E4,4.6465737E3,4.6829178E2,1.6980236E4,7.617612E0,4.3169884E1,2.3676119E1,3.738897E3,1.6513067E1],"tree_param":{"num_deleted":"0","num_feature":"397","num_nodes":"125","size_leaf_vector":"1"}},{"base_weights":[-2.2729022E-4,-1.5149858E0,4.6517116E-1,-1.7230504E0,-1.0086446E0,4.644958E-2,1.311748E0,-1.8593106E0,-1.553444E0,1.660569E0,-1.0670944E0,1.6477292E0,-4.897245E-2,9.6356016E-1,1.7359124E0,-1.1697667E0,-1.8698236E0,-1.3317665E0,-1.7752441E0,1.7217761E0,-5.1205944E-2,-9.2779046E-1,-1.8426397E0,1.22254394E-1,1.7752424E0,-6.3746005E-1,1.4108421E-1,1.3590887E0,7.8557205E-1,1.7999378E0,1.3816316E0,1.4199235E0,-1.4916058E0,6.7102365E-2,-1.8709177E0,-1.1198391E0,-1.5424865E0,-1.6412193E0,-1.8740917E0,-3.9157186E-2,1.7852429E0,-1.4935052E0,-8.485415E-1,7.475051E-2,-1.8566412E0,9.111823E-1,-6.5053934E-1,1.8023349E0,1.3505901E-1,-3.1763405E-1,-1.4435316E0,7.523505E-1,-3.135964E-3,1.5131317E0,1.0243897E0,-7.0891607E-1,8.280965E-1,1.7187049E0,1.8953195E0,-1.1116556E-1,1.4482416E0,9.851403E-2,-6.898208E-2,-9.1145955E-2,3.200585E-2,-9.359731E-2,7.427923E-2,3.607426E-2,-5.83135E-2,-8.9981005E-2,-6.666336E-2,-8.49656E-2,-6.471836E-2,-2.6191449E-2,-9.3978055E-2,-5.22E-2,9.181862E-2,7.4505515E-2,-7.701523E-2,-1.5456934E-2,-4.619212E-2,-9.374842E-2,-9.061013E-3,-4.131194E-2,6.350381E-2,-7.568726E-2,1.7334223E-2,9.097367E-2,2.3506707E-2,6.3074544E-2,-6.75773E-2,-3.519851E-3,-4.62756E-2,-7.4897565E-2,2.3285368E-2,1.1439979E-2,5.2369367E-2,-7.5913765E-3,9.361074E-3,8.7026656E-2,6.86682E-2,6.2271483E-2,2.8578967E-2,3.823654E-2,-5.095428E-2,4.3378998E-2,4.2498265E-3,8.6478814E-2,2.701797E-2,9.480435E-2,3.5304546E-2,3.5221614E-2,-9.6299335E-2,7.4099205E-2,-2.5789196E-2],"categories":[],"categories_nodes":[],"categories_segments":[],"categories_sizes":[],"default_left":[0,0,0,0,0,0,0,0,0,0,0,0,0,0,0,0,0,0,0,0,0,0,0,0,0,0,0,0,0,0,0,0,0,0,0,0,0,0,0,0,0,0,0,0,0,0,0,0,0,0,0,0,0,0,0,0,0,0,0,0,0,0,0,0,0,0,0,0,0,0,0,0,0,0,0,0,0,0,0,0,0,0,0,0,0,0,0,0,0,0,0,0,0,0,0,0,0,0,0,0,0,0,0,0,0,0,0,0,0,0,0,0,0,0,0],"id":1,"left_children":[1,3,5,7,9,11,13,15,17,19,21,23,25,27,29,31,33,35,37,39,-1,41,43,45,47,49,51,53,55,57,59,61,63,-1,65,67,69,71,73,-1,75,77,79,-1,81,83,85,87,89,91,93,95,97,99,101,103,105,107,109,111,113,-1,-1,-1,-1,-1,-1,-1,-1,-1,-1,-1,-1,-1,-1,-1,-1,-1,-1,-1,-1,-1,-1,-1,-1,-1,-1,-1,-1,-1,-1,-1,-1,-1,-1,-1,-1,-1,-1,-1,-1,-1,-1,-1,-1,-1,-1,-1,-1,-1,-1,-1,-1,-1,-1],"loss_changes":[1.6227972E5,5.696375E3,6.242098E4,8.8034375E2,2.46263E3,1.8002818E4,8.603016E3,1.496875E2,8.3573047E2,5.9155396E1,1.6630801E3,1.2884922E3,1.2437032E4,2.25117E3,5.908594E2,2.7467856E2,7.857031E1,3.7868555E2,1.069668E2,5.55354E1,0E0,5.838965E2,1.1522266E2,3.1413602E2,2.7124023E2,6.9972285E3,7.409847E3,5.0890234E2,1.404334E3,1.658125E2,4.009629E2,6.227909E1,2.0686041E2,0E0,7.778125E1,3.6705762E2,2.2575098E2,6.8953125E1,3.4216797E1,0E0,5.0724854E1,2.28646E2,4.656328E2,0E0,7.110547E1,1.6100026E2,2.2526495E2,1.3563086E2,1.7342278E2,2.9210444E3,8.025088E2,2.4780117E3,1.9250323E3,2.1123438E2,3.1247144E2,2.8126053E2,6.2975195E2,1.5227734E2,6.6367188E0,2.6020718E2,2.571499E2,0E0,0E0,0E0,0E0,0E0,0E0,0E0,0E0,0E0,0E0,0E0,0E0,0E0,0E0,0E0,0E0,0E0,0E0,0E0,0E0,0E0,0E0,0E0,0E0,0E0,0E0,0E0,0E0,0E0,0E0,0E0,0E0,0E0,0E0,0E0,0E0,0E0,0E0,0E0,0E0,0E0,0E0,0E0,0E0,0E0,0E0,0E0,0E0,0E0,0E0,0E0,0E0,0E0,0E0],"parents":[2147483647,0,0,1,1,2,2,3,3,4,4,5,5,6,6,7,7,8,8,9,9,10,10,11,11,12,12,13,13,14,14,15,15,16,16,17,17,18,18,19,19,21,21,22,22,23,23,24,24,25,25,26,26,27,27,28,28,29,29,30,30,31,31,32,32,34,34,35,35,36,36,37,37,38,38,40,40,41,41,42,42,44,44,45,45,46,46,47,47,48,48,49,49,50,50,51,51,52,52,53,53,54,54,55,55,56,56,57,57,58,58,59,59,60,60],"right_children":[2,4,6,8,10,12,14,16,18,20,22,24,26,28,30,32,34,36,38,40,-1,42,44,46,48,50,52,54,56,58,60,62,64,-1,66,68,70,72,74,-1,76,78,80,-1,82,84,86,88,90,92,94,96,98,100,102,104,106,108,110,112,114,-1,-1,-1,-1,-1,-1,-1,-1,-1,-1,-1,-1,-1,-1,-1,-1,-1,-1,-1,-1,-1,-1,-1,-1,-1,-1,-1,-1,-1,-1,-1,-1,-1,-1,-1,-1,-1,-1,-1,-1,-1,-1,-1,-1,-1,-1,-1,-1,-1,-1,-1,-1,-1,-1],"split_conditions":[0E0,2.96E2,1E0,-1E0,1.31E2,6.1E1,2E0,8.5E2,1E0,1E0,1E0,6E3,3.8E2,1.85E2,3E0,-5E2,5.2E1,8.5E1,1.118036E3,-2.0175541E3,-5.1205944E-2,-1E0,-2.479361E3,-4.5E2,1E0,4.02E2,1.375E4,1E0,1.88E2,3E0,9E0,2.5E2,1E0,6.7102365E-2,3E0,-2.3447366E3,1.9E2,1E0,5E1,-3.9157186E-2,-1.9332119E3,2.6E1,1.74E4,7.475051E-2,3E0,-7.607568E2,1.6925722E2,1E0,1E0,1E0,1E0,1E0,1E0,8.3E1,9.8E1,-8.765707E2,1E0,1.2E1,1E0,4E2,1E0,9.851403E-2,-6.898208E-2,-9.1145955E-2,3.200585E-2,-9.359731E-2,7.427923E-2,3.607426E-2,-5.83135E-2,-8.9981005E-2,-6.666336E-2,-8.49656E-2,-6.471836E-2,-2.6191449E-2,-9.3978055E-2,-5.22E-2,9.181862E-2,7.4505515E-2,-7.701523E-2,-1.5456934E-2,-4.619212E-2,-9.374842E-2,-9.061013E-3,-4.131194E-2,6.350381E-2,-7.568726E-2,1.7334223E-2,9.097367E-2,2.3506707E-2,6.3074544E-2,-6.75773E-2,-3.519851E-3,-4.62756E-2,-7.4897565E-2,2.3285368E-2,1.1439979E-2,5.2369367E-2,-7.5913765E-3,9.361074E-3,8.7026656E-2,6.86682E-2,6.2271483E-2,2.8578967E-2,3.823654E-2,-5.095428E-2,4.3378998E-2,4.2498265E-3,8.6478814E-2,2.701797E-2,9.480435E-2,3.5304546E-2,3.5221614E-2,-9.6299335E-2,7.4099205E-2,-2.5789196E-2],"split_indices":[93,50,93,93,6,6,93,7,2,320,2,7,50,6,12,96,5,108,99,205,0,93,138,96,147,6,10,2,50,93,208,8,199,0,343,171,50,210,8,0,27,131,10,0,86,194,205,396,166,2,177,176,166,6,5,149,2,114,259,50,2,0,0,0,0,0,0,0,0,0,0,0,0,0,0,0,0,0,0,0,0,0,0,0,0,0,0,0,0,0,0,0,0,0,0,0,0,0,0,0,0,0,0,0,0,0,0,0,0,0,0,0,0,0,0],"split_type":[0,0,0,0,0,0,0,0,0,0,0,0,0,0,0,0,0,0,0,0,0,0,0,0,0,0,0,0,0,0,0,0,0,0,0,0,0,0,0,0,0,0,0,0,0,0,0,0,0,0,0,0,0,0,0,0,0,0,0,0,0,0,0,0,0,0,0,0,0,0,0,0,0,0,0,0,0,0,0,0,0,0,0,0,0,0,0,0,0,0,0,0,0,0,0,0,0,0,0,0,0,0,0,0,0,0,0,0,0,0,0,0,0,0,0],"sum_hessian":[2.3019102E5,5.4100984E4,1.7609003E5,3.834113E4,1.5759855E4,1.1781848E5,5.8271555E4,2.1249518E4,1.7091613E4,3.3653577E2,1.542332E4,6.6242485E3,1.1119423E5,3.200546E4,2.6266092E4,3.224804E2,2.0927037E4,8.555174E3,8.536439E3,3.297356E2,6.800169E0,1.3078537E4,2.3447825E3,5.1130408E2,6.112945E3,2.7143361E4,8.405087E4,9.928622E3,2.2076838E4,2.2238924E4,4.0271687E3,3.4892532E1,2.8758786E2,6.2916746E0,2.0920746E4,4.2716636E3,4.2835103E3,3.6384138E3,4.8980254E3,7.5876164E0,3.2214798E2,1.6026205E3,1.1475917E4,8.911613E0,2.3358708E3,2.5283366E2,2.584704E2,6.0134175E3,9.9526924E1,1.943493E4,7.7084316E3,1.6043455E4,6.800741E4,6.794467E3,3.134155E3,6.0993164E2,2.1466906E4,1.2030787E4,1.0208138E4,1.7196298E2,3.8552058E3,2.9655165E1,5.237369E0,2.4915396E2,3.8433903E1,2.091522E4,5.5236835E0,1.0435016E2,4.1673135E3,1.9148861E3,2.368624E3,3.1097725E3,5.286414E2,2.0540522E1,4.877485E3,5.029032E0,3.1711896E2,2.3797085E1,1.5788234E3,1.4070444E3,1.0068873E4,2.31036E3,2.5510841E1,4.2839825E1,2.0999384E2,1.3798953E2,1.2048089E2,5.9363174E3,7.710031E1,5.679501E1,4.273191E1,1.3817349E4,5.6175815E3,7.495224E3,2.1320752E2,5.7836895E3,1.0259766E4,3.818266E4,2.9824748E4,2.5776848E3,4.216782E3,2.1037207E3,1.0304342E3,1.0554509E2,5.0438654E2,2.0383525E4,1.0833822E3,1.191988E4,1.1090701E2,1.0200366E4,7.7714067E0,1.1948774E2,5.2475235E1,3.7905735E3,6.463219E1],"tree_param":{"num_deleted":"0","num_feature":"397","num_nodes":"115","size_leaf_vector":"1"}},{"base_weights":[-1.682011E-4,-1.0352274E0,6.777761E-1,-1.5248364E0,-4.7061798E-1,2.6882103E-1,1.3073119E0,-1.6376145E0,-9.504554E-1,-1.2076355E0,-1.5168701E-1,1.917036E-2,1.2177964E0,9.852764E-1,1.6706158E0,-1.7828825E0,-1.4702625E0,-1.2992508E0,-7.2982067E-1,-1.5595773E0,-8.5254884E-1,-6.287265E-2,-1.1486459E0,9.705497E-2,-8.8078487E-1,1.6708878E0,8.316001E-1,1.3290141E0,8.398288E-1,1.7263975E0,1.3492439E0,-1.7844748E0,-3.619171E-2,-1.2672583E0,-1.7257458E0,1.4923983E0,-1.3793525E0,2.6576942E-1,-8.401475E-1,-1.582423E0,8.845187E-1,9.369311E-1,-9.1405356E-1,-1.8890676E-1,5.899765E-1,-8.258644E-1,-1.6040822E0,-6.5728265E-1,1.4088313E-1,-1.234954E0,-3.2519114E-1,4.5437858E-2,1.6930226E0,-1.6306906E0,8.5634714E-1,1.1800703E0,1.7318804E0,3.6876714E-1,9.042222E-1,1.5736388E0,1.7723628E0,-3.8950436E-2,1.3901445E0,-9.026759E-2,-8.224075E-2,8.0620684E-2,-7.746745E-2,-7.2458506E-2,-4.9311694E-2,-8.006186E-2,-9.031984E-2,9.101192E-2,-5.80737E-2,-7.356564E-2,-2.3605492E-2,5.37028E-2,-3.1577982E-2,-2.7657405E-2,-5.83402E-2,-1.4105613E-2,-8.075415E-2,-8.447567E-2,9.911033E-2,-4.2518094E-2,8.499576E-2,2.453144E-2,-4.819815E-2,2.9557075E-3,-1.9881327E-2,4.276568E-2,5.561128E-3,-4.4816054E-2,9.7746864E-2,-8.209081E-2,4.810426E-2,-4.8790872E-2,-1.5964318E-2,1.5813334E-2,1.706901E-3,-4.8022956E-2,-7.677024E-2,1.8688099E-3,-3.4971967E-2,-6.9680266E-2,6.3904256E-2,8.5452795E-2,1.9200245E-2,7.907358E-2,-9.581313E-2,3.7994385E-2,6.9974445E-2,5.2140098E-2,7.943019E-2,8.706623E-2,-4.2137593E-2,2.7522659E-2,-1.9187909E-2,4.6631724E-2,-6.788517E-3,8.416815E-2,6.723716E-2,8.867697E-2,-3.593992E-2,4.319277E-2,-9.285035E-2,-1.9117108E-2,7.115871E-2],"categories":[],"categories_nodes":[],"categories_segments":[],"categories_sizes":[],"default_left":[0,0,0,0,0,0,0,0,0,0,0,0,0,0,0,0,0,0,0,0,0,0,0,0,0,0,0,0,0,0,0,0,0,0,0,0,0,0,0,0,0,0,0,0,0,0,0,0,0,0,0,0,0,0,0,0,0,0,0,0,0,0,0,0,0,0,0,0,0,0,0,0,0,0,0,0,0,0,0,0,0,0,0,0,0,0,0,0,0,0,0,0,0,0,0,0,0,0,0,0,0,0,0,0,0,0,0,0,0,0,0,0,0,0,0,0,0,0,0,0,0,0,0,0,0,0,0],"id":2,"left_children":[1,3,5,7,9,11,13,15,17,19,21,23,25,27,29,31,33,35,37,39,41,43,45,47,49,51,53,55,57,59,61,63,65,67,69,71,73,75,77,79,81,83,85,87,89,91,93,95,97,99,101,103,105,107,109,111,113,115,117,119,121,123,125,-1,-1,-1,-1,-1,-1,-1,-1,-1,-1,-1,-1,-1,-1,-1,-1,-1,-1,-1,-1,-1,-1,-1,-1,-1,-1,-1,-1,-1,-1,-1,-1,-1,-1,-1,-1,-1,-1,-1,-1,-1,-1,-1,-1,-1,-1,-1,-1,-1,-1,-1,-1,-1,-1,-1,-1,-1,-1,-1,-1,-1,-1,-1,-1],"loss_changes":[1.6108612E5,2.5113508E4,3.5710285E4,3.1487734E3,9.918399E3,1.9921553E4,6.3873984E3,9.834375E2,6.1301904E2,1.5900352E3,2.607884E3,4.666696E3,3.0618574E3,1.4456914E3,4.5541406E2,6.0398438E1,9.7633594E2,6.958633E2,5.38552E2,3.6005566E2,7.004253E2,2.2257095E3,3.515205E2,2.026029E3,1.0426895E3,2.8973242E2,5.791665E2,5.123955E2,6.167832E2,1.4791797E2,2.1614355E2,5.7453125E1,5.9532185E1,5.361836E2,7.823242E1,8.013666E1,2.4958643E2,3.5693018E2,4.1221704E2,2.6832617E2,1.7773843E2,2.9189813E2,4.3129395E2,1.1737153E3,5.5583984E2,2.805569E2,9.9714355E1,3.6167114E2,1.084177E3,2.6408154E2,2.8054584E2,1.9921436E2,1.6551172E2,9.3029495E1,4.8857568E2,3.4944238E2,5.9323242E1,3.3557434E2,5.293545E2,1.2291699E2,5.1757812E1,1.8513863E2,2.1747314E2,0E0,0E0,0E0,0E0,0E0,0E0,0E0,0E0,0E0,0E0,0E0,0E0,0E0,0E0,0E0,0E0,0E0,0E0,0E0,0E0,0E0,0E0,0E0,0E0,0E0,0E0,0E0,0E0,0E0,0E0,0E0,0E0,0E0,0E0,0E0,0E0,0E0,0E0,0E0,0E0,0E0,0E0,0E0,0E0,0E0,0E0,0E0,0E0,0E0,0E0,0E0,0E0,0E0,0E0,0E0,0E0,0E0,0E0,0E0,0E0,0E0,0E0,0E0,0E0],"parents":[2147483647,0,0,1,1,2,2,3,3,4,4,5,5,6,6,7,7,8,8,9,9,10,10,11,11,12,12,13,13,14,14,15,15,16,16,17,17,18,18,19,19,20,20,21,21,22,22,23,23,24,24,25,25,26,26,27,27,28,28,29,29,30,30,31,31,32,32,33,33,34,34,35,35,36,36,37,37,38,38,39,39,40,40,41,41,42,42,43,43,44,44,45,45,46,46,47,47,48,48,49,49,50,50,51,51,52,52,53,53,54,54,55,55,56,56,57,57,58,58,59,59,60,60,61,61,62,62],"right_children":[2,4,6,8,10,12,14,16,18,20,22,24,26,28,30,32,34,36,38,40,42,44,46,48,50,52,54,56,58,60,62,64,66,68,70,72,74,76,78,80,82,84,86,88,90,92,94,96,98,100,102,104,106,108,110,112,114,116,118,120,122,124,126,-1,-1,-1,-1,-1,-1,-1,-1,-1,-1,-1,-1,-1,-1,-1,-1,-1,-1,-1,-1,-1,-1,-1,-1,-1,-1,-1,-1,-1,-1,-1,-1,-1,-1,-1,-1,-1,-1,-1,-1,-1,-1,-1,-1,-1,-1,-1,-1,-1,-1,-1,-1,-1,-1,-1,-1,-1,-1,-1,-1,-1,-1,-1,-1],"split_conditions":[-2E2,0E0,1E0,1.715E4,-1.055E4,1.245E4,2E0,-1E0,3.42E2,7.1E3,1E0,1E0,5.05E3,1.72E2,3E0,5E1,1E0,2.41E2,1.855E4,1E0,3.6E1,5.2E1,2.14E2,0E0,1.9E1,1E0,1.25E3,3E0,3.4E1,1.65E2,2.85E3,2.25E2,1.9E3,9.9E3,9.71659E2,7.6E1,4E0,6.806763E1,6.118162E2,4E3,6E0,2.12E4,3.3E1,3.051298E2,1.1850331E3,1.4E4,1E0,-6.1E1,-7.7632324E1,7.4E3,1.81E2,1E0,1E0,-2.0676458E3,1E0,1.25E2,2E0,4.81E2,1.6004259E3,1.78E2,3E0,9.6E1,1E2,-9.026759E-2,-8.224075E-2,8.0620684E-2,-7.746745E-2,-7.2458506E-2,-4.9311694E-2,-8.006186E-2,-9.031984E-2,9.101192E-2,-5.80737E-2,-7.356564E-2,-2.3605492E-2,5.37028E-2,-3.1577982E-2,-2.7657405E-2,-5.83402E-2,-1.4105613E-2,-8.075415E-2,-8.447567E-2,9.911033E-2,-4.2518094E-2,8.499576E-2,2.453144E-2,-4.819815E-2,2.9557075E-3,-1.9881327E-2,4.276568E-2,5.561128E-3,-4.4816054E-2,9.7746864E-2,-8.209081E-2,4.810426E-2,-4.8790872E-2,-1.5964318E-2,1.5813334E-2,1.706901E-3,-4.8022956E-2,-7.677024E-2,1.8688099E-3,-3.4971967E-2,-6.9680266E-2,6.3904256E-2,8.5452795E-2,1.9200245E-2,7.907358E-2,-9.581313E-2,3.7994385E-2,6.9974445E-2,5.2140098E-2,7.943019E-2,8.706623E-2,-4.2137593E-2,2.7522659E-2,-1.9187909E-2,4.6631724E-2,-6.788517E-3,8.416815E-2,6.723716E-2,8.867697E-2,-3.593992E-2,4.319277E-2,-9.285035E-2,-1.9117108E-2,7.115871E-2],"split_indices":[97,93,93,54,97,97,93,93,49,54,2,2,9,6,12,94,2,5,54,198,131,94,5,93,94,140,55,56,94,94,9,50,51,54,101,103,192,115,194,9,175,10,120,216,183,9,336,94,194,9,6,173,386,182,139,94,280,50,148,5,392,109,8,0,0,0,0,0,0,0,0,0,0,0,0,0,0,0,0,0,0,0,0,0,0,0,0,0,0,0,0,0,0,0,0,0,0,0,0,0,0,0,0,0,0,0,0,0,0,0,0,0,0,0,0,0,0,0,0,0,0,0,0,0,0,0,0],"split_type":[0,0,0,0,0,0,0,0,0,0,0,0,0,0,0,0,0,0,0,0,0,0,0,0,0,0,0,0,0,0,0,0,0,0,0,0,0,0,0,0,0,0,0,0,0,0,0,0,0,0,0,0,0,0,0,0,0,0,0,0,0,0,0,0,0,0,0,0,0,0,0,0,0,0,0,0,0,0,0,0,0,0,0,0,0,0,0,0,0,0,0,0,0,0,0,0,0,0,0,0,0,0,0,0,0,0,0,0,0,0,0,0,0,0,0,0,0,0,0,0,0,0,0,0,0,0,0],"sum_hessian":[2.295574E5,9.085003E4,1.3870738E5,4.8654875E4,4.2195156E4,8.408649E4,5.4620887E4,4.0666434E4,7.9884414E3,1.2742634E4,2.9452521E4,6.6574516E4,1.7511979E4,2.8958908E4,2.566198E4,2.1759258E4,1.8907176E4,3.0914595E3,4.8969814E3,6.3962476E3,6.3463857E3,2.7045309E4,2.407213E3,6.127352E4,5.300995E3,8.055034E3,9.456943E3,8.605404E3,2.0353504E4,2.1859074E4,3.8029055E3,2.1739395E4,1.986155E1,1.0542297E4,8.36488E3,8.52464E1,3.0062131E3,4.8824405E2,4.408738E3,6.337713E3,5.853495E1,2.0993234E2,6.136453E3,2.2670193E4,4.3751143E3,1.412066E3,9.951468E2,3.3630588E3,5.791046E4,3.2358333E3,2.0651619E3,1.08299065E2,7.9467354E3,9.28088E1,9.364135E3,6.2883823E3,2.3170217E3,2.4493137E3,1.790419E4,5.0723525E3,1.6786723E4,1.08841705E2,3.6940637E3,1.8891541E4,2.8478542E3,9.44256E0,1.0418988E1,6.39463E3,4.1476665E3,3.3047441E3,5.0601353E3,7.643269E1,8.813701E0,2.7284114E3,2.7780173E2,2.566593E2,2.3158476E2,2.3496921E3,2.0590454E3,1.557568E2,6.181956E3,1.717709E1,4.135786E1,6.2738388E1,1.4719395E2,2.0994597E2,5.9265073E3,1.0360401E4,1.2309793E4,2.8139705E3,1.5611439E3,1.3784948E3,3.3571323E1,9.814358E2,1.3710999E1,1.729432E3,1.6336268E3,2.1909291E4,3.6001168E4,1.6953434E3,1.54049E3,1.049865E3,1.0152969E3,4.9845833E1,5.8453228E1,7.849975E3,9.6760086E1,6.8363695E0,8.5972435E1,7.9559873E3,1.4081476E3,4.7121826E3,1.5762001E3,2.3091985E3,7.8232803E0,1.9734022E3,4.7591156E2,1.7428262E4,4.7592868E2,3.4201477E3,1.6522047E3,1.6779373E4,7.348278E0,7.3428474E1,3.541323E1,6.719132E1,3.6268723E3],"tree_param":{"num_deleted":"0","num_feature":"397","num_nodes":"127","size_leaf_vector":"1"}},{"base_weights":[1.0934714E-3,-9.895198E-1,6.495516E-1,-1.4631677E0,-4.463033E-1,2.5931832E-1,1.2518369E0,-1.632501E0,-1.1194257E0,-9.784815E-1,-4.924326E-2,2.101465E-2,1.1556379E0,9.387077E-1,1.6048547E0,-1.6778703E0,-1.3611346E0,-9.834017E-1,-1.6795872E0,-1.3610848E0,-6.516173E-1,5.8077592E-2,-1.0783399E0,9.540621E-2,-8.4242177E-1,1.5974888E0,7.901665E-1,1.2713723E0,7.982392E-1,1.6585637E0,1.2937473E0,-1.5665129E-1,-1.6825086E0,-1.0878882E0,-1.5781769E0,-1.4324355E0,-7.999396E-1,-1.6900349E0,8.9219764E-2,-1.4206274E0,-2.7854306E-1,-6.8407875E-1,1.5239915E0,-6.365468E-2,6.54578E-1,-8.183672E-1,-1.5917046E0,-2.3908468E-1,1.8288177E-1,-1.1873277E0,-2.9890186E-1,5.0270103E-2,1.621844E0,-1.5372367E0,8.135074E-1,1.1291987E0,1.6596388E0,8.397362E-1,1.24148995E-1,1.586079E0,1.7440125E0,1.3629783E0,4.2514032E-1,-8.644784E-2,9.7810104E-2,-8.646975E-2,-7.9386234E-2,8.692081E-2,-5.6106824E-2,-7.960742E-2,6.498175E-2,-7.260755E-2,5.8781255E-2,-4.4408094E-2,-1.4057027E-2,8.832E-2,-8.494933E-2,-7.165989E-2,9.55391E-2,-5.029742E-2,3.6289286E-2,-3.6326602E-2,4.1567374E-2,8.977773E-2,-8.0624275E-2,4.6856767E-3,-1.8893853E-2,5.843247E-2,2.2059556E-2,-5.5387016E-2,-1.5391122E-2,-8.220076E-2,6.653782E-2,-1.9213695E-2,5.0244844E-3,1.37343025E-2,-9.3867595E-4,-4.963681E-2,-8.078108E-2,-1.0208438E-2,-8.3759926E-2,-6.778225E-2,5.3747296E-2,8.190967E-2,1.6072625E-2,7.773076E-2,-9.1890685E-2,3.6277108E-2,6.5188505E-2,5.002762E-2,7.579534E-2,-3.7137706E-2,8.3423376E-2,5.6736737E-2,3.7753884E-2,1.5270108E-2,-9.9435255E-2,8.245342E-2,6.885218E-2,8.724485E-2,4.3351274E-2,6.992745E-2,-2.3589784E-2,6.9484465E-2,-4.8030872E-2],"categories":[],"categories_nodes":[],"categories_segments":[],"categories_sizes":[],"default_left":[0,0,0,0,0,0,0,0,0,0,0,0,0,0,0,0,0,0,0,0,0,0,0,0,0,0,0,0,0,0,0,0,0,0,0,0,0,0,0,0,0,0,0,0,0,0,0,0,0,0,0,0,0,0,0,0,0,0,0,0,0,0,0,0,0,0,0,0,0,0,0,0,0,0,0,0,0,0,0,0,0,0,0,0,0,0,0,0,0,0,0,0,0,0,0,0,0,0,0,0,0,0,0,0,0,0,0,0,0,0,0,0,0,0,0,0,0,0,0,0,0,0,0,0,0],"id":3,"left_children":[1,3,5,7,9,11,13,15,17,19,21,23,25,27,29,31,33,35,37,39,41,43,45,47,49,51,53,55,57,59,61,63,65,67,69,71,73,75,-1,77,79,81,83,85,87,89,91,93,95,97,99,101,103,105,107,109,111,113,115,117,119,121,123,-1,-1,-1,-1,-1,-1,-1,-1,-1,-1,-1,-1,-1,-1,-1,-1,-1,-1,-1,-1,-1,-1,-1,-1,-1,-1,-1,-1,-1,-1,-1,-1,-1,-1,-1,-1,-1,-1,-1,-1,-1,-1,-1,-1,-1,-1,-1,-1,-1,-1,-1,-1,-1,-1,-1,-1,-1,-1,-1,-1,-1,-1],"loss_changes":[1.468311E5,2.3265914E4,3.246805E4,2.8082031E3,8.901164E3,1.7906367E4,6.0009766E3,3.9382812E2,1.2119922E3,2.249254E3,2.6648137E3,4.2541226E3,2.8407695E3,1.3432246E3,4.2226562E2,1.9504688E2,2.7209473E2,1.0553281E3,1.1871094E2,5.336201E2,6.878911E2,1.5867241E3,3.0150122E2,1.7842341E3,9.841467E2,3.0012695E2,5.262085E2,4.678711E2,5.661504E2,1.2926562E2,2.2539502E2,2.9397726E2,1.1730469E2,2.0359961E2,1.0806592E2,1.9475977E2,4.1686816E2,1.020791E2,0E0,3.3455957E2,3.1905792E2,6.1685156E2,1.27914734E2,8.975109E2,4.0523865E2,2.2339703E2,1.21155396E2,6.2333453E2,8.9485706E2,2.6460107E2,2.655839E2,1.837967E2,1.6573828E2,9.531564E1,4.0979395E2,3.0838916E2,5.0958008E1,4.7460352E2,4.5175555E2,1.5078906E2,4.7070312E0,2.2898877E2,3.7828882E2,0E0,0E0,0E0,0E0,0E0,0E0,0E0,0E0,0E0,0E0,0E0,0E0,0E0,0E0,0E0,0E0,0E0,0E0,0E0,0E0,0E0,0E0,0E0,0E0,0E0,0E0,0E0,0E0,0E0,0E0,0E0,0E0,0E0,0E0,0E0,0E0,0E0,0E0,0E0,0E0,0E0,0E0,0E0,0E0,0E0,0E0,0E0,0E0,0E0,0E0,0E0,0E0,0E0,0E0,0E0,0E0,0E0,0E0,0E0,0E0,0E0,0E0],"parents":[2147483647,0,0,1,1,2,2,3,3,4,4,5,5,6,6,7,7,8,8,9,9,10,10,11,11,12,12,13,13,14,14,15,15,16,16,17,17,18,18,19,19,20,20,21,21,22,22,23,23,24,24,25,25,26,26,27,27,28,28,29,29,30,30,31,31,32,32,33,33,34,34,35,35,36,36,37,37,39,39,40,40,41,41,42,42,43,43,44,44,45,45,46,46,47,47,48,48,49,49,50,50,51,51,52,52,53,53,54,54,55,55,56,56,57,57,58,58,59,59,60,60,61,61,62,62],"right_children":[2,4,6,8,10,12,14,16,18,20,22,24,26,28,30,32,34,36,38,40,42,44,46,48,50,52,54,56,58,60,62,64,66,68,70,72,74,76,-1,78,80,82,84,86,88,90,92,94,96,98,100,102,104,106,108,110,112,114,116,118,120,122,124,-1,-1,-1,-1,-1,-1,-1,-1,-1,-1,-1,-1,-1,-1,-1,-1,-1,-1,-1,-1,-1,-1,-1,-1,-1,-1,-1,-1,-1,-1,-1,-1,-1,-1,-1,-1,-1,-1,-1,-1,-1,-1,-1,-1,-1,-1,-1,-1,-1,-1,-1,-1,-1,-1,-1,-1,-1,-1,-1,-1,-1,-1],"split_conditions":[-2E2,0E0,1E0,2.71E2,-7.55E3,1.22E4,2E0,-3.9E1,1E0,8.8E1,1E0,1E0,5.05E3,1.72E2,3E0,5E1,1E0,-1.02E2,1.8E1,8.5E1,1E0,5.4E1,1.1379646E3,-4E0,1.9E1,1E0,1.25E3,3E0,1E0,3E0,4E0,1.97E2,-1E0,-2.4029104E3,2E0,2.755E4,-8E0,1.95E3,8.9219764E-2,1.53E4,2.125E4,2.8259954E3,4.93E2,1.3862474E3,7.5E1,7.4803125E2,1.4E2,4.7E3,1.2136398E3,1.1902859E3,1.8380917E3,1E0,1E0,-2.0676458E3,1E0,1.25E2,-2.465113E3,-9.47753E2,1.3627283E3,7.5E1,1.375E2,1E0,1E2,-8.644784E-2,9.7810104E-2,-8.646975E-2,-7.9386234E-2,8.692081E-2,-5.6106824E-2,-7.960742E-2,6.498175E-2,-7.260755E-2,5.8781255E-2,-4.4408094E-2,-1.4057027E-2,8.832E-2,-8.494933E-2,-7.165989E-2,9.55391E-2,-5.029742E-2,3.6289286E-2,-3.6326602E-2,4.1567374E-2,8.977773E-2,-8.0624275E-2,4.6856767E-3,-1.8893853E-2,5.843247E-2,2.2059556E-2,-5.5387016E-2,-1.5391122E-2,-8.220076E-2,6.653782E-2,-1.9213695E-2,5.0244844E-3,1.37343025E-2,-9.3867595E-4,-4.963681E-2,-8.078108E-2,-1.0208438E-2,-8.3759926E-2,-6.778225E-2,5.3747296E-2,8.190967E-2,1.6072625E-2,7.773076E-2,-9.1890685E-2,3.6277108E-2,6.5188505E-2,5.002762E-2,7.579534E-2,-3.7137706E-2,8.3423376E-2,5.6736737E-2,3.7753884E-2,1.5270108E-2,-9.9435255E-2,8.245342E-2,6.885218E-2,8.724485E-2,4.3351274E-2,6.992745E-2,-2.3589784E-2,6.9484465E-2,-4.8030872E-2],"split_indices":[97,93,93,50,97,97,93,94,2,175,2,2,9,6,12,8,2,94,192,94,122,94,100,94,94,140,55,56,2,93,147,6,93,160,46,51,94,9,0,55,10,183,6,72,207,204,94,97,194,101,99,173,386,182,139,94,194,149,148,152,1,2,153,0,0,0,0,0,0,0,0,0,0,0,0,0,0,0,0,0,0,0,0,0,0,0,0,0,0,0,0,0,0,0,0,0,0,0,0,0,0,0,0,0,0,0,0,0,0,0,0,0,0,0,0,0,0,0,0,0,0,0,0,0,0],"split_type":[0,0,0,0,0,0,0,0,0,0,0,0,0,0,0,0,0,0,0,0,0,0,0,0,0,0,0,0,0,0,0,0,0,0,0,0,0,0,0,0,0,0,0,0,0,0,0,0,0,0,0,0,0,0,0,0,0,0,0,0,0,0,0,0,0,0,0,0,0,0,0,0,0,0,0,0,0,0,0,0,0,0,0,0,0,0,0,0,0,0,0,0,0,0,0,0,0,0,0,0,0,0,0,0,0,0,0,0,0,0,0,0,0,0,0,0,0,0,0,0,0,0,0,0,0],"sum_hessian":[2.2857272E5,9.0428734E4,1.3814398E5,4.830589E4,4.212284E4,8.3831E4,5.4312984E4,3.2358182E4,1.594771E4,1.7997682E4,2.4125158E4,6.622568E4,1.7605316E4,2.8786486E4,2.5526498E4,2.771431E4,4.6438716E3,1.2836208E4,3.1115022E3,8.288934E3,9.708747E3,2.184854E4,2.2766199E3,6.0974086E4,5.251598E3,7.9667993E3,9.638518E3,8.541643E3,2.0244844E4,2.1761047E4,3.7654517E3,8.44565E1,2.7629854E4,2.0610842E3,2.582787E3,3.7193284E3,9.11688E3,3.103167E3,8.335172E0,7.856198E3,4.3273538E2,9.567367E3,1.4137999E2,1.8146943E4,3.7015952E3,1.514733E3,7.618867E2,1.2639487E4,4.8334598E4,3.211366E3,2.0402323E3,1.235597E2,7.8432393E3,9.44141E1,9.544104E3,6.2579507E3,2.2836921E3,1.9070379E4,1.1744652E3,1.1794818E4,9.966228E3,3.4864326E3,2.7901913E2,4.8630737E1,3.5825764E1,1.8462549E4,9.167304E3,2.348502E1,2.0375992E3,2.5711975E3,1.1589411E1,3.6923035E3,2.7025116E1,7.790649E3,1.3262308E3,7.001699E0,3.0961653E3,7.8278013E3,2.8397371E1,2.509654E2,1.8176997E2,9.307663E3,2.5970447E2,1.309013E2,1.0478675E1,1.2092304E4,6.0546396E3,1.0831702E3,2.618425E3,9.652799E2,5.494531E2,7.493487E2,1.2538075E1,8.85371E3,3.7857769E3,3.321337E4,1.5121226E4,2.212687E3,9.98679E2,1.9109918E3,1.2924048E2,5.1817314E1,7.1742386E1,7.745341E3,9.789863E1,7.62599E0,8.678811E1,8.0963735E3,1.4477301E3,4.7011826E3,1.5567683E3,7.752975E0,2.2759392E3,4.246913E3,1.4823466E4,1.0832485E3,9.121658E1,9.053054E3,2.7417644E3,9.954209E3,1.2018968E1,3.4205935E3,6.583919E1,1.6450836E2,1.1451078E2],"tree_param":{"num_deleted":"0","num_feature":"397","num_nodes":"125","size_leaf_vector":"1"}},{"base_weights":[6.279677E-4,-9.3924737E-1,6.242022E-1,-1.4039594E0,-4.1837165E-1,2.5017965E-1,1.2014152E0,-1.5705521E0,-1.0674601E0,-1.1019706E0,-1.311534E-1,2.1118494E-2,1.1029512E0,8.9975417E-1,1.5460093E0,-1.6623553E0,-1.4382166E0,-9.350252E-1,-1.6144456E0,-1.3504053E0,-7.571943E-1,-5.144966E-2,-1.0236857E0,9.19054E-2,-8.0677724E-1,1.5394365E0,7.4553806E-1,1.1931592E0,7.551821E-1,1.5839441E0,1.0820494E0,-1.665088E0,-3.5213107E-1,-1.269675E0,-1.5884898E0,-1.3879867E0,-8.287483E-1,-1.6251848E0,8.5883684E-2,-8.4249955E-1,-1.4538963E0,-7.922832E-1,1.7704471E0,-4.686023E-1,7.369165E-2,-6.619516E-1,-1.3446912E0,-6.012455E-1,1.3149047E-1,-4.480953E-1,-1.1887499E0,8.405315E-2,1.5622748E0,-1.4985144E0,7.6832753E-1,1.0836297E0,1.6269948E0,8.320752E-1,4.1441762E-1,1.512605E0,1.6810926E0,1.193239E0,-3.118855E-1,6.367707E-2,-8.3307885E-2,-7.909798E-2,9.724862E-2,-5.3948034E-2,-7.821467E-2,-7.3387206E-2,-8.380129E-2,-7.3639564E-2,-1.3445695E-2,-3.4134816E-2,-5.8536973E-2,8.620152E-2,-8.174231E-2,-5.1774997E-2,9.870734E-2,4.479418E-2,-7.366299E-2,1.3849974E-2,-4.3089714E-2,1.0228007E-1,-6.60775E-2,5.981309E-2,-2.5959132E-2,1.18981525E-2,-1.3171405E-2,-4.9067087E-2,-6.445849E-3,-7.0045166E-2,4.8214767E-2,-4.2700734E-2,-8.524932E-3,1.2645798E-2,4.5736633E-5,-1.7122205E-2,-8.225236E-2,-6.091223E-2,9.812427E-2,-6.185267E-2,5.4600764E-2,7.893351E-2,1.5677419E-2,7.251721E-2,-8.710124E-2,3.391197E-2,6.320092E-2,5.750486E-2,2.728485E-2,8.1859685E-2,-2.6951393E-2,4.3723464E-2,-1.1849932E-3,9.087358E-2,1.7592842E-2,7.777386E-2,6.447026E-2,8.409268E-2,4.458622E-2,3.7443478E-2,7.779341E-2,-7.521602E-2,6.823968E-2],"categories":[],"categories_nodes":[],"categories_segments":[],"categories_sizes":[],"default_left":[0,0,0,0,0,0,0,0,0,0,0,0,0,0,0,0,0,0,0,0,0,0,0,0,0,0,0,0,0,0,0,0,0,0,0,0,0,0,0,0,0,0,0,0,0,0,0,0,0,0,0,0,0,0,0,0,0,0,0,0,0,0,0,0,0,0,0,0,0,0,0,0,0,0,0,0,0,0,0,0,0,0,0,0,0,0,0,0,0,0,0,0,0,0,0,0,0,0,0,0,0,0,0,0,0,0,0,0,0,0,0,0,0,0,0,0,0,0,0,0,0,0,0,0,0],"id":4,"left_children":[1,3,5,7,9,11,13,15,17,19,21,23,25,27,29,31,33,35,37,39,41,43,45,47,49,51,53,55,57,59,61,63,65,67,69,71,73,75,-1,77,79,81,83,85,87,89,91,93,95,97,99,101,103,105,107,109,111,113,115,117,119,121,123,-1,-1,-1,-1,-1,-1,-1,-1,-1,-1,-1,-1,-1,-1,-1,-1,-1,-1,-1,-1,-1,-1,-1,-1,-1,-1,-1,-1,-1,-1,-1,-1,-1,-1,-1,-1,-1,-1,-1,-1,-1,-1,-1,-1,-1,-1,-1,-1,-1,-1,-1,-1,-1,-1,-1,-1,-1,-1,-1,-1,-1,-1],"loss_changes":[1.3334505E5,2.1964305E4,2.9527715E4,2.6850469E3,8.401149E3,1.6212463E4,5.5875547E3,3.848672E2,1.1478125E3,1.0822695E3,2.143474E3,3.8344016E3,2.7392578E3,1.2147715E3,4.3833594E2,6.658203E1,3.2905078E2,6.136299E2,1.1629785E2,3.8415723E2,4.7342188E2,1.4442377E3,2.850515E2,1.6539988E3,7.05021E2,2.6264453E2,4.966162E2,4.46167E2,5.0288965E2,1.5569531E2,2.9576416E2,6.359375E1,1.24589645E2,3.4548145E2,6.8478516E1,2.2968164E2,5.1627686E2,1.0545996E2,0E0,6.8346185E2,2.8051855E2,3.8957202E2,6.7743576E1,5.3885144E2,1.1787186E3,1.9814182E2,1.7231763E2,3.5428723E2,9.0406415E2,3.353911E2,2.3664038E2,1.6824622E2,1.584414E2,7.531807E1,4.256372E2,2.6912598E2,4.3818848E1,5.688545E2,3.0964777E2,1.2417578E2,2.8867188E0,2.818047E2,2.8841537E2,0E0,0E0,0E0,0E0,0E0,0E0,0E0,0E0,0E0,0E0,0E0,0E0,0E0,0E0,0E0,0E0,0E0,0E0,0E0,0E0,0E0,0E0,0E0,0E0,0E0,0E0,0E0,0E0,0E0,0E0,0E0,0E0,0E0,0E0,0E0,0E0,0E0,0E0,0E0,0E0,0E0,0E0,0E0,0E0,0E0,0E0,0E0,0E0,0E0,0E0,0E0,0E0,0E0,0E0,0E0,0E0,0E0,0E0,0E0,0E0,0E0,0E0],"parents":[2147483647,0,0,1,1,2,2,3,3,4,4,5,5,6,6,7,7,8,8,9,9,10,10,11,11,12,12,13,13,14,14,15,15,16,16,17,17,18,18,19,19,20,20,21,21,22,22,23,23,24,24,25,25,26,26,27,27,28,28,29,29,30,30,31,31,32,32,33,33,34,34,35,35,36,36,37,37,39,39,40,40,41,41,42,42,43,43,44,44,45,45,46,46,47,47,48,48,49,49,50,50,51,51,52,52,53,53,54,54,55,55,56,56,57,57,58,58,59,59,60,60,61,61,62,62],"right_children":[2,4,6,8,10,12,14,16,18,20,22,24,26,28,30,32,34,36,38,40,42,44,46,48,50,52,54,56,58,60,62,64,66,68,70,72,74,76,-1,78,80,82,84,86,88,90,92,94,96,98,100,102,104,106,108,110,112,114,116,118,120,122,124,-1,-1,-1,-1,-1,-1,-1,-1,-1,-1,-1,-1,-1,-1,-1,-1,-1,-1,-1,-1,-1,-1,-1,-1,-1,-1,-1,-1,-1,-1,-1,-1,-1,-1,-1,-1,-1,-1,-1,-1,-1,-1,-1,-1,-1,-1,-1,-1,-1,-1,-1,-1,-1,-1,-1,-1,-1,-1,-1,-1,-1,-1],"split_conditions":[-1.5E2,0E0,1E0,2.71E2,-1.055E4,1.22E4,2E0,-1E0,1E0,8.8E1,1E0,1E0,5.05E3,1.85E2,3E2,1.745E4,1E0,-1E0,1.8E1,7.7E1,2.8586118E3,-6.85E3,1.95E2,0E0,1.95E2,1E0,1.25E3,1.175E4,1.1060045E3,3E0,4E0,5.2E1,1.2185984E3,3E2,1.118036E3,1.819031E3,1.2617815E3,1.95E3,8.5883684E-2,1.77E4,3.55E3,-2.435E4,1E0,-2.1023694E3,1.4039723E3,5.15E3,-2E2,3.99E2,4.986838E2,1.825172E3,2E0,1E0,1E0,-2.0676458E3,1E0,8.2E1,1E0,4E0,-2.235E4,4E0,1.375E2,1.295E4,1E2,6.367707E-2,-8.3307885E-2,-7.909798E-2,9.724862E-2,-5.3948034E-2,-7.821467E-2,-7.3387206E-2,-8.380129E-2,-7.3639564E-2,-1.3445695E-2,-3.4134816E-2,-5.8536973E-2,8.620152E-2,-8.174231E-2,-5.1774997E-2,9.870734E-2,4.479418E-2,-7.366299E-2,1.3849974E-2,-4.3089714E-2,1.0228007E-1,-6.60775E-2,5.981309E-2,-2.5959132E-2,1.18981525E-2,-1.3171405E-2,-4.9067087E-2,-6.445849E-3,-7.0045166E-2,4.8214767E-2,-4.2700734E-2,-8.524932E-3,1.2645798E-2,4.5736633E-5,-1.7122205E-2,-8.225236E-2,-6.091223E-2,9.812427E-2,-6.185267E-2,5.4600764E-2,7.893351E-2,1.5677419E-2,7.251721E-2,-8.710124E-2,3.391197E-2,6.320092E-2,5.750486E-2,2.728485E-2,8.1859685E-2,-2.6951393E-2,4.3723464E-2,-1.1849932E-3,9.087358E-2,1.7592842E-2,7.777386E-2,6.447026E-2,8.409268E-2,4.458622E-2,3.7443478E-2,7.779341E-2,-7.521602E-2,6.823968E-2],"split_indices":[97,93,93,50,97,97,93,93,2,175,2,2,9,6,5,96,2,93,192,109,194,97,5,93,5,140,55,97,71,93,147,5,71,6,99,193,172,9,0,9,9,96,308,182,72,53,97,49,72,99,223,173,386,182,139,152,324,158,96,70,1,97,208,0,0,0,0,0,0,0,0,0,0,0,0,0,0,0,0,0,0,0,0,0,0,0,0,0,0,0,0,0,0,0,0,0,0,0,0,0,0,0,0,0,0,0,0,0,0,0,0,0,0,0,0,0,0,0,0,0,0,0,0,0,0],"split_type":[0,0,0,0,0,0,0,0,0,0,0,0,0,0,0,0,0,0,0,0,0,0,0,0,0,0,0,0,0,0,0,0,0,0,0,0,0,0,0,0,0,0,0,0,0,0,0,0,0,0,0,0,0,0,0,0,0,0,0,0,0,0,0,0,0,0,0,0,0,0,0,0,0,0,0,0,0,0,0,0,0,0,0,0,0,0,0,0,0,0,0,0,0,0,0,0,0,0,0,0,0,0,0,0,0,0,0,0,0,0,0,0,0,0,0,0,0,0,0,0,0,0,0,0,0],"sum_hessian":[2.2751542E5,9.0743016E4,1.367724E5,4.795521E4,4.2787805E4,8.299571E4,5.3776703E4,3.2070525E4,1.5884685E4,1.2657182E4,3.0130625E4,6.542428E4,1.7571428E4,2.8678496E4,2.5098207E4,1.8921371E4,1.3149153E4,1.2792751E4,3.0919336E3,7.3530063E3,5.3041753E3,2.7662463E4,2.4681619E3,6.0272617E4,5.151663E3,7.90768E3,9.663748E3,9.461713E3,1.9216783E4,2.3196742E4,1.9014653E3,1.8881447E4,3.9923576E1,6.206753E3,6.9424E3,2.426533E3,1.0366218E4,3.0830217E3,8.9118595E0,1.2477351E3,6.105271E3,5.232905E3,7.127051E1,6.3822026E3,2.128026E4,1.1633418E3,1.3048201E3,3.2546138E3,5.7018004E4,2.6590732E3,2.49259E3,1.2231759E2,7.785363E3,9.585157E1,9.567896E3,7.5600425E3,1.9016707E3,1.5676514E4,3.5402698E3,1.3394148E4,9.802594E3,1.7612632E3,1.4020218E2,6.003618E0,1.8875443E4,2.6407902E1,1.3515673E1,3.7734324E3,2.4333206E3,2.9326665E3,4.0097336E3,2.2550134E3,1.715195E2,7.2682188E3,3.0979995E3,7.8469763E0,3.0751746E3,1.1689049E3,7.8830215E1,4.915957E1,6.056112E3,3.1904803E2,4.9138564E3,6.606801E1,5.2024965E0,1.8684506E2,6.1953574E3,1.4308577E4,6.9716826E3,7.264041E2,4.3693762E2,1.2745771E3,3.0242887E1,2.0497957E3,1.2048181E3,2.9543205E4,2.7474799E4,2.4457654E3,2.1330786E2,2.470692E3,2.1898142E1,5.273924E1,6.957835E1,7.6839473E3,1.0141554E2,6.555377E0,8.9296196E1,8.100438E3,1.4674587E3,6.726619E3,8.334235E2,1.8932445E3,8.426113E0,1.4936531E4,7.3998193E2,1.487241E2,3.391546E3,1.1225932E4,2.1682168E3,9.790895E3,1.16991415E1,7.941878E2,9.670753E2,8.205278E1,5.8149395E1],"tree_param":{"num_deleted":"0","num_feature":"397","num_nodes":"125","size_leaf_vector":"1"}},{"base_weights":[1.0725834E-3,-1.2168494E0,4.4668555E-1,-1.3973098E0,-7.558551E-1,7.922674E-2,1.1836778E0,-1.5338466E0,-1.0648943E0,-1.1269095E0,-5.221052E-1,-4.4633693E-1,2.1943976E-1,7.377188E-1,1.4008105E0,-1.5362121E0,1.7514087E0,-1.1516231E0,-1.1358883E-1,-1.1581883E0,9.924331E-1,-9.028501E-1,-2.3560229E-1,-2.7504227E-1,-1.2526491E0,1.07265055E-1,7.657901E-1,1.2930018E-1,9.494485E-1,1.1397594E0,1.5049423E0,-1.4425741E0,-1.6159245E0,6.0612704E-3,1.1031145E-1,-1.2853014E0,-6.22136E-1,8.566508E-1,-6.213832E-1,-1.0341747E0,-1.6322887E0,-1.0581127E0,1.7605233E0,-3.883916E-2,-1.0843476E0,-5.599799E-1,1.636551E-1,-5.1574206E-1,9.277945E-2,-1.546295E0,-1.0390891E0,1.4750183E-1,-5.954559E-1,9.677021E-1,5.636331E-1,-5.5044618E-2,8.839873E-1,1.1721312E0,7.9589975E-1,1.2559424E-1,1.3069314E0,1.5097004E0,-9.172079E-2,-7.66374E-2,-5.7807256E-2,-1.1143617E-2,-8.097344E-2,-6.550125E-2,5.4411884E-2,-1.1612233E-2,-5.867656E-2,5.6153726E-2,-7.903161E-2,4.780203E-3,-5.9759617E-2,-6.6287905E-2,-4.122156E-2,-8.2112245E-2,-1.1553048E-2,4.7579866E-2,-7.991499E-2,9.960591E-2,-8.186568E-3,1.8703422E-2,-9.161738E-2,-2.064895E-2,-6.4359464E-2,9.840561E-2,-3.0139893E-2,5.2265078E-2,-3.3934545E-3,-3.731912E-2,-1.2990824E-2,8.954525E-3,-4.295656E-2,4.4448566E-2,-7.841483E-2,-3.5516493E-2,-7.216163E-2,1.5268776E-2,-1.3340599E-3,-2.1544715E-2,-8.1315294E-2,6.8414225E-3,5.1315438E-2,3.754982E-2,7.6663266E-3,-6.7171217E-3,7.922643E-2,5.1309545E-2,-9.792098E-2,5.9625518E-2,-8.605464E-3,2.6709953E-2,5.355185E-2,-6.340145E-2,1.6903486E-2,7.5144656E-2,5.4015446E-2,7.561302E-2,-6.656944E-2],"categories":[],"categories_nodes":[],"categories_segments":[],"categories_sizes":[],"default_left":[0,0,0,0,0,0,0,0,0,0,0,0,0,0,0,0,0,0,0,0,0,0,0,0,0,0,0,0,0,0,0,0,0,0,0,0,0,0,0,0,0,0,0,0,0,0,0,0,0,0,0,0,0,0,0,0,0,0,0,0,0,0,0,0,0,0,0,0,0,0,0,0,0,0,0,0,0,0,0,0,0,0,0,0,0,0,0,0,0,0,0,0,0,0,0,0,0,0,0,0,0,0,0,0,0,0,0,0,0,0,0,0,0,0,0,0,0,0,0,0,0],"id":5,"left_children":[1,3,5,7,9,11,13,15,17,19,21,23,25,27,29,31,33,35,37,39,41,43,45,47,49,51,53,55,57,59,61,63,65,-1,-1,67,69,71,73,75,77,79,81,83,85,87,89,91,93,95,97,99,101,103,105,107,109,111,113,115,117,119,-1,-1,-1,-1,-1,-1,-1,-1,-1,-1,-1,-1,-1,-1,-1,-1,-1,-1,-1,-1,-1,-1,-1,-1,-1,-1,-1,-1,-1,-1,-1,-1,-1,-1,-1,-1,-1,-1,-1,-1,-1,-1,-1,-1,-1,-1,-1,-1,-1,-1,-1,-1,-1,-1,-1,-1,-1,-1,-1],"loss_changes":[1.2255699E5,5.0301562E3,4.477319E4,1.9697188E3,1.4752188E3,8.130127E3,5.3242812E3,2.448125E2,1.0445127E3,4.3830078E2,1.1391802E3,3.208477E3,5.337396E3,2.3206035E3,1.0021328E3,2.2514062E2,1.6593742E1,8.198008E2,5.2342126E2,3.7775586E2,1.5608429E2,7.032385E2,7.72578E2,1.6969928E3,2.5206201E2,2.0433031E3,6.044453E2,6.4748773E2,4.5511328E2,1.7894072E3,4.2560547E2,3.625996E2,8.131641E1,0E0,0E0,5.4646387E2,5.0319092E2,2.4062436E2,2.8703992E2,3.123955E2,1.7943604E1,3.3015823E1,3.2349228E1,5.794933E2,5.036748E2,3.5861633E2,5.4616235E2,6.834668E2,6.233274E2,9.44021E1,3.1188477E2,1.879481E3,6.625198E2,3.6099756E2,5.7002563E2,4.8690634E2,3.7331262E2,1.4971777E2,5.68876E2,4.438568E2,3.9920508E2,1.9604297E2,0E0,0E0,0E0,0E0,0E0,0E0,0E0,0E0,0E0,0E0,0E0,0E0,0E0,0E0,0E0,0E0,0E0,0E0,0E0,0E0,0E0,0E0,0E0,0E0,0E0,0E0,0E0,0E0,0E0,0E0,0E0,0E0,0E0,0E0,0E0,0E0,0E0,0E0,0E0,0E0,0E0,0E0,0E0,0E0,0E0,0E0,0E0,0E0,0E0,0E0,0E0,0E0,0E0,0E0,0E0,0E0,0E0,0E0,0E0],"parents":[2147483647,0,0,1,1,2,2,3,3,4,4,5,5,6,6,7,7,8,8,9,9,10,10,11,11,12,12,13,13,14,14,15,15,16,16,17,17,18,18,19,19,20,20,21,21,22,22,23,23,24,24,25,25,26,26,27,27,28,28,29,29,30,30,31,31,32,32,35,35,36,36,37,37,38,38,39,39,40,40,41,41,42,42,43,43,44,44,45,45,46,46,47,47,48,48,49,49,50,50,51,51,52,52,53,53,54,54,55,55,56,56,57,57,58,58,59,59,60,60,61,61],"right_children":[2,4,6,8,10,12,14,16,18,20,22,24,26,28,30,32,34,36,38,40,42,44,46,48,50,52,54,56,58,60,62,64,66,-1,-1,68,70,72,74,76,78,80,82,84,86,88,90,92,94,96,98,100,102,104,106,108,110,112,114,116,118,120,-1,-1,-1,-1,-1,-1,-1,-1,-1,-1,-1,-1,-1,-1,-1,-1,-1,-1,-1,-1,-1,-1,-1,-1,-1,-1,-1,-1,-1,-1,-1,-1,-1,-1,-1,-1,-1,-1,-1,-1,-1,-1,-1,-1,-1,-1,-1,-1,-1,-1,-1,-1,-1,-1,-1,-1,-1,-1,-1],"split_conditions":[-5.5E1,2.98E2,1.01E2,-3.9E1,3.99E2,-2E0,1.71E2,3E0,1E0,1E0,1.38E4,1E0,1E0,1E0,2.04E2,1E0,1.176958E3,5.8E3,2.5E2,1E0,1.1E1,7E2,4.01E2,2.455E4,0E0,1E0,1E0,1.01E4,1.135E4,2.9E1,2.545E4,-1.16E2,5E1,6.0612704E-3,1.1031145E-1,1.57E4,1.3640175E3,6.8E1,9.3E1,-1.02E2,1E0,-2.1159963E3,6.65E1,1.2E3,9.5E1,-1.55E2,5.8E1,-3.6E1,1.8437327E3,-2.245777E3,1.08E4,6.4656366E2,1.825172E3,1.7E1,1.0307203E3,1.59E2,1.935E4,3.87E2,9E1,-1.5808E3,1.92E2,1.8E1,-9.172079E-2,-7.66374E-2,-5.7807256E-2,-1.1143617E-2,-8.097344E-2,-6.550125E-2,5.4411884E-2,-1.1612233E-2,-5.867656E-2,5.6153726E-2,-7.903161E-2,4.780203E-3,-5.9759617E-2,-6.6287905E-2,-4.122156E-2,-8.2112245E-2,-1.1553048E-2,4.7579866E-2,-7.991499E-2,9.960591E-2,-8.186568E-3,1.8703422E-2,-9.161738E-2,-2.064895E-2,-6.4359464E-2,9.840561E-2,-3.0139893E-2,5.2265078E-2,-3.3934545E-3,-3.731912E-2,-1.2990824E-2,8.954525E-3,-4.295656E-2,4.4448566E-2,-7.841483E-2,-3.5516493E-2,-7.216163E-2,1.5268776E-2,-1.3340599E-3,-2.1544715E-2,-8.1315294E-2,6.8414225E-3,5.1315438E-2,3.754982E-2,7.6663266E-3,-6.7171217E-3,7.922643E-2,5.1309545E-2,-9.792098E-2,5.9625518E-2,-8.605464E-3,2.6709953E-2,5.355185E-2,-6.340145E-2,1.6903486E-2,7.5144656E-2,5.4015446E-2,7.561302E-2,-6.656944E-2],"split_indices":[95,50,95,94,49,94,95,303,93,384,54,2,93,93,95,2,126,53,5,2,0,7,49,54,93,2,154,52,10,94,10,95,8,0,0,55,99,186,131,94,246,171,1,52,131,95,197,94,171,183,10,72,99,94,216,95,11,5,109,71,5,114,0,0,0,0,0,0,0,0,0,0,0,0,0,0,0,0,0,0,0,0,0,0,0,0,0,0,0,0,0,0,0,0,0,0,0,0,0,0,0,0,0,0,0,0,0,0,0,0,0,0,0,0,0,0,0,0,0,0,0],"split_type":[0,0,0,0,0,0,0,0,0,0,0,0,0,0,0,0,0,0,0,0,0,0,0,0,0,0,0,0,0,0,0,0,0,0,0,0,0,0,0,0,0,0,0,0,0,0,0,0,0,0,0,0,0,0,0,0,0,0,0,0,0,0,0,0,0,0,0,0,0,0,0,0,0,0,0,0,0,0,0,0,0,0,0,0,0,0,0,0,0,0,0,0,0,0,0,0,0,0,0,0,0,0,0,0,0,0,0,0,0,0,0,0,0,0,0,0,0,0,0,0,0],"sum_hessian":[2.2581514E5,6.048843E4,1.6532672E5,4.346831E4,1.7020121E4,1.10322805E5,5.500391E4,3.0807258E4,1.2661049E4,6.575126E3,1.0444995E4,2.3233137E4,8.708967E4,1.8014188E4,3.6989723E4,3.0786156E4,2.1101843E1,1.1602818E4,1.0582303E3,6.4803906E3,9.473539E1,4.483025E3,5.9619697E3,1.9164479E4,4.0686597E3,7.225659E4,1.4833072E4,4.651379E3,1.336281E4,1.0554416E4,2.6435307E4,1.4174093E4,1.6612064E4,5.1556935E0,1.594615E1,9.261688E3,2.34113E3,3.6309427E2,6.9513605E2,5.1417817E3,1.3386088E3,2.5610004E1,6.912539E1,7.7866284E2,3.7043623E3,3.2890046E3,2.672965E3,1.1583511E4,7.580968E3,1.7078619E3,2.3607976E3,6.834485E4,3.911745E3,7.4172446E3,7.415828E3,3.7397397E3,9.1163904E2,5.448257E3,7.9145522E3,1.49406E3,9.060356E3,2.6398787E4,3.651889E1,1.0773629E4,3.4004644E3,4.2482986E1,1.656958E4,9.167098E3,9.459117E1,1.373073E3,9.6805695E2,3.2828705E2,3.4807224E1,3.0975592E2,3.8538013E2,2.1467493E3,2.9950325E3,1.328823E3,9.785728E0,5.102704E0,2.05073E1,6.1636543E1,7.488843E0,6.3423096E2,1.4443193E2,8.609263E2,2.843436E3,5.3279873E1,3.2357246E3,5.544779E2,2.118487E3,6.0907197E3,5.492791E3,6.9522236E3,6.2874396E2,1.4585937E1,1.693276E3,1.3048524E3,1.0559452E3,3.585005E4,3.2494803E4,3.3756956E3,5.3604944E2,4.8915192E2,6.928093E3,5.0899033E3,2.3259243E3,3.5689634E3,1.7077647E2,8.6942053E2,4.221854E1,5.367115E3,8.1141655E1,4.0593376E3,3.8552146E3,1.9633913E2,1.297721E3,4.8528286E3,4.2075273E3,2.6375957E4,2.2830935E1],"tree_param":{"num_deleted":"0","num_feature":"397","num_nodes":"121","size_leaf_vector":"1"}},{"base_weights":[5.6561816E-4,-1.1701524E0,4.2572102E-1,-1.3476702E0,-7.222252E-1,1.4601672E-1,1.3250904E0,-1.1983397E0,-1.5318791E0,-1.0799313E0,-4.9996862E-1,-2.6581928E-2,5.8872485E-1,1.4139115E0,8.0540645E-1,-1.3234897E0,-8.1654114E-1,-1.5412366E0,-8.981844E-1,-9.515928E-1,-1.5804335E0,-8.6437E-1,-2.300495E-1,-4.7608277E-1,8.402802E-2,3.470018E-1,8.05538E-1,7.3494875E-1,1.4397085E0,1.0919966E0,3.2654303E-1,-1.4279095E0,-1.1298531E0,6.938788E-1,-8.570353E-1,-1.4355726E0,-1.579099E0,-1.1806921E0,1.0051965E-1,-9.8706245E-1,9.0201455E-1,-1.5886867E0,1.2002461E-2,-4.120557E-2,-1.0453176E0,-5.3592616E-1,1.4293684E-1,-3.8229552E-1,-1.3673903E0,-2.7304422E-2,4.0753362E-1,5.445558E-1,1.0026191E-1,1.0936452E0,7.318766E-1,-1.8713572E0,8.142562E-1,1.4914078E0,1.2940574E0,1.1584498E0,5.8528602E-2,-2.6212656E-1,7.0274097E-1,-7.190076E-2,5.5382043E-2,-6.683996E-2,-3.2055717E-2,-5.4051638E-2,8.4427856E-2,-5.212974E-2,-2.4951788E-2,-7.350962E-2,-3.338401E-2,-2.5367746E-2,-7.9032E-2,6.641134E-2,-6.850312E-2,-3.6784094E-2,-5.927686E-2,-5.329677E-2,8.462875E-2,-7.988816E-2,-1.1219693E-2,-8.752697E-2,1.198897E-2,-2.0841995E-2,-6.1882447E-2,9.366895E-2,-2.889852E-2,4.3741908E-2,-2.8157036E-3,-5.4080524E-3,-3.1860165E-2,1.5884513E-2,-7.0515394E-2,2.865913E-3,-3.7093755E-2,3.9850917E-2,9.166404E-3,4.3991886E-2,1.8747719E-2,-1.0346024E-2,1.8140545E-2,5.7299823E-2,-4.0160655E-3,5.8401097E-2,3.3935618E-2,-4.7723476E-2,-9.965037E-2,4.642907E-2,-1.9188795E-2,7.5456195E-2,6.2335085E-2,3.6585044E-2,6.914737E-2,5.9198048E-2,-7.547575E-2,-5.1464375E-2,5.6287616E-2,2.8531933E-2,-4.2080883E-2,6.2318392E-2,1.50535E-2],"categories":[],"categories_nodes":[],"categories_segments":[],"categories_sizes":[],"default_left":[0,0,0,0,0,0,0,0,0,0,0,0,0,0,0,0,0,0,0,0,0,0,0,0,0,0,0,0,0,0,0,0,0,0,0,0,0,0,0,0,0,0,0,0,0,0,0,0,0,0,0,0,0,0,0,0,0,0,0,0,0,0,0,0,0,0,0,0,0,0,0,0,0,0,0,0,0,0,0,0,0,0,0,0,0,0,0,0,0,0,0,0,0,0,0,0,0,0,0,0,0,0,0,0,0,0,0,0,0,0,0,0,0,0,0,0,0,0,0,0,0,0,0],"id":6,"left_children":[1,3,5,7,9,11,13,15,17,19,21,23,25,27,29,31,33,35,37,39,41,43,45,47,49,51,53,55,57,59,61,63,65,67,69,71,73,75,-1,77,79,81,-1,83,85,87,89,91,93,95,97,99,101,103,105,107,109,111,113,115,117,119,121,-1,-1,-1,-1,-1,-1,-1,-1,-1,-1,-1,-1,-1,-1,-1,-1,-1,-1,-1,-1,-1,-1,-1,-1,-1,-1,-1,-1,-1,-1,-1,-1,-1,-1,-1,-1,-1,-1,-1,-1,-1,-1,-1,-1,-1,-1,-1,-1,-1,-1,-1,-1,-1,-1,-1,-1,-1,-1,-1,-1],"loss_changes":[1.1168208E5,4.751203E3,4.1406688E4,1.1738984E3,1.3481211E3,9.593974E3,1.8001016E3,1.1279609E3,1.1084375E2,4.1462744E2,1.0294905E3,4.4916895E3,1.8452754E3,5.819375E2,7.821228E2,3.5686914E2,3.5863086E2,7.098828E1,2.377681E2,3.4234326E2,2.0654053E1,6.6345825E2,6.867212E2,1.4902925E3,2.6112668E3,8.1181934E2,3.923955E2,2.561833E2,2.3803125E2,2.448833E2,4.7396487E2,2.994668E2,6.303135E2,2.7499048E2,3.7710498E2,1.3100586E2,2.13125E1,1.270455E2,0E0,2.5189062E2,1.5654774E2,1.5606201E1,0E0,3.8741663E2,4.4040137E2,3.3713757E2,3.9575128E2,1.1280352E3,1.2367627E2,3.261795E3,1.6206882E3,5.2533325E2,5.976784E2,2.3225684E2,3.413794E2,2.9689026E-1,1.6368555E2,9.8953125E1,4.193828E2,2.3172412E2,2.5500035E2,4.040454E2,2.8427026E2,0E0,0E0,0E0,0E0,0E0,0E0,0E0,0E0,0E0,0E0,0E0,0E0,0E0,0E0,0E0,0E0,0E0,0E0,0E0,0E0,0E0,0E0,0E0,0E0,0E0,0E0,0E0,0E0,0E0,0E0,0E0,0E0,0E0,0E0,0E0,0E0,0E0,0E0,0E0,0E0,0E0,0E0,0E0,0E0,0E0,0E0,0E0,0E0,0E0,0E0,0E0,0E0,0E0,0E0,0E0,0E0,0E0,0E0,0E0,0E0],"parents":[2147483647,0,0,1,1,2,2,3,3,4,4,5,5,6,6,7,7,8,8,9,9,10,10,11,11,12,12,13,13,14,14,15,15,16,16,17,17,18,18,19,19,20,20,21,21,22,22,23,23,24,24,25,25,26,26,27,27,28,28,29,29,30,30,31,31,32,32,33,33,34,34,35,35,36,36,37,37,39,39,40,40,41,41,43,43,44,44,45,45,46,46,47,47,48,48,49,49,50,50,51,51,52,52,53,53,54,54,55,55,56,56,57,57,58,58,59,59,60,60,61,61,62,62],"right_children":[2,4,6,8,10,12,14,16,18,20,22,24,26,28,30,32,34,36,38,40,42,44,46,48,50,52,54,56,58,60,62,64,66,68,70,72,74,76,-1,78,80,82,-1,84,86,88,90,92,94,96,98,100,102,104,106,108,110,112,114,116,118,120,122,-1,-1,-1,-1,-1,-1,-1,-1,-1,-1,-1,-1,-1,-1,-1,-1,-1,-1,-1,-1,-1,-1,-1,-1,-1,-1,-1,-1,-1,-1,-1,-1,-1,-1,-1,-1,-1,-1,-1,-1,-1,-1,-1,-1,-1,-1,-1,-1,-1,-1,-1,-1,-1,-1,-1,-1,-1,-1,-1,-1],"split_conditions":[-5.5E1,2.98E2,1.53E2,1E0,3.99E2,6.3E3,2.72E2,-1.16E2,1.15E3,1E0,1.36E4,-3E3,4.5E1,1.4E3,4E0,7.1E3,1.31E2,1.07732E3,1E0,1E0,3E0,7E2,4.01E2,1E0,7.2E1,6.0353217E2,-1.1557351E3,-2.8016912E3,7.15E3,4E0,-3.52E2,3E0,3.83E2,2E0,2.64E2,1.03E4,5E1,1.59E2,1.0051965E-1,4.58E2,1.1E1,1E0,1.2002461E-2,-9E3,9.5E1,-1.55E2,5.8E1,3.4151324E2,-2.165859E3,1E0,5.2E1,1E1,1.3464774E3,3.135E4,5E0,-2.3836885E3,2.7258843E3,1.84E2,1.3E1,2.25E2,7.8E1,4.7E1,4.6E1,-7.190076E-2,5.5382043E-2,-6.683996E-2,-3.2055717E-2,-5.4051638E-2,8.4427856E-2,-5.212974E-2,-2.4951788E-2,-7.350962E-2,-3.338401E-2,-2.5367746E-2,-7.9032E-2,6.641134E-2,-6.850312E-2,-3.6784094E-2,-5.927686E-2,-5.329677E-2,8.462875E-2,-7.988816E-2,-1.1219693E-2,-8.752697E-2,1.198897E-2,-2.0841995E-2,-6.1882447E-2,9.366895E-2,-2.889852E-2,4.3741908E-2,-2.8157036E-3,-5.4080524E-3,-3.1860165E-2,1.5884513E-2,-7.0515394E-2,2.865913E-3,-3.7093755E-2,3.9850917E-2,9.166404E-3,4.3991886E-2,1.8747719E-2,-1.0346024E-2,1.8140545E-2,5.7299823E-2,-4.0160655E-3,5.8401097E-2,3.3935618E-2,-4.7723476E-2,-9.965037E-2,4.642907E-2,-1.9188795E-2,7.5456195E-2,6.2335085E-2,3.6585044E-2,6.914737E-2,5.9198048E-2,-7.547575E-2,-5.1464375E-2,5.6287616E-2,2.8531933E-2,-4.2080883E-2,6.2318392E-2,1.50535E-2],"split_indices":[95,50,95,2,49,97,6,95,97,2,54,97,95,97,26,54,6,100,36,384,86,7,49,2,95,72,116,193,10,147,204,303,49,48,49,55,8,6,0,6,0,246,0,97,131,95,197,216,116,2,119,0,172,54,0,215,172,6,207,95,131,153,120,0,0,0,0,0,0,0,0,0,0,0,0,0,0,0,0,0,0,0,0,0,0,0,0,0,0,0,0,0,0,0,0,0,0,0,0,0,0,0,0,0,0,0,0,0,0,0,0,0,0,0,0,0,0,0,0,0,0,0,0],"split_type":[0,0,0,0,0,0,0,0,0,0,0,0,0,0,0,0,0,0,0,0,0,0,0,0,0,0,0,0,0,0,0,0,0,0,0,0,0,0,0,0,0,0,0,0,0,0,0,0,0,0,0,0,0,0,0,0,0,0,0,0,0,0,0,0,0,0,0,0,0,0,0,0,0,0,0,0,0,0,0,0,0,0,0,0,0,0,0,0,0,0,0,0,0,0,0,0,0,0,0,0,0,0,0,0,0,0,0,0,0,0,0,0,0,0,0,0,0,0,0,0,0,0,0],"sum_hessian":[2.2437564E5,5.9774805E4,1.6460083E5,4.2806266E4,1.6968537E4,1.25555375E5,3.9045457E4,2.3649564E4,1.9156703E4,6.499822E3,1.0468715E4,9.033741E4,3.521797E4,3.334321E4,5.702246E3,1.7807498E4,5.842065E3,1.8875117E4,2.815853E2,5.1779087E3,1.3219131E3,4.4528237E3,6.015891E3,1.7838408E4,7.2499E4,1.6654842E4,1.8563129E4,1.2226554E3,3.2120555E4,3.5656912E3,2.136555E3,1.1560612E4,6.2468867E3,1.5169298E2,5.6903716E3,4.999805E3,1.3875312E4,2.577394E2,2.3845882E1,5.0816045E3,9.630378E1,1.3162007E3,5.712392E0,8.028708E2,3.649953E3,3.304819E3,2.711072E3,1.6142665E4,1.6957439E3,5.39383E4,1.85607E4,9.247974E3,7.406867E3,3.7740876E3,1.4789041E4,3.477105E1,1.1878843E3,2.3692395E4,8.428159E3,3.350038E3,2.1565314E2,8.3327057E2,1.3032844E3,1.1515581E4,4.5031303E1,4.386181E3,1.8607053E3,5.4417076E1,9.7275894E1,3.7452812E3,1.9450906E3,4.782367E3,2.1743822E2,2.0868406E1,1.3854443E4,1.7244434E1,2.4049498E2,2.2461414E3,2.8354634E3,2.7400011E1,6.890377E1,1.3071621E3,9.03852E0,1.1186927E2,6.910015E2,8.567383E2,2.7932146E3,5.518834E1,3.2496306E3,5.786727E2,2.1323994E3,7.779373E3,8.363292E3,4.1798515E1,1.6539453E3,4.822868E4,5.709619E3,6.7790977E3,1.1781603E4,3.103784E3,6.14419E3,3.4134978E3,3.9933696E3,3.6130186E3,1.6106921E2,1.6022974E3,1.3186744E4,6.145314E0,2.8625736E1,1.0848131E3,1.0307119E2,2.2083287E4,1.6091082E3,1.1528977E3,7.275261E3,3.3194102E3,3.0627863E1,1.0683144E2,1.08821686E2,3.419284E2,4.9134213E2,5.519976E2,7.5128674E2],"tree_param":{"num_deleted":"0","num_feature":"397","num_nodes":"123","size_leaf_vector":"1"}},{"base_weights":[1.0036894E-3,-1.1938154E0,3.547674E-1,-1.3730794E0,-7.389681E-1,3.5589416E-2,1.0213467E0,-1.5035651E0,-1.223997E0,-1.0881265E0,-4.4217202E-1,-4.200765E-1,2.5585914E-1,7.3492736E-1,1.38822E0,-1.5205498E0,-1.2512581E0,-1.0556313E0,-1.4296173E0,-6.590317E-1,-1.2320708E0,6.682895E-1,-5.3729975E-1,-3.9807934E-2,-8.375582E-1,1.2034864E0,9.2582434E-2,1.0072482E0,5.831751E-1,1.4464461E0,1.0741994E0,6.9797724E-2,-1.521545E0,1.9723501E0,-1.335849E0,-1.1722914E0,-7.6305497E-1,-1.4495951E0,-8.563621E-1,-3.278977E-1,-1.2200465E0,6.6927534E-1,-1.2591176E0,1.0745581E0,-5.6273486E-2,1.1420579E-1,-6.324548E-1,1.465137E-1,-5.938752E-1,-1.328631E0,-6.131013E-1,-4.8250366E-2,1.2573119E0,-4.0555E-1,1.3140614E-1,4.6379158E-1,1.0833069E0,-5.2244735E-1,6.3276446E-1,1.285991E0,1.4953153E0,-3.257349E-1,1.1379538E0,-7.611856E-2,3.524584E-2,2.8270273E-2,1.09429576E-1,5.5947002E-2,-7.175363E-2,-6.1294913E-2,-2.4612753E-2,-4.168627E-2,6.336346E-2,-3.745615E-2,-7.313592E-2,-5.6167718E-2,1.01374745E-1,7.141914E-3,-4.478332E-2,-9.4362935E-3,-7.831942E-2,6.285969E-2,-7.297458E-2,8.819132E-2,-6.3574314E-2,-8.125652E-2,5.9246074E-2,-3.7312154E-2,6.5784946E-2,-4.6771687E-2,2.6260717E-2,-3.593686E-2,-1.3366148E-3,2.5522718E-3,3.0613173E-2,-2.3555182E-2,-7.872706E-2,-6.741325E-2,4.1120376E-2,3.1107932E-2,-3.2947984E-2,2.3775717E-2,-5.4839354E-2,7.3231004E-2,5.194061E-2,-7.203178E-3,-3.783613E-2,3.901345E-3,2.4112215E-2,4.4379946E-2,-3.7945658E-3,5.0091017E-2,7.310272E-2,2.5359122E-2,-4.1985698E-2,4.8493218E-2,2.7047662E-2,6.777286E-2,3.0967135E-2,7.5237446E-2,5.5170942E-2,2.4519844E-2,-1.0438996E-1,-3.0996373E-2,5.852079E-2],"categories":[],"categories_nodes":[],"categories_segments":[],"categories_sizes":[],"default_left":[0,0,0,0,0,0,0,0,0,0,0,0,0,0,0,0,0,0,0,0,0,0,0,0,0,0,0,0,0,0,0,0,0,0,0,0,0,0,0,0,0,0,0,0,0,0,0,0,0,0,0,0,0,0,0,0,0,0,0,0,0,0,0,0,0,0,0,0,0,0,0,0,0,0,0,0,0,0,0,0,0,0,0,0,0,0,0,0,0,0,0,0,0,0,0,0,0,0,0,0,0,0,0,0,0,0,0,0,0,0,0,0,0,0,0,0,0,0,0,0,0,0,0,0,0],"id":7,"left_children":[1,3,5,7,9,11,13,15,17,19,21,23,25,27,29,31,33,35,37,39,41,43,45,47,49,51,53,55,57,59,61,-1,63,65,67,69,71,73,75,77,79,81,83,85,87,89,91,93,95,97,99,101,103,105,107,109,111,113,115,117,119,121,123,-1,-1,-1,-1,-1,-1,-1,-1,-1,-1,-1,-1,-1,-1,-1,-1,-1,-1,-1,-1,-1,-1,-1,-1,-1,-1,-1,-1,-1,-1,-1,-1,-1,-1,-1,-1,-1,-1,-1,-1,-1,-1,-1,-1,-1,-1,-1,-1,-1,-1,-1,-1,-1,-1,-1,-1,-1,-1,-1,-1,-1,-1],"loss_changes":[9.408605E4,4.1441484E3,3.65394E4,7.058125E2,1.4891802E3,1.1656724E4,5.8412656E3,7.95E1,5.866797E2,4.0637744E2,8.2214075E2,6.008256E3,1.2113484E4,1.2895195E3,4.426172E2,5.7097656E1,3.427035E2,3.1812695E2,8.5274414E1,3.0824762E2,2.559331E2,1.8099805E2,4.442412E2,2.0450531E3,1.9868691E3,7.7539844E2,1.291719E3,4.6085352E2,1.1005415E3,1.5736328E2,3.4176416E2,0E0,3.5621094E1,7.3973694E0,2.972002E2,2.4294043E2,3.8631262E2,6.5850586E1,2.0701108E2,2.8058447E2,2.1969897E2,9.208946E1,1.8677441E2,1.2118439E2,2.1273312E2,3.9556015E2,3.2665356E2,6.591161E2,5.9872E2,2.4114941E2,7.023911E2,2.6263654E2,4.9669727E2,4.4325006E2,1.1602671E3,3.146958E2,2.9953613E2,2.825178E2,5.9320215E2,2.2125537E2,5.489453E1,2.4362018E2,2.100166E2,0E0,0E0,0E0,0E0,0E0,0E0,0E0,0E0,0E0,0E0,0E0,0E0,0E0,0E0,0E0,0E0,0E0,0E0,0E0,0E0,0E0,0E0,0E0,0E0,0E0,0E0,0E0,0E0,0E0,0E0,0E0,0E0,0E0,0E0,0E0,0E0,0E0,0E0,0E0,0E0,0E0,0E0,0E0,0E0,0E0,0E0,0E0,0E0,0E0,0E0,0E0,0E0,0E0,0E0,0E0,0E0,0E0,0E0,0E0,0E0,0E0,0E0],"parents":[2147483647,0,0,1,1,2,2,3,3,4,4,5,5,6,6,7,7,8,8,9,9,10,10,11,11,12,12,13,13,14,14,15,15,16,16,17,17,18,18,19,19,20,20,21,21,22,22,23,23,24,24,25,25,26,26,27,27,28,28,29,29,30,30,32,32,33,33,34,34,35,35,36,36,37,37,38,38,39,39,40,40,41,41,42,42,43,43,44,44,45,45,46,46,47,47,48,48,49,49,50,50,51,51,52,52,53,53,54,54,55,55,56,56,57,57,58,58,59,59,60,60,61,61,62,62],"right_children":[2,4,6,8,10,12,14,16,18,20,22,24,26,28,30,32,34,36,38,40,42,44,46,48,50,52,54,56,58,60,62,-1,64,66,68,70,72,74,76,78,80,82,84,86,88,90,92,94,96,98,100,102,104,106,108,110,112,114,116,118,120,122,124,-1,-1,-1,-1,-1,-1,-1,-1,-1,-1,-1,-1,-1,-1,-1,-1,-1,-1,-1,-1,-1,-1,-1,-1,-1,-1,-1,-1,-1,-1,-1,-1,-1,-1,-1,-1,-1,-1,-1,-1,-1,-1,-1,-1,-1,-1,-1,-1,-1,-1,-1,-1,-1,-1,-1,-1,-1,-1,-1,-1,-1,-1],"split_conditions":[0E0,1.515E4,1E0,-1E0,3.26E2,1.735E4,2E0,1.335E4,1E0,3.17E2,1.24E4,1.635E4,1.01E4,8.9E3,3E0,5.2E1,8.5E2,-3.6E1,9.95E3,1E0,7.35E3,1E2,1.855E4,1E0,7.1E3,3.91E2,8E1,3.6E1,9.3E3,1.65E2,9E0,6.9797724E-2,8.8E1,4.455592E2,1.135E4,1.975E4,2.03E4,6.2E1,6E0,1E0,9.262524E2,3E0,1E2,-1.8572521E3,4.85E2,9.3E1,2.4E4,5.2E1,1.8654595E3,1E0,3.5E2,4.9004712E2,3.3E3,1E0,3.6E1,2.5E3,5E0,-1.4677693E3,-9.47753E2,1E0,2.3471394E3,4E2,1E2,-7.611856E-2,3.524584E-2,2.8270273E-2,1.09429576E-1,5.5947002E-2,-7.175363E-2,-6.1294913E-2,-2.4612753E-2,-4.168627E-2,6.336346E-2,-3.745615E-2,-7.313592E-2,-5.6167718E-2,1.01374745E-1,7.141914E-3,-4.478332E-2,-9.4362935E-3,-7.831942E-2,6.285969E-2,-7.297458E-2,8.819132E-2,-6.3574314E-2,-8.125652E-2,5.9246074E-2,-3.7312154E-2,6.5784946E-2,-4.6771687E-2,2.6260717E-2,-3.593686E-2,-1.3366148E-3,2.5522718E-3,3.0613173E-2,-2.3555182E-2,-7.872706E-2,-6.741325E-2,4.1120376E-2,3.1107932E-2,-3.2947984E-2,2.3775717E-2,-5.4839354E-2,7.3231004E-2,5.194061E-2,-7.203178E-3,-3.783613E-2,3.901345E-3,2.4112215E-2,4.4379946E-2,-3.7945658E-3,5.0091017E-2,7.310272E-2,2.5359122E-2,-4.1985698E-2,4.8493218E-2,2.7047662E-2,6.777286E-2,3.0967135E-2,7.5237446E-2,5.5170942E-2,2.4519844E-2,-1.0438996E-1,-3.0996373E-2,5.852079E-2],"split_indices":[93,54,93,93,49,54,93,54,2,5,10,10,10,10,12,5,7,94,55,2,10,109,54,2,54,50,174,94,54,94,208,0,94,27,10,8,9,5,147,165,100,57,8,171,5,109,51,94,99,198,8,159,9,188,94,9,56,204,149,161,171,50,8,0,0,0,0,0,0,0,0,0,0,0,0,0,0,0,0,0,0,0,0,0,0,0,0,0,0,0,0,0,0,0,0,0,0,0,0,0,0,0,0,0,0,0,0,0,0,0,0,0,0,0,0,0,0,0,0,0,0,0,0,0,0],"split_type":[0,0,0,0,0,0,0,0,0,0,0,0,0,0,0,0,0,0,0,0,0,0,0,0,0,0,0,0,0,0,0,0,0,0,0,0,0,0,0,0,0,0,0,0,0,0,0,0,0,0,0,0,0,0,0,0,0,0,0,0,0,0,0,0,0,0,0,0,0,0,0,0,0,0,0,0,0,0,0,0,0,0,0,0,0,0,0,0,0,0,0,0,0,0,0,0,0,0,0,0,0,0,0,0,0,0,0,0,0,0,0,0,0,0,0,0,0,0,0,0,0,0,0,0,0],"sum_hessian":[2.2258814E5,5.0847734E4,1.717404E5,3.647012E4,1.4377614E4,1.1613407E5,5.5606336E4,1.9438367E4,1.7031752E4,6.6036177E3,7.773997E3,3.784446E4,7.828961E4,3.1230537E4,2.4375797E4,1.8202934E4,1.2354349E3,9.370932E3,7.6608203E3,1.6615946E3,4.942023E3,6.124608E2,7.161536E3,1.9806055E4,1.8038406E4,1.1504855E4,6.678475E4,1.1171644E4,2.0058893E4,2.0556896E4,3.8189006E3,5.2537017E0,1.819768E4,3.044893E1,1.204986E3,6.6952837E3,2.6756484E3,7.3998794E3,2.609409E2,1.0468624E3,6.147322E2,6.864867E1,4.8733745E3,3.9180585E2,2.2065498E2,9.1262146E2,6.2489146E3,1.4822888E4,4.983167E3,5.655442E3,1.2382965E4,4.7432904E2,1.1030526E4,4.8273936E3,6.195736E4,1.3733015E3,9.798342E3,8.602417E2,1.9198652E4,4.8119995E3,1.5744896E4,1.6598303E2,3.6529177E3,1.8191562E4,6.1173816E0,5.019519E0,2.5429413E1,4.601521E1,1.1589707E3,6.204575E3,4.9070807E2,2.5867876E3,8.886082E1,1.3822261E2,7.2616567E3,2.3994713E2,2.0993761E1,5.731564E2,4.7370602E2,1.5531935E2,4.5941284E2,5.4434036E1,1.4214631E1,1.8704533E1,4.85467E3,1.4309861E1,3.77496E2,1.4742607E2,7.322891E1,2.5608246E2,6.5653894E2,5.4694453E3,7.794695E2,1.2303223E4,2.519666E3,4.4313574E3,5.518099E2,5.605028E3,5.0414173E1,4.4235547E2,1.1940609E4,3.1704956E2,1.572795E2,5.654371E3,5.376155E3,2.7686506E3,2.0587427E3,5.3777652E4,8.1797065E3,7.685097E2,6.047919E2,8.0695E3,1.7288423E3,2.023512E2,6.578905E2,4.105502E3,1.5093149E4,4.356026E3,4.5597363E2,1.5369256E4,3.7564127E2,1.1442734E2,5.15557E1,6.557724E1,3.5873403E3],"tree_param":{"num_deleted":"0","num_feature":"397","num_nodes":"125","size_leaf_vector":"1"}},{"base_weights":[-1.3289084E-3,-8.051884E-1,5.25401E-1,-1.2259436E0,-3.5373992E-1,2.0891476E-1,1.0307595E0,-1.3283683E0,-7.327729E-1,-9.458825E-1,-1.12618394E-1,1.5941886E-2,9.5648104E-1,7.563371E-1,1.3573269E0,-1.4630328E0,-1.1783928E0,-7.6833194E-1,9.571111E-1,-1.2539787E0,-6.490811E-1,-1.7198654E-1,4.4696894E-1,-6.896774E-1,6.560342E-2,1.3485036E0,6.409023E-1,1.1569964E0,6.6399264E-1,1.3962497E0,8.994111E-1,6.2875435E-2,-1.4639528E0,-1.0710427E0,-1.4189864E0,-9.886466E-1,-4.825473E-1,1.688685E0,-9.8442435E-1,-1.2761418E0,9.8417354E-1,9.7759813E-1,-7.061565E-1,-2.944081E-1,7.416094E-2,-1.60709E-1,7.6528174E-1,-9.166344E-1,-1.3604799E-1,-2.2557056E-1,1.1776607E-1,-1.5096681E-1,1.3711176E0,-6.324799E-2,7.0909446E-1,8.270312E-1,1.3559783E0,7.309065E-1,3.6885196E-1,1.3228865E0,1.4965637E0,1.0042546E0,-3.669195E-1,-7.349052E-2,-5.0409295E-2,-6.0896963E-2,-4.195015E-2,-7.281089E-2,-3.948399E-2,7.0256166E-2,-5.196588E-2,-6.7433114E-3,-4.4152696E-2,-6.564357E-2,1.0043094E-1,-6.698442E-2,5.5415213E-2,-3.3694994E-2,-6.748762E-2,-7.4241154E-2,9.963989E-2,-6.034539E-2,7.6479726E-2,-3.9615784E-2,4.039516E-3,3.5627924E-2,-1.615825E-2,-2.250336E-2,1.1049604E-2,3.948869E-2,-3.4625836E-2,4.8264284E-2,-5.946151E-4,6.1061222E-2,-4.7426116E-2,5.9224218E-2,-1.6815323E-2,4.03357E-2,-1.4601842E-2,1.5175806E-2,2.299798E-3,5.5654384E-2,-5.8036525E-2,4.0168986E-2,6.9891326E-2,-6.863963E-2,1.7052721E-2,2.535207E-2,4.6617243E-2,4.262901E-2,-1.1270348E-1,6.811393E-2,-7.068197E-2,3.8252015E-2,1.2021302E-2,3.1049005E-3,3.0392975E-2,6.6651486E-2,8.528585E-3,7.494008E-2,5.3474784E-2,2.8194338E-2,6.849674E-2,7.801052E-2,-6.4059965E-2],"categories":[],"categories_nodes":[],"categories_segments":[],"categories_sizes":[],"default_left":[0,0,0,0,0,0,0,0,0,0,0,0,0,0,0,0,0,0,0,0,0,0,0,0,0,0,0,0,0,0,0,0,0,0,0,0,0,0,0,0,0,0,0,0,0,0,0,0,0,0,0,0,0,0,0,0,0,0,0,0,0,0,0,0,0,0,0,0,0,0,0,0,0,0,0,0,0,0,0,0,0,0,0,0,0,0,0,0,0,0,0,0,0,0,0,0,0,0,0,0,0,0,0,0,0,0,0,0,0,0,0,0,0,0,0,0,0,0,0,0,0,0,0,0,0],"id":8,"left_children":[1,3,5,7,9,11,13,15,17,19,21,23,25,27,29,31,33,35,37,39,41,43,45,47,49,51,53,55,57,59,61,-1,63,65,67,69,71,73,75,77,79,81,83,85,87,89,91,93,95,97,99,101,103,105,107,109,111,113,115,117,119,121,123,-1,-1,-1,-1,-1,-1,-1,-1,-1,-1,-1,-1,-1,-1,-1,-1,-1,-1,-1,-1,-1,-1,-1,-1,-1,-1,-1,-1,-1,-1,-1,-1,-1,-1,-1,-1,-1,-1,-1,-1,-1,-1,-1,-1,-1,-1,-1,-1,-1,-1,-1,-1,-1,-1,-1,-1,-1,-1,-1,-1,-1,-1],"loss_changes":[9.348076E4,1.660018E4,2.1332203E4,2.283039E3,6.0198457E3,1.1831996E4,4.6009727E3,7.529844E2,4.691953E2,1.1140381E3,9.9564233E2,2.2845854E3,2.080128E3,1.0312559E3,4.1546094E2,5.305078E1,4.5488477E2,4.790952E2,2.324332E2,2.9935547E2,5.7871387E2,8.1643787E2,5.563045E2,5.383815E2,9.251491E2,2.5483984E2,4.479397E2,3.4087695E2,4.4757227E2,1.5507422E2,2.45396E2,0E0,4.96875E1,4.1611914E2,1.2572168E2,5.2490186E2,4.624751E2,1.184866E2,3.6729263E1,2.609082E2,1.5485287E2,2.5888E2,4.0753687E2,5.2440955E2,6.929882E2,5.0143375E2,2.933125E2,2.0956152E2,3.310209E2,6.35432E2,6.8860956E2,1.4717177E2,1.0984375E2,4.3790527E2,3.8263184E2,1.5900208E2,6.0682617E1,3.0927246E2,3.0767822E2,1.4563867E2,5.5058594E0,2.7260022E2,2.5484164E2,0E0,0E0,0E0,0E0,0E0,0E0,0E0,0E0,0E0,0E0,0E0,0E0,0E0,0E0,0E0,0E0,0E0,0E0,0E0,0E0,0E0,0E0,0E0,0E0,0E0,0E0,0E0,0E0,0E0,0E0,0E0,0E0,0E0,0E0,0E0,0E0,0E0,0E0,0E0,0E0,0E0,0E0,0E0,0E0,0E0,0E0,0E0,0E0,0E0,0E0,0E0,0E0,0E0,0E0,0E0,0E0,0E0,0E0,0E0,0E0,0E0,0E0],"parents":[2147483647,0,0,1,1,2,2,3,3,4,4,5,5,6,6,7,7,8,8,9,9,10,10,11,11,12,12,13,13,14,14,15,15,16,16,17,17,18,18,19,19,20,20,21,21,22,22,23,23,24,24,25,25,26,26,27,27,28,28,29,29,30,30,32,32,33,33,34,34,35,35,36,36,37,37,38,38,39,39,40,40,41,41,42,42,43,43,44,44,45,45,46,46,47,47,48,48,49,49,50,50,51,51,52,52,53,53,54,54,55,55,56,56,57,57,58,58,59,59,60,60,61,61,62,62],"right_children":[2,4,6,8,10,12,14,16,18,20,22,24,26,28,30,32,34,36,38,40,42,44,46,48,50,52,54,56,58,60,62,-1,64,66,68,70,72,74,76,78,80,82,84,86,88,90,92,94,96,98,100,102,104,106,108,110,112,114,116,118,120,122,124,-1,-1,-1,-1,-1,-1,-1,-1,-1,-1,-1,-1,-1,-1,-1,-1,-1,-1,-1,-1,-1,-1,-1,-1,-1,-1,-1,-1,-1,-1,-1,-1,-1,-1,-1,-1,-1,-1,-1,-1,-1,-1,-1,-1,-1,-1,-1,-1,-1,-1,-1,-1,-1,-1,-1,-1,-1,-1,-1,-1,-1,-1],"split_conditions":[-1.5E2,0E0,1E0,1.715E4,-1.055E4,1.22E4,2E0,-1E0,1E0,7.1E3,1E0,0E0,1E0,9.6E1,3E2,5.2E1,1.4481396E3,3.94E2,8.2E1,1E0,3.6E1,1.65E4,-4.7E3,3.99E2,8.1E1,1E0,6.2E3,4.95E3,1.0784464E3,3E0,4E0,6.2875435E-2,3E0,9.6E3,2.61E4,2.41E2,1E0,2.61E2,2E0,7E1,6E0,9.9E1,2.01E4,-2.1159963E3,8.1E3,-2.7E3,1E0,1E2,1.24E4,4.2E1,-9.0381537E2,1E0,8.4E1,4.86E2,1E0,1.065E4,1E0,4E0,1E0,1.2E1,1E0,1.295E4,9.15E3,-7.349052E-2,-5.0409295E-2,-6.0896963E-2,-4.195015E-2,-7.281089E-2,-3.948399E-2,7.0256166E-2,-5.196588E-2,-6.7433114E-3,-4.4152696E-2,-6.564357E-2,1.0043094E-1,-6.698442E-2,5.5415213E-2,-3.3694994E-2,-6.748762E-2,-7.4241154E-2,9.963989E-2,-6.034539E-2,7.6479726E-2,-3.9615784E-2,4.039516E-3,3.5627924E-2,-1.615825E-2,-2.250336E-2,1.1049604E-2,3.948869E-2,-3.4625836E-2,4.8264284E-2,-5.946151E-4,6.1061222E-2,-4.7426116E-2,5.9224218E-2,-1.6815323E-2,4.03357E-2,-1.4601842E-2,1.5175806E-2,2.299798E-3,5.5654384E-2,-5.8036525E-2,4.0168986E-2,6.9891326E-2,-6.863963E-2,1.7052721E-2,2.535207E-2,4.6617243E-2,4.262901E-2,-1.1270348E-1,6.811393E-2,-7.068197E-2,3.8252015E-2,1.2021302E-2,3.1049005E-3,3.0392975E-2,6.6651486E-2,8.528585E-3,7.494008E-2,5.3474784E-2,2.8194338E-2,6.849674E-2,7.801052E-2,-6.4059965E-2],"split_indices":[97,93,93,54,97,97,93,93,384,54,93,93,12,6,5,5,100,49,185,198,131,53,97,49,174,140,55,97,71,93,147,0,295,54,10,5,176,49,181,109,175,185,9,171,9,96,187,8,10,5,149,210,186,50,143,96,324,158,187,114,324,97,97,0,0,0,0,0,0,0,0,0,0,0,0,0,0,0,0,0,0,0,0,0,0,0,0,0,0,0,0,0,0,0,0,0,0,0,0,0,0,0,0,0,0,0,0,0,0,0,0,0,0,0,0,0,0,0,0,0,0,0,0,0,0],"split_type":[0,0,0,0,0,0,0,0,0,0,0,0,0,0,0,0,0,0,0,0,0,0,0,0,0,0,0,0,0,0,0,0,0,0,0,0,0,0,0,0,0,0,0,0,0,0,0,0,0,0,0,0,0,0,0,0,0,0,0,0,0,0,0,0,0,0,0,0,0,0,0,0,0,0,0,0,0,0,0,0,0,0,0,0,0,0,0,0,0,0,0,0,0,0,0,0,0,0,0,0,0,0,0,0,0,0,0,0,0,0,0,0,0,0,0,0,0,0,0,0,0,0,0,0,0],"sum_hessian":[2.2077312E5,8.739529E4,1.3337783E5,4.523362E4,4.216167E4,8.2016766E4,5.1361066E4,3.7451973E4,7.781649E3,1.2198625E4,2.9963047E4,6.5190793E4,1.682597E4,2.7912316E4,2.3448752E4,1.9724041E4,1.7727932E4,7.6223477E3,1.5930116E2,5.9822593E3,6.2163657E3,2.7090344E4,2.872703E3,4.284757E3,6.0906035E4,7.501191E3,9.324779E3,5.2239316E3,2.2688385E4,2.1607975E4,1.8407764E3,5.744364E0,1.9718297E4,1.2265921E4,5.4620103E3,4.301417E3,3.3209304E3,1.1589295E2,4.3408207E1,5.924453E3,5.7806263E1,2.0962682E2,6.0067393E3,1.8091924E4,8.99842E3,9.878428E2,1.88486E3,3.038026E3,1.2467311E3,9.252358E3,5.165368E4,1.1127812E2,7.3899126E3,8.233229E2,8.501456E3,1.9690437E3,3.2548877E3,1.8492781E4,4.195604E3,1.2496909E4,9.111066E3,1.7004081E3,1.4036826E2,1.9463695E4,2.5460103E2,7.5057695E3,4.760151E3,5.1544336E3,3.07577E2,8.805614E1,4.213361E3,1.7791328E3,1.5417976E3,1.0565192E1,1.0532776E2,3.772384E1,5.68437E0,6.474756E2,5.2769775E3,1.649185E1,4.131441E1,4.180644E1,1.6782039E2,5.413974E3,5.9276483E2,5.010017E2,1.7590922E4,1.9679957E3,7.030424E3,3.540645E2,6.3377826E2,1.4986913E3,3.861687E2,4.3552467E1,2.9944734E3,1.628758E2,1.0838553E3,5.5835156E2,8.694007E3,1.4393928E4,3.725975E4,4.932583E1,6.1952297E1,3.3482858E2,7.055084E3,1.9309451E2,6.302284E2,4.4660205E3,4.035436E3,1.954285E3,1.4758673E1,3.2485144E3,6.3734097E0,1.7288508E4,1.2042717E3,1.8385012E3,2.3571028E3,1.2387554E4,1.09354965E2,9.058579E3,5.2487255E1,7.7373145E2,9.266767E2,4.471161E1,9.565664E1],"tree_param":{"num_deleted":"0","num_feature":"397","num_nodes":"125","size_leaf_vector":"1"}},{"base_weights":[-1.0082573E-3,-1.0576932E0,3.7303832E-1,-1.2297523E0,-6.370871E-1,1.2725389E-1,1.2026303E0,-1.2592695E0,-1.02988884E-1,-9.661279E-1,-4.3527505E-1,-2.1196097E-2,6.807359E-1,1.2911805E0,7.0395106E-1,-1.4174619E0,-1.1213354E0,-5.592872E-1,8.5956365E-1,-8.42541E-1,-1.4686352E0,-8.6725914E-1,-2.4296382E-1,4.9153276E-2,-8.2509047E-1,9.692983E-1,5.7617265E-1,6.3578296E-1,1.3168263E0,9.707728E-1,2.6901186E-1,-1.4198841E0,1.011703E-1,-1.010361E0,-1.3484297E0,-6.724102E-2,-1.5230806E0,1.1354953E0,-1.5916268E0,-9.6010554E-1,-3.5037825E-1,-1.4771622E0,1.5140426E-2,4.061525E-1,-9.92192E-1,9.240161E-1,-2.9909799E-1,-3.8128194E-1,1.3609277E-1,-1.378104E0,-6.176724E-1,1.1503575E0,6.9808257E-1,6.2155676E-1,-1.8480232E-1,-1.8100507E0,7.0890886E-1,1.2590922E0,1.4589702E0,-9.4126415E-1,1.0048033E0,-2.790233E-1,6.08168E-1,-3.7703402E-2,-7.151618E-2,-6.0813315E-2,-3.788037E-2,-5.9462197E-2,-7.286488E-2,-5.14096E-2,2.1922369E-2,-7.987339E-2,4.0357817E-2,-9.414815E-2,6.439506E-2,-9.067733E-2,-1.0630294E-2,-4.944158E-2,4.7316227E-2,5.9635784E-2,-3.809423E-2,-7.4369565E-2,-5.5975927E-4,4.707093E-2,-4.8314296E-2,7.677787E-2,-5.2459788E-2,6.614563E-2,-8.135029E-2,-4.3718987E-3,-3.2606635E-2,-5.0221323E-3,-3.0688083E-2,3.987958E-3,3.1541247E-2,-6.967245E-2,9.212524E-2,-2.343003E-2,-7.6389715E-2,4.0142514E-2,6.404506E-2,6.969883E-2,2.627422E-2,4.3035243E-2,2.6389835E-2,9.5517276E-4,-1.0205954E-1,-4.297668E-2,-9.6593045E-2,2.458783E-2,7.0071965E-2,6.656077E-2,5.3002555E-2,7.300813E-2,2.0792644E-2,-9.5731705E-2,5.846129E-2,5.937097E-3,5.3720027E-2,3.789982E-2,-3.7687406E-2,5.7170767E-2,1.0964883E-2],"categories":[],"categories_nodes":[],"categories_segments":[],"categories_sizes":[],"default_left":[0,0,0,0,0,0,0,0,0,0,0,0,0,0,0,0,0,0,0,0,0,0,0,0,0,0,0,0,0,0,0,0,0,0,0,0,0,0,0,0,0,0,0,0,0,0,0,0,0,0,0,0,0,0,0,0,0,0,0,0,0,0,0,0,0,0,0,0,0,0,0,0,0,0,0,0,0,0,0,0,0,0,0,0,0,0,0,0,0,0,0,0,0,0,0,0,0,0,0,0,0,0,0,0,0,0,0,0,0,0,0,0,0,0,0,0,0,0,0,0,0,0,0],"id":9,"left_children":[1,3,5,7,9,11,13,15,17,19,21,23,25,27,29,31,33,35,37,39,41,43,45,47,49,51,53,55,57,59,61,63,-1,65,67,69,71,73,75,77,79,81,-1,83,85,87,89,91,93,95,97,99,101,103,105,107,109,111,113,115,117,119,121,-1,-1,-1,-1,-1,-1,-1,-1,-1,-1,-1,-1,-1,-1,-1,-1,-1,-1,-1,-1,-1,-1,-1,-1,-1,-1,-1,-1,-1,-1,-1,-1,-1,-1,-1,-1,-1,-1,-1,-1,-1,-1,-1,-1,-1,-1,-1,-1,-1,-1,-1,-1,-1,-1,-1,-1,-1,-1,-1,-1],"loss_changes":[8.656659E4,4.142246E3,3.298233E4,1.3511758E3,1.1032876E3,1.0253288E4,1.6307422E3,8.608203E2,4.5750735E2,3.899878E2,8.5607263E2,5.564945E3,7.951953E2,5.26E2,6.469656E2,1.5939844E2,5.305996E2,3.3478702E2,2.3024847E2,2.930735E2,1.9697021E1,5.0593872E2,4.6806122E2,3.3861724E3,9.0656055E2,3.4295508E2,6.6943115E2,2.1469382E2,2.4423438E2,2.268435E2,3.9514932E2,1.2590625E2,0E0,7.383965E2,1.16819336E2,2.2916583E2,4.394702E1,1.4393689E2,9.85923E0,2.262268E2,6.2539746E2,1.8547607E1,0E0,2.1125583E2,4.19938E2,3.38101E2,5.0880408E2,9.926284E2,2.0979673E3,1.1179297E2,7.8032715E2,1.8868408E2,3.365327E2,4.0912695E2,4.134777E2,7.3067474E-1,1.7202167E2,3.0579297E2,9.623047E0,1.3079163E2,2.092732E2,4.0157022E2,2.7273495E2,0E0,0E0,0E0,0E0,0E0,0E0,0E0,0E0,0E0,0E0,0E0,0E0,0E0,0E0,0E0,0E0,0E0,0E0,0E0,0E0,0E0,0E0,0E0,0E0,0E0,0E0,0E0,0E0,0E0,0E0,0E0,0E0,0E0,0E0,0E0,0E0,0E0,0E0,0E0,0E0,0E0,0E0,0E0,0E0,0E0,0E0,0E0,0E0,0E0,0E0,0E0,0E0,0E0,0E0,0E0,0E0,0E0,0E0,0E0,0E0],"parents":[2147483647,0,0,1,1,2,2,3,3,4,4,5,5,6,6,7,7,8,8,9,9,10,10,11,11,12,12,13,13,14,14,15,15,16,16,17,17,18,18,19,19,20,20,21,21,22,22,23,23,24,24,25,25,26,26,27,27,28,28,29,29,30,30,31,31,33,33,34,34,35,35,36,36,37,37,38,38,39,39,40,40,41,41,43,43,44,44,45,45,46,46,47,47,48,48,49,49,50,50,51,51,52,52,53,53,54,54,55,55,56,56,57,57,58,58,59,59,60,60,61,61,62,62],"right_children":[2,4,6,8,10,12,14,16,18,20,22,24,26,28,30,32,34,36,38,40,42,44,46,48,50,52,54,56,58,60,62,64,-1,66,68,70,72,74,76,78,80,82,-1,84,86,88,90,92,94,96,98,100,102,104,106,108,110,112,114,116,118,120,122,-1,-1,-1,-1,-1,-1,-1,-1,-1,-1,-1,-1,-1,-1,-1,-1,-1,-1,-1,-1,-1,-1,-1,-1,-1,-1,-1,-1,-1,-1,-1,-1,-1,-1,-1,-1,-1,-1,-1,-1,-1,-1,-1,-1,-1,-1,-1,-1,-1,-1,-1,-1,-1,-1,-1,-1,-1,-1,-1,-1],"split_conditions":[-5.5E1,2.98E2,1.53E2,1E0,3.99E2,1E0,2.72E2,-1E0,-5.5E3,1E0,1.09E4,1E0,1.49E2,1.4E3,4E0,9.45E3,1E0,6.058568E2,2E0,1.35E4,3E0,2E0,3.85E3,-2.9E3,0E0,1E0,1E0,-2.8016912E3,3E0,1E2,-3.9594226E2,8.5E2,1.011703E-1,6.4E3,1.118036E3,1E0,1E0,3.1E3,1E0,1E0,3E0,1E0,1.5140426E-2,3.0878268E2,3.75E2,1.9E1,8.493623E2,2.3891089E2,1.245E4,3.755E4,1.825172E3,1.68E2,3.1106324E0,-4.8570312E2,1.3996428E3,2.4602994E2,3.6E3,7.15E3,1.375E2,1E2,4.7E3,2E0,4.6E1,-3.7703402E-2,-7.151618E-2,-6.0813315E-2,-3.788037E-2,-5.9462197E-2,-7.286488E-2,-5.14096E-2,2.1922369E-2,-7.987339E-2,4.0357817E-2,-9.414815E-2,6.439506E-2,-9.067733E-2,-1.0630294E-2,-4.944158E-2,4.7316227E-2,5.9635784E-2,-3.809423E-2,-7.4369565E-2,-5.5975927E-4,4.707093E-2,-4.8314296E-2,7.677787E-2,-5.2459788E-2,6.614563E-2,-8.135029E-2,-4.3718987E-3,-3.2606635E-2,-5.0221323E-3,-3.0688083E-2,3.987958E-3,3.1541247E-2,-6.967245E-2,9.212524E-2,-2.343003E-2,-7.6389715E-2,4.0142514E-2,6.404506E-2,6.969883E-2,2.627422E-2,4.3035243E-2,2.6389835E-2,9.5517276E-4,-1.0205954E-1,-4.297668E-2,-9.6593045E-2,2.458783E-2,7.0071965E-2,6.656077E-2,5.3002555E-2,7.300813E-2,2.0792644E-2,-9.5731705E-2,5.846129E-2,5.937097E-3,5.3720027E-2,3.789982E-2,-3.7687406E-2,5.7170767E-2,1.0964883E-2],"split_indices":[95,50,95,93,49,93,6,93,97,2,54,2,5,97,26,97,2,204,43,51,86,0,53,97,93,2,2,193,93,8,204,7,0,54,99,140,198,10,88,91,56,246,0,127,6,0,194,216,97,8,99,49,65,216,148,29,9,10,1,196,9,153,120,0,0,0,0,0,0,0,0,0,0,0,0,0,0,0,0,0,0,0,0,0,0,0,0,0,0,0,0,0,0,0,0,0,0,0,0,0,0,0,0,0,0,0,0,0,0,0,0,0,0,0,0,0,0,0,0,0,0,0,0],"split_type":[0,0,0,0,0,0,0,0,0,0,0,0,0,0,0,0,0,0,0,0,0,0,0,0,0,0,0,0,0,0,0,0,0,0,0,0,0,0,0,0,0,0,0,0,0,0,0,0,0,0,0,0,0,0,0,0,0,0,0,0,0,0,0,0,0,0,0,0,0,0,0,0,0,0,0,0,0,0,0,0,0,0,0,0,0,0,0,0,0,0,0,0,0,0,0,0,0,0,0,0,0,0,0,0,0,0,0,0,0,0,0,0,0,0,0,0,0,0,0,0,0,0,0],"sum_hessian":[2.1901364E5,5.725737E4,1.6175627E5,4.063202E4,1.6625352E4,1.2478757E5,3.696869E4,3.959455E4,1.037468E3,6.31751E3,1.0307843E4,9.839805E4,2.638952E4,3.1391363E4,5.577328E3,1.843428E4,2.1160273E4,7.043898E2,3.3307828E2,5.0747715E3,1.2427384E3,3.1731199E3,7.1347227E3,9.0481805E4,7.9162495E3,7.0146626E3,1.9374857E4,1.1840382E3,3.0207324E4,3.4552036E3,2.1221243E3,1.8422486E4,1.1793502E1,1.4221526E4,6.9387466E3,4.6773578E2,2.3665396E2,3.0034213E2,3.273614E1,4.0947446E3,9.800268E2,1.2371156E3,5.6227417E0,2.8309506E2,2.8900247E3,3.2602512E2,6.8086978E3,1.5203396E4,7.527841E4,2.1561863E3,5.760063E3,4.202596E3,2.8120662E3,1.8284734E4,1.0901235E3,3.29938E1,1.1510444E3,2.1496055E4,8.71127E3,5.948815E1,3.3957156E3,8.113829E2,1.3107415E3,2.8665515E2,1.813583E4,7.8328687E3,6.388658E3,2.827803E3,4.1109434E3,1.6055995E2,3.071758E2,2.2994254E2,6.7114296E0,1.3344254E1,2.8699786E2,2.7655472E1,5.080669E0,4.0349092E3,5.9835304E1,2.0552786E2,7.7449896E2,1.2285142E3,8.601394E0,2.0411575E2,7.8979294E1,6.25922E1,2.8274326E3,2.8277173E2,4.325341E1,4.258208E3,2.5504897E3,6.8868423E3,8.316555E3,6.758503E4,7.6933735E3,2.1470908E3,9.095446E0,4.9519907E3,8.0807263E2,1.1515278E3,3.0510684E3,5.560381E2,2.256028E3,5.1450933E3,1.313964E4,9.840183E2,1.0610519E2,5.57821E0,2.741559E1,8.7887994E2,2.7216452E2,1.5770275E4,5.7257803E3,8.700524E3,1.074482E1,4.083871E1,1.8649443E1,2.4769218E2,3.1480234E3,2.5441934E2,5.569635E2,5.499293E2,7.6081213E2],"tree_param":{"num_deleted":"0","num_feature":"397","num_nodes":"123","size_leaf_vector":"1"}},{"base_weights":[7.83156E-4,-1.0874289E0,3.120965E-1,-1.2832491E0,-7.1231985E-1,3.2817934E-2,9.14554E-1,-1.4088265E0,-1.1403311E0,-9.7517604E-1,-4.2604005E-1,-3.6083803E-1,2.2249286E-1,6.452915E-1,1.2755828E0,6.600284E-2,-1.4100413E0,-1.0161083E0,-1.3243287E0,-1.1943726E-1,-1.0352347E0,1.0073245E0,-5.032346E-1,-2.3556715E-2,-7.383785E-1,1.0931256E0,7.9700865E-2,9.8851013E-1,5.2159745E-1,1.3174127E0,8.0796385E-1,-1.4113636E0,-5.1694646E-2,-1.1344683E0,-6.5872395E-1,-1.3641856E0,-7.687448E-1,3.2946515E-1,-1.053023E0,-1.3017616E0,-8.602809E-1,-8.801959E-1,1.3230091E0,6.9554275E-1,-5.536238E-1,3.2861616E-2,-7.2061443E-1,-1.2096232E0,-5.328961E-1,-1.5841909E-1,1.1456487E0,1.8995583E-1,-9.414095E-2,8.6507136E-1,1.353791E0,-4.9345544E-1,5.5015457E-1,1.2398446E0,1.4275383E0,-1.2565109E0,8.651105E-1,-7.070047E-2,-5.0228853E-2,-6.16602E-2,1.0879665E-1,-7.022321E-3,-5.7839926E-2,3.7609316E-2,-3.7025098E-2,-4.739824E-2,-6.9853686E-2,-6.101678E-2,5.6062263E-2,4.190446E-2,-5.1812995E-2,-6.570654E-2,4.054768E-2,-6.554216E-2,8.6055025E-2,-3.5830643E-2,-6.613224E-2,6.572281E-2,-9.162603E-2,7.1616225E-2,-7.502772E-2,-6.65359E-2,6.725803E-2,-2.1668008E-2,-4.493636E-2,-1.0340573E-2,7.622611E-3,-1.3301636E-2,-5.6912936E-2,-6.1507937E-2,5.985999E-2,3.611375E-2,-2.8908188E-2,2.1436889E-2,-5.340876E-2,6.773012E-2,4.6698846E-2,9.481722E-4,1.5452287E-2,-1.8541945E-2,3.7926708E-3,5.0778624E-2,3.0607063E-2,6.896186E-2,2.1007502E-2,4.1073628E-2,-3.928208E-2,3.7492234E-2,2.1408351E-2,6.540086E-2,5.31873E-2,7.143592E-2,7.6097734E-3,-9.4145544E-2,4.6278935E-2,4.529453E-2,-9.037151E-2],"categories":[],"categories_nodes":[],"categories_segments":[],"categories_sizes":[],"default_left":[0,0,0,0,0,0,0,0,0,0,0,0,0,0,0,0,0,0,0,0,0,0,0,0,0,0,0,0,0,0,0,0,0,0,0,0,0,0,0,0,0,0,0,0,0,0,0,0,0,0,0,0,0,0,0,0,0,0,0,0,0,0,0,0,0,0,0,0,0,0,0,0,0,0,0,0,0,0,0,0,0,0,0,0,0,0,0,0,0,0,0,0,0,0,0,0,0,0,0,0,0,0,0,0,0,0,0,0,0,0,0,0,0,0,0,0,0,0,0,0,0],"id":10,"left_children":[1,3,5,7,9,11,13,15,17,19,21,23,25,27,29,-1,31,33,35,37,39,41,43,45,47,49,51,53,55,57,59,61,63,65,67,69,71,73,75,77,79,81,83,85,87,89,91,93,95,97,99,101,103,105,107,109,111,113,115,117,119,-1,-1,-1,-1,-1,-1,-1,-1,-1,-1,-1,-1,-1,-1,-1,-1,-1,-1,-1,-1,-1,-1,-1,-1,-1,-1,-1,-1,-1,-1,-1,-1,-1,-1,-1,-1,-1,-1,-1,-1,-1,-1,-1,-1,-1,-1,-1,-1,-1,-1,-1,-1,-1,-1,-1,-1,-1,-1,-1,-1],"loss_changes":[7.345251E4,3.5408125E3,2.8365543E4,5.654453E2,1.2442969E3,8.601188E3,5.1892695E3,5.960547E1,3.3626953E2,4.4300977E2,8.777755E2,4.7695796E3,9.6641455E3,1.2976553E3,4.4404297E2,0E0,3.0125E1,3.7334668E2,1.301084E2,2.3868057E2,3.7353613E2,2.4401218E2,4.5503613E2,7.7813324E2,1.7100723E3,7.203672E2,1.2801311E3,3.6296387E2,6.5247754E2,1.7528516E2,2.2374194E2,1.52734375E1,5.3963562E1,1.4737402E2,2.560395E2,7.3572266E1,3.4773517E2,2.6917386E2,9.2105774E1,9.207666E1,3.2167236E2,1.2879245E2,1.1179999E2,4.0405176E2,2.9879443E2,5.24749E2,2.8067084E2,2.6810254E2,7.003071E2,2.3750497E2,4.624209E2,8.322053E2,1.2192833E3,2.294751E2,4.737207E1,2.381456E2,5.322544E2,1.4485156E2,1.2564453E1,7.374419E1,2.0257227E2,0E0,0E0,0E0,0E0,0E0,0E0,0E0,0E0,0E0,0E0,0E0,0E0,0E0,0E0,0E0,0E0,0E0,0E0,0E0,0E0,0E0,0E0,0E0,0E0,0E0,0E0,0E0,0E0,0E0,0E0,0E0,0E0,0E0,0E0,0E0,0E0,0E0,0E0,0E0,0E0,0E0,0E0,0E0,0E0,0E0,0E0,0E0,0E0,0E0,0E0,0E0,0E0,0E0,0E0,0E0,0E0,0E0,0E0,0E0,0E0],"parents":[2147483647,0,0,1,1,2,2,3,3,4,4,5,5,6,6,7,7,8,8,9,9,10,10,11,11,12,12,13,13,14,14,16,16,17,17,18,18,19,19,20,20,21,21,22,22,23,23,24,24,25,25,26,26,27,27,28,28,29,29,30,30,31,31,32,32,33,33,34,34,35,35,36,36,37,37,38,38,39,39,40,40,41,41,42,42,43,43,44,44,45,45,46,46,47,47,48,48,49,49,50,50,51,51,52,52,53,53,54,54,55,55,56,56,57,57,58,58,59,59,60,60],"right_children":[2,4,6,8,10,12,14,16,18,20,22,24,26,28,30,-1,32,34,36,38,40,42,44,46,48,50,52,54,56,58,60,62,64,66,68,70,72,74,76,78,80,82,84,86,88,90,92,94,96,98,100,102,104,106,108,110,112,114,116,118,120,-1,-1,-1,-1,-1,-1,-1,-1,-1,-1,-1,-1,-1,-1,-1,-1,-1,-1,-1,-1,-1,-1,-1,-1,-1,-1,-1,-1,-1,-1,-1,-1,-1,-1,-1,-1,-1,-1,-1,-1,-1,-1,-1,-1,-1,-1,-1,-1,-1,-1,-1,-1,-1,-1,-1,-1,-1,-1,-1,-1],"split_conditions":[0E0,1.335E4,1E0,-1E0,3.26E2,1.735E4,2E0,5.2E1,1.3813167E3,1.255E4,1.6E1,1.635E4,1.01E4,1.72E2,3E2,6.600284E-2,4E0,9.6E1,1.86E4,9.3E1,1E0,-1.4359459E3,3.34E2,2.193705E3,7.1E3,3.88E2,9.1756445E2,3E0,1.88E2,3E0,1E2,1E0,1.625E4,-2.3447366E3,-1.8965099E3,4.8E3,1.6705358E3,9.8E1,5.397442E-1,1.6E1,4.2E2,2.2E3,1.22E4,3.89E2,1.4937041E3,1E0,1.85E2,3E0,2E2,3.3685135E2,3.3E3,1.57E4,2.61E4,1E2,5E0,-8.6279724E2,-1.0443707E2,7.5E1,1E0,1E2,1.1E1,-7.070047E-2,-5.0228853E-2,-6.16602E-2,1.0879665E-1,-7.022321E-3,-5.7839926E-2,3.7609316E-2,-3.7025098E-2,-4.739824E-2,-6.9853686E-2,-6.101678E-2,5.6062263E-2,4.190446E-2,-5.1812995E-2,-6.570654E-2,4.054768E-2,-6.554216E-2,8.6055025E-2,-3.5830643E-2,-6.613224E-2,6.572281E-2,-9.162603E-2,7.1616225E-2,-7.502772E-2,-6.65359E-2,6.725803E-2,-2.1668008E-2,-4.493636E-2,-1.0340573E-2,7.622611E-3,-1.3301636E-2,-5.6912936E-2,-6.1507937E-2,5.985999E-2,3.611375E-2,-2.8908188E-2,2.1436889E-2,-5.340876E-2,6.773012E-2,4.6698846E-2,9.481722E-4,1.5452287E-2,-1.8541945E-2,3.7926708E-3,5.0778624E-2,3.0607063E-2,6.896186E-2,2.1007502E-2,4.1073628E-2,-3.928208E-2,3.7492234E-2,2.1408351E-2,6.540086E-2,5.31873E-2,7.143592E-2,7.6097734E-3,-9.4145544E-2,4.6278935E-2,4.529453E-2,-9.037151E-2],"split_indices":[93,54,93,93,49,54,93,5,99,10,142,10,10,6,5,0,47,164,8,120,21,193,50,116,54,50,194,56,50,93,8,334,11,171,116,10,216,142,213,192,5,10,9,49,72,21,5,303,51,159,9,53,54,5,170,149,216,152,259,196,114,0,0,0,0,0,0,0,0,0,0,0,0,0,0,0,0,0,0,0,0,0,0,0,0,0,0,0,0,0,0,0,0,0,0,0,0,0,0,0,0,0,0,0,0,0,0,0,0,0,0,0,0,0,0,0,0,0,0,0,0],"split_type":[0,0,0,0,0,0,0,0,0,0,0,0,0,0,0,0,0,0,0,0,0,0,0,0,0,0,0,0,0,0,0,0,0,0,0,0,0,0,0,0,0,0,0,0,0,0,0,0,0,0,0,0,0,0,0,0,0,0,0,0,0,0,0,0,0,0,0,0,0,0,0,0,0,0,0,0,0,0,0,0,0,0,0,0,0,0,0,0,0,0,0,0,0,0,0,0,0,0,0,0,0,0,0,0,0,0,0,0,0,0,0,0,0,0,0,0,0,0,0,0,0],"sum_hessian":[2.1681397E5,4.822744E4,1.6858652E5,3.1682973E4,1.6544469E4,1.1519034E5,5.3396176E4,1.6855168E4,1.4827804E4,8.62258E3,7.921888E3,3.745452E4,7.773583E4,3.058835E4,2.2807828E4,6.5336647E0,1.6848635E4,8.859501E3,5.9683022E3,5.6586694E2,8.056713E3,4.0360306E2,7.518285E3,1.9783113E4,1.7671408E4,1.0951138E4,6.678469E4,8.0997305E3,2.248862E4,2.0931781E4,1.8760466E3,1.683217E4,1.64641E1,6.6520864E3,2.2074148E3,5.566087E3,4.0221524E2,3.8300043E2,1.8286653E2,3.1876787E3,4.869034E3,5.7317535E1,3.4628552E2,3.022416E2,7.2160435E3,1.8303568E4,1.4795452E3,5.362804E3,1.2308603E4,4.4091003E2,1.0510228E4,4.086614E4,2.5918547E4,6.0589688E3,2.0407617E3,6.1448236E2,2.1874137E4,1.2295684E4,8.636098E3,4.9401436E1,1.8266453E3,1.6718482E4,1.13689224E2,1.1341501E1,5.1225996E0,1.4647264E2,6.505614E3,1.2003657E2,2.0873782E3,4.1197073E2,5.154116E3,3.252171E2,7.699815E1,2.796323E2,1.03368126E2,1.609153E2,2.1951223E1,3.17926E3,8.418775E0,3.7186553E3,1.1503789E3,1.7115044E1,4.020249E1,3.3432736E2,1.1958165E1,7.286554E1,2.2937605E2,5.354564E3,1.8614792E3,6.09235E3,1.2211217E4,7.100121E2,7.695331E2,5.3184043E3,4.4399834E1,4.274154E2,1.18811875E4,2.686079E2,1.7230214E2,5.28364E3,5.226588E3,1.677807E4,2.408807E4,9.8627295E3,1.6055818E4,3.794873E3,2.2640955E3,1.9856877E3,5.5073948E1,1.1105911E2,5.0342325E2,8.29127E3,1.3582866E4,8.854862E3,3.4408215E3,8.627873E3,8.22434E0,3.859609E1,1.0805347E1,1.8004937E3,2.615151E1],"tree_param":{"num_deleted":"0","num_feature":"397","num_nodes":"121","size_leaf_vector":"1"}},{"base_weights":[-7.043458E-4,-9.883351E-1,3.4174225E-1,-1.1569893E0,-5.879227E-1,1.156346E-1,1.1318513E0,-1.2903796E0,-8.293961E-1,-5.1139027E-1,-1.4150752E0,-3.8964957E-2,5.67478E-1,1.2201016E0,6.484765E-1,-1.1840209E0,-1.3840518E0,-9.4108546E-1,-2.4337986E-1,-6.250761E-1,-2.1134293E-2,-1.4305935E0,6.265256E-2,2.4634367E-2,-7.954841E-1,3.189179E-1,6.9346756E-1,7.231587E-1,1.2533001E0,1.0885331E-1,8.612803E-1,-1.2767973E0,-9.0876997E-1,3.772624E-2,-1.3877528E0,-1.0402324E0,-2.908644E-1,-5.633939E-1,5.782493E-1,-1.1149799E0,-5.3785795E-1,-1.5700997E-1,9.66057E-1,-1.4359208E0,-1.7777964E-2,-8.686199E-2,3.750156E-1,7.806954E-1,-8.720704E-1,1.8607017E-2,5.502118E-1,9.81199E-1,5.8581644E-1,-1.0886987E0,8.330351E-1,1.1509174E0,1.3547548E0,-7.915304E-1,4.5531163E-1,8.8948023E-1,-1.7092404E0,-6.416373E-2,1.1005842E-1,4.4978913E-2,-4.7554582E-2,-6.880324E-2,1.09630585E-1,-6.950516E-2,-4.3068957E-2,-5.358118E-2,-6.6348084E-4,2.3280269E-2,-4.0157422E-2,-3.3978462E-2,9.071805E-2,-1.2115467E-2,6.0765374E-2,-5.765872E-2,6.257542E-2,-1.8474383E-2,-4.214437E-2,4.353931E-2,-1.4324747E-2,5.984622E-2,-8.490425E-2,-2.610418E-2,-7.19832E-2,-2.68403E-2,-1.6794577E-3,2.8589567E-2,1.0453472E-2,5.9323598E-2,-2.8794145E-2,-3.415623E-2,-6.6190116E-2,1.9827787E-2,-1.9968161E-2,1.6078098E-2,4.4688158E-2,5.006757E-2,-2.6755987E-2,3.0805081E-2,-2.7159324E-2,-8.872332E-2,4.5722E-2,5.1201105E-2,4.3971445E-3,6.2169787E-2,3.9991397E-2,-8.385915E-2,6.787544E-2,-6.2366486E-2,4.8145533E-2,9.761164E-3,5.9414454E-2,4.7451694E-2,-2.3393256E-3,-1.0926658E-1,2.750353E-2],"categories":[],"categories_nodes":[],"categories_segments":[],"categories_sizes":[],"default_left":[0,0,0,0,0,0,0,0,0,0,0,0,0,0,0,0,0,0,0,0,0,0,0,0,0,0,0,0,0,0,0,0,0,0,0,0,0,0,0,0,0,0,0,0,0,0,0,0,0,0,0,0,0,0,0,0,0,0,0,0,0,0,0,0,0,0,0,0,0,0,0,0,0,0,0,0,0,0,0,0,0,0,0,0,0,0,0,0,0,0,0,0,0,0,0,0,0,0,0,0,0,0,0,0,0,0,0,0,0,0,0,0,0,0,0,0,0,0,0],"id":11,"left_children":[1,3,5,7,9,11,13,15,17,19,21,23,25,27,29,31,33,35,37,39,41,43,-1,45,47,49,51,53,55,57,59,61,63,65,67,69,71,73,75,77,79,81,83,85,-1,87,89,91,93,95,97,99,101,103,105,107,109,111,113,115,117,-1,-1,-1,-1,-1,-1,-1,-1,-1,-1,-1,-1,-1,-1,-1,-1,-1,-1,-1,-1,-1,-1,-1,-1,-1,-1,-1,-1,-1,-1,-1,-1,-1,-1,-1,-1,-1,-1,-1,-1,-1,-1,-1,-1,-1,-1,-1,-1,-1,-1,-1,-1,-1,-1,-1,-1,-1,-1],"loss_changes":[7.262481E4,3.7321602E3,2.8484828E4,1.6976406E3,1.0360488E3,8.660087E3,1.5117773E3,2.7209375E2,7.3661523E2,8.362395E2,6.1007812E1,4.444336E3,9.892715E2,4.9307422E2,6.292527E2,3.285586E2,7.737305E1,6.091211E2,4.753559E2,5.192256E2,3.794327E2,6.8811035E0,0E0,3.328847E3,8.6606445E2,7.386583E2,6.484365E2,3.7672424E2,2.8892578E2,4.8502582E2,2.879768E2,2.2384961E2,2.5222363E2,1.2811342E2,1.5722656E1,2.6450684E2,4.867566E2,3.6167166E2,2.6565366E2,1.6909229E2,5.305703E2,3.3137622E2,2.145665E2,3.190918E0,0E0,1.5493973E3,6.7144385E2,1.8466548E2,5.8134424E2,7.3157043E2,4.7133582E2,1.7546143E2,5.22666E2,1.5234644E2,2.5264514E2,4.5280078E2,1.22375E2,3.47965E2,2.1350937E2,2.1695654E2,4.9021515E1,0E0,0E0,0E0,0E0,0E0,0E0,0E0,0E0,0E0,0E0,0E0,0E0,0E0,0E0,0E0,0E0,0E0,0E0,0E0,0E0,0E0,0E0,0E0,0E0,0E0,0E0,0E0,0E0,0E0,0E0,0E0,0E0,0E0,0E0,0E0,0E0,0E0,0E0,0E0,0E0,0E0,0E0,0E0,0E0,0E0,0E0,0E0,0E0,0E0,0E0,0E0,0E0,0E0,0E0,0E0,0E0,0E0,0E0],"parents":[2147483647,0,0,1,1,2,2,3,3,4,4,5,5,6,6,7,7,8,8,9,9,10,10,11,11,12,12,13,13,14,14,15,15,16,16,17,17,18,18,19,19,20,20,21,21,23,23,24,24,25,25,26,26,27,27,28,28,29,29,30,30,31,31,32,32,33,33,34,34,35,35,36,36,37,37,38,38,39,39,40,40,41,41,42,42,43,43,45,45,46,46,47,47,48,48,49,49,50,50,51,51,52,52,53,53,54,54,55,55,56,56,57,57,58,58,59,59,60,60],"right_children":[2,4,6,8,10,12,14,16,18,20,22,24,26,28,30,32,34,36,38,40,42,44,-1,46,48,50,52,54,56,58,60,62,64,66,68,70,72,74,76,78,80,82,84,86,-1,88,90,92,94,96,98,100,102,104,106,108,110,112,114,116,118,-1,-1,-1,-1,-1,-1,-1,-1,-1,-1,-1,-1,-1,-1,-1,-1,-1,-1,-1,-1,-1,-1,-1,-1,-1,-1,-1,-1,-1,-1,-1,-1,-1,-1,-1,-1,-1,-1,-1,-1,-1,-1,-1,-1,-1,-1,-1,-1,-1,-1,-1,-1,-1,-1,-1,-1,-1,-1],"split_conditions":[-5.5E1,2.98E2,1.53E2,-3.4E1,1E0,5.2E1,2.72E2,1E0,6.6E3,1.3E3,1E0,1E0,1E0,2.25E3,3.8E1,-1.16E2,5E1,5.4E1,1E0,-1.02E2,1.85E4,3E0,6.265256E-2,6.3E3,3E2,7.8E1,1.85E2,-1.5E1,1.65E2,-7.8603235E2,2.25E2,3E0,-2.3447366E3,2.18E2,1.52E4,2.08E4,4.3E1,4.83E2,9.6E1,2.69E4,1E0,8.5E1,1E0,4.35E3,-1.7777964E-2,-4.3E1,1.2115137E2,2.1896709E2,1.3526923E3,5.305694E2,2.56E4,1.2E1,1.6004259E3,1.99E2,1.9386531E3,7.15E3,0E0,2.045E4,1E0,1.585E4,8.2E1,-6.416373E-2,1.1005842E-1,4.4978913E-2,-4.7554582E-2,-6.880324E-2,1.09630585E-1,-6.950516E-2,-4.3068957E-2,-5.358118E-2,-6.6348084E-4,2.3280269E-2,-4.0157422E-2,-3.3978462E-2,9.071805E-2,-1.2115467E-2,6.0765374E-2,-5.765872E-2,6.257542E-2,-1.8474383E-2,-4.214437E-2,4.353931E-2,-1.4324747E-2,5.984622E-2,-8.490425E-2,-2.610418E-2,-7.19832E-2,-2.68403E-2,-1.6794577E-3,2.8589567E-2,1.0453472E-2,5.9323598E-2,-2.8794145E-2,-3.415623E-2,-6.6190116E-2,1.9827787E-2,-1.9968161E-2,1.6078098E-2,4.4688158E-2,5.006757E-2,-2.6755987E-2,3.0805081E-2,-2.7159324E-2,-8.872332E-2,4.5722E-2,5.1201105E-2,4.3971445E-3,6.2169787E-2,3.9991397E-2,-8.385915E-2,6.787544E-2,-6.2366486E-2,4.8145533E-2,9.761164E-3,5.9414454E-2,4.7451694E-2,-2.3393256E-3,-1.0926658E-1,2.750353E-2],"split_indices":[95,50,95,94,2,94,6,2,53,97,251,2,93,97,94,95,8,94,67,94,53,86,0,97,9,142,6,94,94,182,95,303,171,6,96,9,109,6,142,52,176,108,262,10,0,94,216,65,99,172,54,114,148,95,216,10,93,97,161,11,104,0,0,0,0,0,0,0,0,0,0,0,0,0,0,0,0,0,0,0,0,0,0,0,0,0,0,0,0,0,0,0,0,