{"learner":{"attributes":{"scikit_learn":"{\"_estimator_type\": \"classifier\"}"},"feature_names":["round_num","seconds_in_round","bomb_planted","bomb_events_last_5s","T_scoped_count","T_walking_count","T_bomb_zone_count","T_flashed_players","T_burning_players","T_duck_amount_mean","T_shots_fired_sum","T_velocity_mean","T_bomb_carrier_alive","T_unique_places","T_macro_A","T_macro_B","T_macro_MID","T_macro_OTHER","T_mean_X","T_mean_Y","T_spread_xy","T_place_RAMP","T_place_OUTSIDE","T_place_BOMBSITEB","T_place_TSIDEUPPER","T_place_TSIDELOWER","T_place_RUINS","T_place_SIDEENTRANCE","T_place_SIDEHALL","T_place_HOUSE","T_place_TOPOFMID","T_place_TUNNEL","T_place_ALLEY","T_place_MAINHALL","T_place_BOMBSITEA","T_place_TSPAWN","T_place_CTSPAWN","T_place_WATER","T_place_MIDDLE","CT_defuser_count","CT_scoped_count","CT_walking_count","CT_defusing_count","CT_flashed_players","CT_burning_players","CT_duck_amount_mean","CT_shots_fired_sum","CT_velocity_mean","CT_unique_places","CT_macro_A","CT_macro_B","CT_macro_MID","CT_macro_OTHER","CT_mean_X","CT_mean_Y","CT_spread_xy","CT_place_RAMP","CT_place_OUTSIDE","CT_place_BOMBSITEB","CT_place_TSIDEUPPER","CT_place_TSIDELOWER","CT_place_UNKNOWN","CT_place_RUINS","CT_place_SIDEENTRANCE","CT_place_SIDEHALL","CT_place_HOUSE","CT_place_TOPOFMID","CT_place_TUNNEL","CT_place_ALLEY","CT_place_MAINHALL","CT_place_BOMBSITEA","CT_place_TSPAWN","CT_place_CTSPAWN","CT_place_WATER","CT_place_MIDDLE","spread_diff","centroid_distance_xy","T_closest_enemy_dist","CT_closest_enemy_dist","closest_enemy_dist_diff","T_damage_last_5s","CT_damage_last_5s","T_kills_last_3s","CT_kills_last_3s","T1__is_scoped","T1__is_walking","T1__duck_amount","T1__shots_fired","T1__X","T1__Y","T1__has_bomb","T2__is_scoped","T2__is_walking","T2__duck_amount","T2__shots_fired","T2__X","T2__Y","T2__has_bomb","T3__is_scoped","T3__is_walking","T3__duck_amount","T3__shots_fired","T3__X","T3__Y","T3__has_bomb","T4__is_scoped","T4__is_walking","T4__duck_amount","T4__shots_fired","T4__X","T4__Y","T4__has_bomb","T5__is_scoped","T5__is_walking","T5__duck_amount","T5__shots_fired","T5__X","T5__Y","T5__has_bomb","CT1__has_defuser","CT1__is_scoped","CT1__is_walking","CT1__duck_amount","CT1__shots_fired","CT1__X","CT1__Y","CT2__has_defuser","CT2__is_scoped","CT2__is_walking","CT2__duck_amount","CT2__shots_fired","CT2__X","CT2__Y","CT3__has_defuser","CT3__is_scoped","CT3__is_walking","CT3__duck_amount","CT3__shots_fired","CT3__X","CT3__Y","CT4__has_defuser","CT4__is_scoped","CT4__is_walking","CT4__duck_amount","CT4__shots_fired","CT4__X","CT4__Y","CT5__has_defuser","CT5__is_scoped","CT5__is_walking","CT5__duck_amount","CT5__shots_fired","CT5__X","CT5__Y","damage_diff_last_5s","kill_diff_last_3s","T_place_LOWERTUNNEL","T_place_MIDDOORS","T_place_BACKOFB","T_place_BRICKS","T_place_CONNECTOR","T_place_OUTSIDELONG","T_place_TSTAIRS","T_place_CANAL","T_place_STREET","T_place_SNIPERSNEST","T_place_TUNNELSTAIRS","T_place_FOUNTAIN","T_place_HEAVEN","T_place_WALKWAY","T_place_BRIDGE","T_place_PALACEINTERIOR","T_place_MAIN","T_place_CTSIDEUPPER","CT_place_LOWERTUNNEL","CT_place_MIDDOORS","CT_place_BACKOFB","CT_place_BRICKS","CT_place_CONNECTOR","CT_place_OUTSIDELONG","CT_place_TSTAIRS","CT_place_CANAL","CT_place_STREET","CT_place_SNIPERSNEST","CT_place_TUNNELSTAIRS","CT_place_FOUNTAIN","CT_place_HEAVEN","CT_place_WALKWAY","CT_place_BRIDGE","CT_place_PALACEINTERIOR","CT_place_MAIN","CT_place_CTSIDEUPPER","T_place_PIT","T_place_LONGA","T_place_CATWALK","T_place_EXTENDEDA","T_place_ARAMP","T_place_TRAMP","T_place_SIDE","T_place_UPPERTUNNEL","T_place_LONGDOORS","T_place_UNDERA","T_place_HOLE","T_place_BDOORS","T_place_SHORTSTAIRS","T_place_OUTSIDETUNNEL","CT_place_PIT","CT_place_LONGA","CT_place_CATWALK","CT_place_EXTENDEDA","CT_place_ARAMP","CT_place_TRAMP","CT_place_SIDE","CT_place_UPPERTUNNEL","CT_place_LONGDOORS","CT_place_UNDERA","CT_place_HOLE","CT_place_BDOORS","CT_place_SHORTSTAIRS","CT_place_OUTSIDETUNNEL","T_place_UPSTAIRS","T_place_KITCHEN","T_place_BALCONY","T_place_QUAD","T_place_BACKALLEY","T_place_SECONDMID","T_place_LOWERMID","T_place_ARCH","T_place_LIBRARY","T_place_APARTMENTS","T_place_GRAVEYARD","T_place_UNDERPASS","T_place_BANANA","CT_place_UPSTAIRS","CT_place_KITCHEN","CT_place_BALCONY","CT_place_QUAD","CT_place_BACKALLEY","CT_place_SECONDMID","CT_place_LOWERMID","CT_place_ARCH","CT_place_LIBRARY","CT_place_APARTMENTS","CT_place_GRAVEYARD","CT_place_UNDERPASS","CT_place_BANANA","T_place_DECK","CT_place_DECK","T_place_TRUCK","T_place_STAIRS","T_place_SHOP","T_place_JUNGLE","T_place_SCAFFOLDING","T_place_LADDER","T_place_SIDEALLEY","T_place_PALACEALLEY","CT_place_TRUCK","CT_place_STAIRS","CT_place_SHOP","CT_place_JUNGLE","CT_place_SCAFFOLDING","CT_place_LADDER","CT_place_SIDEALLEY","CT_place_PALACEALLEY","T_place_RAFTERS","T_place_SECRET","T_place_MINI","T_place_VENTS","T_place_GARAGE","T_place_HUTROOF","T_place_LOCKERROOM","T_place_SILO","T_place_SQUEAKY","T_place_LOBBY","T_place_ADMIN","T_place_HELL","T_place_HUT","T_place_OBSERVATION","T_place_ROOF","T_place_TROPHY","T_place_DECON","T_place_CONTROL","T_place_CRANE","T_place_VENDING","T_place_TUNNELS","CT_place_RAFTERS","CT_place_SECRET","CT_place_MINI","CT_place_VENTS","CT_place_GARAGE","CT_place_HUTROOF","CT_place_LOCKERROOM","CT_place_SILO","CT_place_SQUEAKY","CT_place_LOBBY","CT_place_ADMIN","CT_place_HELL","CT_place_HUT","CT_place_OBSERVATION","CT_place_ROOF","CT_place_TROPHY","CT_place_DECON","CT_place_CONTROL","CT_place_CRANE","CT_place_VENDING","CT_place_TUNNELS","T_place_CONSTRUCTION","T_place_PLAYGROUND","T_place_UPPERPARK","T_place_STORAGEROOM","T_place_RESTROOM","T_place_PIPE","T_place_BACKOFA","T_place_LOWERPARK","CT_place_CONSTRUCTION","CT_place_PLAYGROUND","CT_place_UPPERPARK","CT_place_STORAGEROOM","CT_place_RESTROOM","CT_place_PIPE","CT_place_BACKOFA","CT_place_LOWERPARK","T_place_ELECTRICALBOX","T_place_LONGDOG","T_place_IVY","T_place_DUMPSTER","T_place_ENTRANCE","T_place_TMAIN","CT_place_ELECTRICALBOX","CT_place_LONGDOG","CT_place_IVY","CT_place_DUMPSTER","CT_place_ENTRANCE","CT_place_TMAIN"],"feature_types":["int","float","int","int","int","int","int","int","int","float","float","float","int","int","int","int","int","int","float","float","float","float","float","int","float","float","float","float","float","float","float","float","float","float","int","int","float","float","float","int","int","int","int","int","int","float","float","float","int","int","int","int","int","float","float","float","float","float","int","float","float","int","float","float","float","float","float","float","float","float","int","int","float","float","float","float","float","float","float","float","float","float","int","int","int","int","float","float","float","float","int","int","int","float","float","float","float","int","int","int","float","float","float","float","int","int","int","float","float","float","float","int","int","int","float","float","float","float","int","int","int","int","float","float","float","float","int","int","int","float","float","float","float","int","int","int","float","float","float","float","int","int","int","float","float","float","float","int","int","int","float","float","float","float","float","int","float","float","float","float","float","float","float","float","float","float","float","float","float","float","float","float","float","float","float","float","float","float","float","float","float","float","float","float","float","float","float","float","float","float","float","float","float","float","float","float","float","float","float","float","float","float","float","float","float","float","float","float","float","float","float","float","float","float","float","float","float","float","float","float","float","float","float","float","float","float","float","float","float","float","float","float","float","float","float","float","float","float","float","float","float","float","float","float","float","float","float","float","float","float","float","float","float","float","float","float","float","float","float","float","float","float","float","float","float","float","float","float","float","float","float","float","float","float","float","float","float","float","float","float","float","float","float","float","float","float","float","float","float","float","float","float","float","float","float","float","float","float","float","float","float","float","float","float","float","float","float","float","float","float","float","float","float","float","float","float","float","float","float","float","float","float","float","float","float","float","float","float","float","float","float","float","float","float"],"gradient_booster":{"model":{"cats":{"enc":[],"feature_segments":[],"sorted_idx":[]},"gbtree_model_param":{"num_parallel_tree":"1","num_trees":"400"},"iteration_indptr":[0,1,2,3,4,5,6,7,8,9,10,11,12,13,14,15,16,17,18,19,20,21,22,23,24,25,26,27,28,29,30,31,32,33,34,35,36,37,38,39,40,41,42,43,44,45,46,47,48,49,50,51,52,53,54,55,56,57,58,59,60,61,62,63,64,65,66,67,68,69,70,71,72,73,74,75,76,77,78,79,80,81,82,83,84,85,86,87,88,89,90,91,92,93,94,95,96,97,98,99,100,101,102,103,104,105,106,107,108,109,110,111,112,113,114,115,116,117,118,119,120,121,122,123,124,125,126,127,128,129,130,131,132,133,134,135,136,137,138,139,140,141,142,143,144,145,146,147,148,149,150,151,152,153,154,155,156,157,158,159,160,161,162,163,164,165,166,167,168,169,170,171,172,173,174,175,176,177,178,179,180,181,182,183,184,185,186,187,188,189,190,191,192,193,194,195,196,197,198,199,200,201,202,203,204,205,206,207,208,209,210,211,212,213,214,215,216,217,218,219,220,221,222,223,224,225,226,227,228,229,230,231,232,233,234,235,236,237,238,239,240,241,242,243,244,245,246,247,248,249,250,251,252,253,254,255,256,257,258,259,260,261,262,263,264,265,266,267,268,269,270,271,272,273,274,275,276,277,278,279,280,281,282,283,284,285,286,287,288,289,290,291,292,293,294,295,296,297,298,299,300,301,302,303,304,305,306,307,308,309,310,311,312,313,314,315,316,317,318,319,320,321,322,323,324,325,326,327,328,329,330,331,332,333,334,335,336,337,338,339,340,341,342,343,344,345,346,347,348,349,350,351,352,353,354,355,356,357,358,359,360,361,362,363,364,365,366,367,368,369,370,371,372,373,374,375,376,377,378,379,380,381,382,383,384,385,386,387,388,389,390,391,392,393,394,395,396,397,398,399,400],"tree_info":[0,0,0,0,0,0,0,0,0,0,0,0,0,0,0,0,0,0,0,0,0,0,0,0,0,0,0,0,0,0,0,0,0,0,0,0,0,0,0,0,0,0,0,0,0,0,0,0,0,0,0,0,0,0,0,0,0,0,0,0,0,0,0,0,0,0,0,0,0,0,0,0,0,0,0,0,0,0,0,0,0,0,0,0,0,0,0,0,0,0,0,0,0,0,0,0,0,0,0,0,0,0,0,0,0,0,0,0,0,0,0,0,0,0,0,0,0,0,0,0,0,0,0,0,0,0,0,0,0,0,0,0,0,0,0,0,0,0,0,0,0,0,0,0,0,0,0,0,0,0,0,0,0,0,0,0,0,0,0,0,0,0,0,0,0,0,0,0,0,0,0,0,0,0,0,0,0,0,0,0,0,0,0,0,0,0,0,0,0,0,0,0,0,0,0,0,0,0,0,0,0,0,0,0,0,0,0,0,0,0,0,0,0,0,0,0,0,0,0,0,0,0,0,0,0,0,0,0,0,0,0,0,0,0,0,0,0,0,0,0,0,0,0,0,0,0,0,0,0,0,0,0,0,0,0,0,0,0,0,0,0,0,0,0,0,0,0,0,0,0,0,0,0,0,0,0,0,0,0,0,0,0,0,0,0,0,0,0,0,0,0,0,0,0,0,0,0,0,0,0,0,0,0,0,0,0,0,0,0,0,0,0,0,0,0,0,0,0,0,0,0,0,0,0,0,0,0,0,0,0,0,0,0,0,0,0,0,0,0,0,0,0,0,0,0,0,0,0,0,0,0,0,0,0,0,0,0,0,0,0,0,0,0,0,0,0,0,0,0,0,0,0,0,0,0,0,0,0,0,0,0,0,0,0,0,0,0,0,0,0,0,0,0,0,0,0,0,0,0,0],"trees":[{"base_weights":[5.05565E-8,-7.8649294E-1,4.175794E-1,-3.8372475E-1,-1.7852907E0,1.4628172E0,2.4200328E-1,-7.3579335E-1,1.3073759E-1,-1.487499E0,-1.9478854E0,1.5668851E-1,1.7298325E0,3.328733E-1,-1.1218357E0,-9.6316326E-1,-8.6183086E-2,-2.0716882E-1,3.2481182E-1,-1.8395597E0,-1.2391897E0,-1.952067E0,-8.588615E-1,1.3626974E0,-2.6639798E-1,1.5494702E0,1.9226543E0,-1.2754521E-1,5.320087E-1,-5.919853E-1,-1.8781036E0,-2.7886525E-1,-1.164552E0,-2.4339795E-1,1.7929304E-1,-8.750791E-1,2.4102744E-2,4.8808953E-1,1.18972875E-1,-1.8467222E0,1.0127481E0,-1.3918887E0,-6.2743086E-1,-1.8410674E0,-1.9844066E0,-1.5673767E0,3.4437558E-1,7.1944E-1,1.8444037E0,4.0870696E-1,-7.2170466E-1,1.5975928E0,3.978691E-1,1.9422071E0,9.0794224E-1,3.9742562E-1,-2.632503E-1,4.6439108E-1,1.198114E0,-7.8700924E-1,1.8521132E-3,-1.9479002E0,-1.4716556E0,-2.4562873E-2,8.651258E-3,-7.0912465E-2,-3.649859E-2,7.5589004E-4,-2.5281703E-2,-8.932837E-3,2.7646497E-2,1.615866E-2,-5.121513E-2,-9.178418E-3,1.2948475E-2,4.2025037E-2,2.0454474E-2,1.1040443E-2,-1.8577484E-2,-9.280641E-2,8.744361E-3,-6.923077E-2,8.875399E-2,-3.3815482E-3,-7.156845E-2,-4.0025417E-2,2.0566737E-2,-9.469481E-2,-7.1309924E-2,-9.927139E-2,-1.577626E-2,-8.581178E-2,6.480702E-2,8.500531E-2,-4.2431515E-2,5.3272244E-2,-3.1471595E-3,9.3544744E-2,-2.5288165E-2,3.0925212E-2,-5.830572E-2,-4.585071E-2,5.663203E-3,9.6865766E-2,7.486332E-2,3.123044E-2,-4.0905166E-2,9.720766E-2,-8.4E-2,2.133265E-2,7.363263E-2,3.831592E-2,6.737351E-3,-1.7630583E-2,2.1115508E-2,-1.2169779E-2,2.5599886E-2,5.5597812E-2,8.3210126E-2,-3.0658025E-2,-8.408873E-2,6.2014223E-3,-8.5960485E-2,-9.768945E-2,8.4029034E-2,-5.6237485E-2,-9.415453E-2],"categories":[],"categories_nodes":[],"categories_segments":[],"categories_sizes":[],"default_left":[0,0,0,0,0,0,0,0,0,0,0,0,0,0,0,0,0,0,0,0,0,0,0,0,0,0,0,0,0,0,0,0,0,0,0,0,0,0,0,0,0,0,0,0,0,0,0,0,0,0,0,0,0,0,0,0,0,0,0,0,0,0,0,0,0,0,0,0,0,0,0,0,0,0,0,0,0,0,0,0,0,0,0,0,0,0,0,0,0,0,0,0,0,0,0,0,0,0,0,0,0,0,0,0,0,0,0,0,0,0,0,0,0,0,0,0,0,0,0,0,0,0,0,0,0,0,0],"id":0,"left_children":[1,3,5,7,9,11,13,15,17,19,21,23,25,27,29,31,33,35,37,39,41,43,45,47,49,51,53,55,57,59,61,63,65,67,69,71,73,75,77,79,81,83,85,87,89,91,93,95,97,99,101,103,105,107,109,111,113,115,117,119,121,123,125,-1,-1,-1,-1,-1,-1,-1,-1,-1,-1,-1,-1,-1,-1,-1,-1,-1,-1,-1,-1,-1,-1,-1,-1,-1,-1,-1,-1,-1,-1,-1,-1,-1,-1,-1,-1,-1,-1,-1,-1,-1,-1,-1,-1,-1,-1,-1,-1,-1,-1,-1,-1,-1,-1,-1,-1,-1,-1,-1,-1,-1,-1,-1,-1],"loss_changes":[9.454369E4,4.0161547E4,3.4507777E4,1.2886682E4,1.3862344E3,9.431129E3,1.9952703E4,6.2389004E3,1.8958005E3,8.8385156E2,8.282031E1,2.3430015E3,7.77875E2,1.3838928E4,4.0287783E3,4.311588E3,4.5716745E2,1.6291313E3,6.1707263E2,8.7478516E1,5.5468066E2,6.26875E1,6.2565323E1,3.6819043E2,1.0452842E3,6.425664E2,2.1345703E2,3.2467595E3,4.745199E3,6.850508E2,1.1465723E2,6.830475E2,2.6641992E3,4.6637015E2,5.450011E2,4.8536792E2,3.821961E2,2.8472534E2,4.058866E2,7.981055E1,2.2820837E1,2.486836E2,2.1423172E2,8.899414E1,2.3738281E1,2.1820557E1,4.638058E1,1.3874445E2,4.336035E1,4.533451E2,3.3126697E2,3.7679688E2,1.2923361E2,7.827344E1,5.5618073E1,9.069978E2,2.218622E3,3.2233438E3,3.8805957E2,6.916194E2,3.0791733E2,7.876465E1,8.512317E1,0E0,0E0,0E0,0E0,0E0,0E0,0E0,0E0,0E0,0E0,0E0,0E0,0E0,0E0,0E0,0E0,0E0,0E0,0E0,0E0,0E0,0E0,0E0,0E0,0E0,0E0,0E0,0E0,0E0,0E0,0E0,0E0,0E0,0E0,0E0,0E0,0E0,0E0,0E0,0E0,0E0,0E0,0E0,0E0,0E0,0E0,0E0,0E0,0E0,0E0,0E0,0E0,0E0,0E0,0E0,0E0,0E0,0E0,0E0,0E0,0E0,0E0,0E0,0E0],"parents":[2147483647,0,0,1,1,2,2,3,3,4,4,5,5,6,6,7,7,8,8,9,9,10,10,11,11,12,12,13,13,14,14,15,15,16,16,17,17,18,18,19,19,20,20,21,21,22,22,23,23,24,24,25,25,26,26,27,27,28,28,29,29,30,30,31,31,32,32,33,33,34,34,35,35,36,36,37,37,38,38,39,39,40,40,41,41,42,42,43,43,44,44,45,45,46,46,47,47,48,48,49,49,50,50,51,51,52,52,53,53,54,54,55,55,56,56,57,57,58,58,59,59,60,60,61,61,62,62],"right_children":[2,4,6,8,10,12,14,16,18,20,22,24,26,28,30,32,34,36,38,40,42,44,46,48,50,52,54,56,58,60,62,64,66,68,70,72,74,76,78,80,82,84,86,88,90,92,94,96,98,100,102,104,106,108,110,112,114,116,118,120,122,124,126,-1,-1,-1,-1,-1,-1,-1,-1,-1,-1,-1,-1,-1,-1,-1,-1,-1,-1,-1,-1,-1,-1,-1,-1,-1,-1,-1,-1,-1,-1,-1,-1,-1,-1,-1,-1,-1,-1,-1,-1,-1,-1,-1,-1,-1,-1,-1,-1,-1,-1,-1,-1,-1,-1,-1,-1,-1,-1,-1,-1,-1,-1,-1,-1],"split_conditions":[0E0,1E0,6.0711113E1,2E0,1.1477781E3,1.3434143E1,1E0,4E0,3E0,5.642619E1,1.39E2,1E0,3E0,1E0,1.3813167E3,1.2E1,1E0,3E0,6.4656366E2,2E0,1E0,1.4388352E3,1E0,1E0,1E0,2E0,3E0,3E0,5.9E1,1E0,1E0,1E0,3E0,3.2800992E2,1.2E1,1.4E1,4E0,-1.5666886E3,1.18112E3,2E0,1E0,-2.100348E3,1.7E1,2E0,2E0,2E0,-6.7113403E2,1E0,2.983083E3,1.6661185E3,4E0,1E0,1E0,4E0,1E0,6.0646015E1,2.2E1,-3.7E1,1.48E2,3E0,1.5056449E3,1E0,1.825172E3,-2.4562873E-2,8.651258E-3,-7.0912465E-2,-3.649859E-2,7.5589004E-4,-2.5281703E-2,-8.932837E-3,2.7646497E-2,1.615866E-2,-5.121513E-2,-9.178418E-3,1.2948475E-2,4.2025037E-2,2.0454474E-2,1.1040443E-2,-1.8577484E-2,-9.280641E-2,8.744361E-3,-6.923077E-2,8.875399E-2,-3.3815482E-3,-7.156845E-2,-4.0025417E-2,2.0566737E-2,-9.469481E-2,-7.1309924E-2,-9.927139E-2,-1.577626E-2,-8.581178E-2,6.480702E-2,8.500531E-2,-4.2431515E-2,5.3272244E-2,-3.1471595E-3,9.3544744E-2,-2.5288165E-2,3.0925212E-2,-5.830572E-2,-4.585071E-2,5.663203E-3,9.6865766E-2,7.486332E-2,3.123044E-2,-4.0905166E-2,9.720766E-2,-8.4E-2,2.133265E-2,7.363263E-2,3.831592E-2,6.737351E-3,-1.7630583E-2,2.1115508E-2,-1.2169779E-2,2.5599886E-2,5.5597812E-2,8.3210126E-2,-3.0658025E-2,-8.408873E-2,6.2014223E-3,-8.5960485E-2,-9.768945E-2,8.4029034E-2,-5.6237485E-2,-9.415453E-2],"split_indices":[79,2,20,39,77,75,2,48,52,55,81,13,48,39,76,1,39,48,54,37,119,77,39,42,2,17,17,0,154,119,3,39,48,125,0,1,48,109,96,50,8,89,154,39,294,44,95,52,96,125,151,13,2,15,119,153,154,154,154,17,95,42,76,0,0,0,0,0,0,0,0,0,0,0,0,0,0,0,0,0,0,0,0,0,0,0,0,0,0,0,0,0,0,0,0,0,0,0,0,0,0,0,0,0,0,0,0,0,0,0,0,0,0,0,0,0,0,0,0,0,0,0,0,0,0,0,0],"split_type":[0,0,0,0,0,0,0,0,0,0,0,0,0,0,0,0,0,0,0,0,0,0,0,0,0,0,0,0,0,0,0,0,0,0,0,0,0,0,0,0,0,0,0,0,0,0,0,0,0,0,0,0,0,0,0,0,0,0,0,0,0,0,0,0,0,0,0,0,0,0,0,0,0,0,0,0,0,0,0,0,0,0,0,0,0,0,0,0,0,0,0,0,0,0,0,0,0,0,0,0,0,0,0,0,0,0,0,0,0,0,0,0,0,0,0,0,0,0,0,0,0,0,0,0,0,0,0],"sum_hessian":[2.878695E5,9.983453E4,1.8803497E5,7.1146055E4,2.8688475E4,2.7041934E4,1.6099305E5,4.22394E4,2.8906658E4,1.013549E4,1.8552982E4,4.590194E3,2.245174E4,1.5093714E5,1.0055903E4,3.128786E4,1.0951538E4,1.0545543E4,1.8361115E4,4.189324E3,5.946166E3,1.8481227E4,7.175623E1,1.191526E3,3.3986677E3,1.1605336E4,1.0846404E4,4.557171E4,1.0536543E5,5.914157E3,4.1417466E3,7.1148223E3,2.4173037E4,6.878297E3,4.0732415E3,2.711621E3,7.8339214E3,1.0238363E4,8.122753E3,4.179182E3,1.0142039E1,4.7574106E3,1.1887554E3,4.182733E3,1.4298494E4,4.4972157E1,2.6784079E1,5.1127588E2,6.802501E2,1.3689551E3,2.0297126E3,1.1139457E4,4.658782E2,1.0640455E4,2.0594876E2,9.3601875E3,3.6211523E4,9.565682E4,9.70861E3,4.451802E3,1.4623551E3,3.5315107E3,6.102357E2,4.8399287E3,2.2748933E3,1.5261491E4,8.911546E3,3.464193E3,3.4141035E3,2.0805579E3,1.9926837E3,3.0016406E2,2.411457E3,4.157789E3,3.6761326E3,1.8730848E3,8.365278E3,6.7267764E3,1.3959768E3,4.1599097E3,1.927272E1,2.25E0,7.89204E0,1.378062E2,4.6196045E3,1.01917194E3,1.6958345E2,3.7071113E3,4.7562155E2,1.4289562E4,8.932952E0,4.313068E1,1.841476E0,1.2338059E1,1.444602E1,3.5424924E2,1.5702664E2,6.728694E2,7.38068E0,1.2085585E3,1.6039656E2,1.6448611E3,3.8485156E2,2.5355022E3,8.603955E3,3.930697E2,7.280851E1,1.0635205E4,5.25E0,1.1213461E2,9.381415E1,3.8922249E3,5.4679634E3,3.2036162E4,4.1753594E3,6.0282534E3,8.962857E4,8.196794E3,1.511816E3,3.728966E3,7.2283575E2,1.3662915E3,9.606363E1,3.5262495E3,5.2613597E0,3.3310675E2,2.7712897E2],"tree_param":{"num_deleted":"0","num_feature":"334","num_nodes":"127","size_leaf_vector":"1"}},{"base_weights":[-4.8457746E-6,-8.53731E-1,3.4811103E-1,-4.460498E-1,-1.7232189E0,1.3944494E0,1.9362879E-1,-7.828028E-1,8.151617E-2,-1.4568187E0,-1.8587966E0,1.0738575E-1,1.6738682E0,2.8873524E-1,-1.1142635E0,-1.1966352E0,-3.8588807E-1,-2.6332587E-1,2.9077068E-1,-1.580171E0,-8.656993E-1,-1.863016E0,-7.6465505E-1,1.2965769E0,-2.9714274E-1,1.5054013E0,1.8573239E0,-1.4773813E-1,4.8058546E-1,-6.5418965E-1,-1.7880739E0,-1.6964816E-1,-1.3902639E0,-6.526347E-1,-9.59972E-2,-9.0992635E-1,-1.913153E-2,5.6118155E-1,1.3669877E-1,-1.7633085E0,-1.3759569E0,-1.3198581E0,-5.1133716E-1,-1.8656418E0,-7.635113E-1,-1.6458033E0,2.092921E-1,6.839105E-1,1.7561431E0,3.2275024E-1,-7.159644E-1,1.8448825E0,1.406895E0,1.8629966E0,8.384837E-1,3.5448205E-1,-2.7552626E-1,4.153759E-1,1.0931773E0,-8.348696E-1,-6.291562E-2,-1.8539146E0,-1.3970517E0,6.8582417E-3,-2.372663E-2,-5.5032462E-2,-7.9685085E-2,-4.246104E-2,-1.0152603E-2,-1.3184719E-2,9.952898E-3,1.4224686E-2,-5.147924E-2,3.6199603E-2,-4.96604E-3,1.854397E-2,3.980189E-2,9.006702E-3,-3.275333E-2,-8.862301E-2,1.1570284E-2,-5.766031E-2,-8.627336E-2,-7.4896924E-2,-3.132451E-3,-3.2017898E-2,6.6933E-2,-8.756928E-2,-9.4435036E-2,-7.8831255E-2,5.577901E-2,-8.917298E-2,5.8029708E-2,6.715915E-2,-3.2030832E-2,5.0652575E-2,-2.9908065E-3,8.907214E-2,-2.4178097E-2,2.6424212E-2,-5.220307E-2,-4.4697322E-2,1.9828058E-3,9.3066186E-2,5.1790398E-2,7.949773E-2,4.9415085E-2,9.322792E-2,-7.766516E-2,9.61541E-3,7.571581E-2,3.492275E-2,5.5969134E-3,-1.7510012E-2,2.2785794E-2,3.107982E-2,1.3124566E-2,4.8931256E-2,7.280471E-2,-3.4463327E-2,-8.07561E-2,-1.3201219E-2,4.224661E-2,-9.29326E-2,8.062012E-2,-5.5129763E-2,-8.9901894E-2],"categories":[],"categories_nodes":[],"categories_segments":[],"categories_sizes":[],"default_left":[0,0,0,0,0,0,0,0,0,0,0,0,0,0,0,0,0,0,0,0,0,0,0,0,0,0,0,0,0,0,0,0,0,0,0,0,0,0,0,0,0,0,0,0,0,0,0,0,0,0,0,0,0,0,0,0,0,0,0,0,0,0,0,0,0,0,0,0,0,0,0,0,0,0,0,0,0,0,0,0,0,0,0,0,0,0,0,0,0,0,0,0,0,0,0,0,0,0,0,0,0,0,0,0,0,0,0,0,0,0,0,0,0,0,0,0,0,0,0,0,0,0,0,0,0,0,0],"id":1,"left_children":[1,3,5,7,9,11,13,15,17,19,21,23,25,27,29,31,33,35,37,39,41,43,45,47,49,51,53,55,57,59,61,63,65,67,69,71,73,75,77,79,81,83,85,87,89,91,93,95,97,99,101,103,105,107,109,111,113,115,117,119,121,123,125,-1,-1,-1,-1,-1,-1,-1,-1,-1,-1,-1,-1,-1,-1,-1,-1,-1,-1,-1,-1,-1,-1,-1,-1,-1,-1,-1,-1,-1,-1,-1,-1,-1,-1,-1,-1,-1,-1,-1,-1,-1,-1,-1,-1,-1,-1,-1,-1,-1,-1,-1,-1,-1,-1,-1,-1,-1,-1,-1,-1,-1,-1,-1,-1],"loss_changes":[8.550259E4,2.9538348E4,3.3033547E4,1.007929E4,9.580156E2,9.45482E3,2.2150992E4,5.6875996E3,1.5951809E3,6.531387E2,7.994141E1,2.256887E3,6.648164E2,1.3900934E4,3.7410596E3,3.3709082E3,1.3668838E3,1.3181858E3,5.731039E2,2.7526953E2,2.4908716E2,4.926953E1,5.990456E1,3.340824E2,9.091421E2,3.7414453E2,5.8179688E1,3.2531562E3,4.606135E3,7.664758E2,1.2349609E2,2.5173189E2,8.386289E2,8.134712E2,4.1926428E2,3.2738098E2,3.612485E2,2.2286914E2,3.0156604E2,7.180664E1,2.7167725E2,1.5204749E2,2.0932117E2,4.283203E1,6.825435E1,1.618966E1,3.3483994E1,1.25399536E2,3.938037E1,3.97684E2,2.8105762E2,3.1733398E1,6.67875E2,5.773828E1,2.5496376E1,8.5771826E2,2.2065962E3,3.2858398E3,4.5977832E2,6.232344E2,3.0703458E2,7.17793E1,8.183252E1,0E0,0E0,0E0,0E0,0E0,0E0,0E0,0E0,0E0,0E0,0E0,0E0,0E0,0E0,0E0,0E0,0E0,0E0,0E0,0E0,0E0,0E0,0E0,0E0,0E0,0E0,0E0,0E0,0E0,0E0,0E0,0E0,0E0,0E0,0E0,0E0,0E0,0E0,0E0,0E0,0E0,0E0,0E0,0E0,0E0,0E0,0E0,0E0,0E0,0E0,0E0,0E0,0E0,0E0,0E0,0E0,0E0,0E0,0E0,0E0,0E0,0E0,0E0,0E0],"parents":[2147483647,0,0,1,1,2,2,3,3,4,4,5,5,6,6,7,7,8,8,9,9,10,10,11,11,12,12,13,13,14,14,15,15,16,16,17,17,18,18,19,19,20,20,21,21,22,22,23,23,24,24,25,25,26,26,27,27,28,28,29,29,30,30,31,31,32,32,33,33,34,34,35,35,36,36,37,37,38,38,39,39,40,40,41,41,42,42,43,43,44,44,45,45,46,46,47,47,48,48,49,49,50,50,51,51,52,52,53,53,54,54,55,55,56,56,57,57,58,58,59,59,60,60,61,61,62,62],"right_children":[2,4,6,8,10,12,14,16,18,20,22,24,26,28,30,32,34,36,38,40,42,44,46,48,50,52,54,56,58,60,62,64,66,68,70,72,74,76,78,80,82,84,86,88,90,92,94,96,98,100,102,104,106,108,110,112,114,116,118,120,122,124,126,-1,-1,-1,-1,-1,-1,-1,-1,-1,-1,-1,-1,-1,-1,-1,-1,-1,-1,-1,-1,-1,-1,-1,-1,-1,-1,-1,-1,-1,-1,-1,-1,-1,-1,-1,-1,-1,-1,-1,-1,-1,-1,-1,-1,-1,-1,-1,-1,-1,-1,-1,-1,-1,-1,-1,-1,-1,-1,-1,-1,-1,-1,-1,-1],"split_conditions":[-3.848638E1,1E0,4.770254E1,2E0,1.1477781E3,1.3434143E1,1E0,3E0,3E0,3E0,1.39E2,1E0,3E0,1E0,1.3640175E3,6.5E0,4E0,3E0,-9.661909E2,5.642619E1,1E0,1E0,2E0,1E0,1E0,1E0,3E0,3E0,5.1E1,1E0,1E0,-4.002606E2,3E0,1E0,1E0,1.5E1,-1.3081777E3,4E0,2E0,2E0,3E0,1E0,3E0,1.362273E3,1E0,1E0,-6.7113403E2,1E0,2.983083E3,1.216E3,4E0,8.228913E2,1E0,4E0,1E0,6.0646015E1,3.7E1,3E0,1.11E2,3E0,1.7E1,1E0,1.8380917E3,6.8582417E-3,-2.372663E-2,-5.5032462E-2,-7.9685085E-2,-4.246104E-2,-1.0152603E-2,-1.3184719E-2,9.952898E-3,1.4224686E-2,-5.147924E-2,3.6199603E-2,-4.96604E-3,1.854397E-2,3.980189E-2,9.006702E-3,-3.275333E-2,-8.862301E-2,1.1570284E-2,-5.766031E-2,-8.627336E-2,-7.4896924E-2,-3.132451E-3,-3.2017898E-2,6.6933E-2,-8.756928E-2,-9.4435036E-2,-7.8831255E-2,5.577901E-2,-8.917298E-2,5.8029708E-2,6.715915E-2,-3.2030832E-2,5.0652575E-2,-2.9908065E-3,8.907214E-2,-2.4178097E-2,2.6424212E-2,-5.220307E-2,-4.4697322E-2,1.9828058E-3,9.3066186E-2,5.1790398E-2,7.949773E-2,4.9415085E-2,9.322792E-2,-7.766516E-2,9.61541E-3,7.571581E-2,3.492275E-2,5.5969134E-3,-1.7510012E-2,2.2785794E-2,3.107982E-2,1.3124566E-2,4.8931256E-2,7.280471E-2,-3.4463327E-2,-8.07561E-2,-1.3201219E-2,4.224661E-2,-9.29326E-2,8.062012E-2,-5.5129763E-2,-8.9901894E-2],"split_indices":[79,2,20,39,77,75,2,48,52,52,81,13,48,39,76,1,48,48,110,55,39,320,48,42,2,13,17,0,154,119,3,54,13,39,39,1,95,48,199,50,13,87,68,77,294,209,95,52,96,95,151,55,2,15,119,153,154,13,154,17,154,42,76,0,0,0,0,0,0,0,0,0,0,0,0,0,0,0,0,0,0,0,0,0,0,0,0,0,0,0,0,0,0,0,0,0,0,0,0,0,0,0,0,0,0,0,0,0,0,0,0,0,0,0,0,0,0,0,0,0,0,0,0,0,0,0,0],"split_type":[0,0,0,0,0,0,0,0,0,0,0,0,0,0,0,0,0,0,0,0,0,0,0,0,0,0,0,0,0,0,0,0,0,0,0,0,0,0,0,0,0,0,0,0,0,0,0,0,0,0,0,0,0,0,0,0,0,0,0,0,0,0,0,0,0,0,0,0,0,0,0,0,0,0,0,0,0,0,0,0,0,0,0,0,0,0,0,0,0,0,0,0,0,0,0,0,0,0,0,0,0,0,0,0,0,0,0,0,0,0,0,0,0,0,0,0,0,0,0,0,0,0,0,0,0,0,0],"sum_hessian":[2.8769603E5,8.333129E4,2.0436473E5,5.67324E4,2.659889E4,2.6289922E4,1.780748E5,3.462822E4,2.210418E4,8.975145E3,1.7623748E4,4.68967E3,2.1600252E4,1.660042E5,1.20706045E4,1.6951836E4,1.7676385E4,8.347544E3,1.3756636E4,7.424217E3,1.5509274E3,1.7555346E4,6.8401855E1,1.1898033E3,3.4998665E3,1.1264913E4,1.033534E4,5.0687234E4,1.1531696E5,7.174124E3,4.89648E3,2.689401E3,1.4262436E4,9.2050205E3,8.471363E3,2.2875718E3,6.059972E3,4.992203E3,8.764433E3,3.910066E3,3.514151E3,6.785532E2,8.723741E2,1.7512824E4,4.2520416E1,3.554962E1,3.2852238E1,5.1102426E2,6.787791E2,1.4112788E3,2.0885876E3,2.5295637E3,8.73535E3,1.0277289E4,5.8050175E1,1.0280817E4,4.0406418E4,1.04224125E5,1.1092837E4,5.4946665E3,1.6794576E3,4.1876226E3,7.0885785E2,1.3407351E3,1.3486659E3,5.887451E3,8.374983E3,6.403927E3,2.8010938E3,5.4014873E3,3.069876E3,2.0817813E2,2.0793938E3,5.89449E2,5.470523E3,2.759103E3,2.2331E3,8.309363E3,4.5506906E2,3.8923196E3,1.7746244E1,2.1489048E3,1.3652463E3,5.941955E2,8.435771E1,8.161115E2,5.6262623E1,2.953795E3,1.455903E4,2.9790531E1,1.2729887E1,3.423487E1,1.3147483E0,1.3826057E1,1.902618E1,3.5399802E2,1.5702626E2,6.713996E2,7.3795E0,1.2271763E3,1.8410257E2,1.6902711E3,3.9831656E2,2.4779094E3,5.1654274E1,6.0755757E3,2.659774E3,1.0273047E4,4.2425117E0,3.0332901E1,2.7717274E1,4.2506763E3,6.0301406E3,3.6662945E4,3.7434749E3,4.4370836E4,5.985329E4,8.434305E3,2.6585325E3,4.632144E3,8.625223E2,1.3754692E3,3.0398828E2,4.18237E3,5.252083E0,4.1088333E2,2.9797452E2],"tree_param":{"num_deleted":"0","num_feature":"334","num_nodes":"127","size_leaf_vector":"1"}},{"base_weights":[-1.8710174E-5,-7.145272E-1,3.7875935E-1,-3.4959188E-1,-1.6253076E0,1.3301593E0,2.1983169E-1,-6.686819E-1,1.1595001E-1,-1.3523973E0,-1.7748365E0,1.4353861E-1,1.5739331E0,3.0176073E-1,-1.0144598E0,-1.6126243E0,-5.326939E-1,-1.9066364E-1,2.920155E-1,-1.6766028E0,-1.1246508E0,-1.7780099E0,-5.070322E-1,1.2369971E0,-2.3846199E-1,1.407359E0,1.7525202E0,-1.1403842E-1,4.8167354E-1,-5.4153085E-1,-1.7260481E0,-1.122761E0,-1.6911086E0,-7.246984E-1,-7.853818E-2,-7.985686E-1,1.9411843E-2,4.7542867E-1,1.3389859E-1,-1.6834646E0,1.0318096E0,-1.267409E0,-5.5423933E-1,-1.7788388E0,8.336081E-2,-1.558201E0,1.0156708E0,6.507347E-1,1.6788281E0,3.726097E-1,-6.5094143E-1,1.4520848E0,3.419442E-1,1.7702905E0,8.3663493E-1,1.4978942E-1,-3.485108E-1,4.2042097E-1,1.0868117E0,-1.630674E-1,-8.3010167E-1,-1.7827804E0,-1.3833386E0,2.710768E-2,-6.3034326E-2,4.664939E-2,-8.525786E-2,-1.557525E-2,-4.8968073E-2,-1.0944807E-2,7.923591E-3,1.4440079E-2,-4.6712566E-2,-8.879887E-3,1.2111762E-2,2.4695283E-2,-6.224809E-2,-3.72124E-2,8.3732335E-3,-8.460518E-2,7.942102E-3,-6.4053014E-2,8.788239E-2,-4.9540884E-4,-6.52522E-2,-3.5833415E-2,2.0943625E-2,-8.918556E-2,-5.766014E-2,-8.864656E-2,3.958345E-2,9.3211226E-2,-6.295393E-2,-3.3211958E-2,4.1424032E-2,8.5157715E-2,-2.3122868E-2,2.8501725E-2,-5.549497E-2,-4.1413855E-2,5.281969E-3,8.822755E-2,6.800723E-2,2.762503E-2,-3.9310407E-2,8.8604316E-2,-7.794723E-2,4.6724778E-2,-7.374585E-2,2.147141E-2,-7.712549E-3,-3.64802E-2,-5.563484E-3,-6.8996004E-3,2.3795914E-2,5.0369807E-2,7.588994E-2,-1.7508231E-2,3.1133521E-2,-5.04393E-2,-1.1555194E-2,-8.93886E-2,7.620667E-2,7.211589E-2,-7.0921585E-2],"categories":[],"categories_nodes":[],"categories_segments":[],"categories_sizes":[],"default_left":[0,0,0,0,0,0,0,0,0,0,0,0,0,0,0,0,0,0,0,0,0,0,0,0,0,0,0,0,0,0,0,0,0,0,0,0,0,0,0,0,0,0,0,0,0,0,0,0,0,0,0,0,0,0,0,0,0,0,0,0,0,0,0,0,0,0,0,0,0,0,0,0,0,0,0,0,0,0,0,0,0,0,0,0,0,0,0,0,0,0,0,0,0,0,0,0,0,0,0,0,0,0,0,0,0,0,0,0,0,0,0,0,0,0,0,0,0,0,0,0,0,0,0,0,0],"id":2,"left_children":[1,3,5,7,9,11,13,15,17,19,21,23,25,27,29,31,33,35,37,39,41,43,45,47,49,51,53,55,57,59,61,63,65,67,69,71,73,75,77,79,81,83,85,87,-1,89,91,93,95,97,99,101,103,105,107,109,111,113,115,117,119,121,123,-1,-1,-1,-1,-1,-1,-1,-1,-1,-1,-1,-1,-1,-1,-1,-1,-1,-1,-1,-1,-1,-1,-1,-1,-1,-1,-1,-1,-1,-1,-1,-1,-1,-1,-1,-1,-1,-1,-1,-1,-1,-1,-1,-1,-1,-1,-1,-1,-1,-1,-1,-1,-1,-1,-1,-1,-1,-1,-1,-1,-1,-1],"loss_changes":[7.773591E4,3.3075188E4,2.8383172E4,1.0554145E4,1.1592734E3,7.772035E3,1.626604E4,5.4102734E3,1.5598722E3,7.424199E2,7.307031E1,1.9134492E3,6.6060547E2,1.1283848E4,3.368537E3,2.0216211E2,3.2130527E3,1.3460603E3,5.322395E2,7.899902E1,4.8170264E2,5.534375E1,7.73034E1,3.0611243E2,8.560194E2,5.4929297E2,1.7352344E2,2.8181443E3,3.9019824E3,6.569263E2,7.524902E1,1.6967773E2,1.7016504E2,2.7248506E3,3.6430917E2,3.9965002E2,3.4395197E2,2.7072278E2,2.9071472E2,6.627344E1,2.0929787E1,2.2419238E2,1.8801855E2,5.384375E1,0E0,1.5724571E1,4.080863E1,1.2006166E2,3.5982544E1,4.012777E2,2.7209302E2,3.1569727E2,1.1116252E2,6.582031E1,4.810318E1,1.8226448E3,2.1806343E3,2.9629707E3,3.2967383E2,3.8303098E2,3.650974E2,5.927539E1,5.8782104E1,0E0,0E0,0E0,0E0,0E0,0E0,0E0,0E0,0E0,0E0,0E0,0E0,0E0,0E0,0E0,0E0,0E0,0E0,0E0,0E0,0E0,0E0,0E0,0E0,0E0,0E0,0E0,0E0,0E0,0E0,0E0,0E0,0E0,0E0,0E0,0E0,0E0,0E0,0E0,0E0,0E0,0E0,0E0,0E0,0E0,0E0,0E0,0E0,0E0,0E0,0E0,0E0,0E0,0E0,0E0,0E0,0E0,0E0,0E0,0E0,0E0,0E0],"parents":[2147483647,0,0,1,1,2,2,3,3,4,4,5,5,6,6,7,7,8,8,9,9,10,10,11,11,12,12,13,13,14,14,15,15,16,16,17,17,18,18,19,19,20,20,21,21,22,22,23,23,24,24,25,25,26,26,27,27,28,28,29,29,30,30,31,31,32,32,33,33,34,34,35,35,36,36,37,37,38,38,39,39,40,40,41,41,42,42,43,43,45,45,46,46,47,47,48,48,49,49,50,50,51,51,52,52,53,53,54,54,55,55,56,56,57,57,58,58,59,59,60,60,61,61,62,62],"right_children":[2,4,6,8,10,12,14,16,18,20,22,24,26,28,30,32,34,36,38,40,42,44,46,48,50,52,54,56,58,60,62,64,66,68,70,72,74,76,78,80,82,84,86,88,-1,90,92,94,96,98,100,102,104,106,108,110,112,114,116,118,120,122,124,-1,-1,-1,-1,-1,-1,-1,-1,-1,-1,-1,-1,-1,-1,-1,-1,-1,-1,-1,-1,-1,-1,-1,-1,-1,-1,-1,-1,-1,-1,-1,-1,-1,-1,-1,-1,-1,-1,-1,-1,-1,-1,-1,-1,-1,-1,-1,-1,-1,-1,-1,-1,-1,-1,-1,-1,-1,-1,-1,-1,-1,-1],"split_conditions":[0E0,1E0,6.0711113E1,2E0,1.1477781E3,1.3434143E1,1E0,5.642619E1,3E0,5.642619E1,1E0,1E0,3E0,1E0,1.4166924E3,1E0,4E0,3E0,-6.810679E2,2E0,1E0,3E0,2.4225246E2,1E0,1E0,2E0,3E0,3E0,5.9E1,6.8372363E2,1E0,-1.8431631E3,-2.9318076E3,3E0,1E0,1.4E1,4E0,6E0,-4.7E1,2E0,1E0,-2.100348E3,1.7E1,1E0,8.336081E-2,3.8507993E2,-2.3533022E3,4E0,2.983083E3,1.6661185E3,4E0,1E0,1E0,4E0,2.350085E3,4E0,4E0,-1.5E1,1.48E2,4E0,1E0,1E0,-2.2066394E3,2.710768E-2,-6.3034326E-2,4.664939E-2,-8.525786E-2,-1.557525E-2,-4.8968073E-2,-1.0944807E-2,7.923591E-3,1.4440079E-2,-4.6712566E-2,-8.879887E-3,1.2111762E-2,2.4695283E-2,-6.224809E-2,-3.72124E-2,8.3732335E-3,-8.460518E-2,7.942102E-3,-6.4053014E-2,8.788239E-2,-4.9540884E-4,-6.52522E-2,-3.5833415E-2,2.0943625E-2,-8.918556E-2,-5.766014E-2,-8.864656E-2,3.958345E-2,9.3211226E-2,-6.295393E-2,-3.3211958E-2,4.1424032E-2,8.5157715E-2,-2.3122868E-2,2.8501725E-2,-5.549497E-2,-4.1413855E-2,5.281969E-3,8.822755E-2,6.800723E-2,2.762503E-2,-3.9310407E-2,8.8604316E-2,-7.794723E-2,4.6724778E-2,-7.374585E-2,2.147141E-2,-7.712549E-3,-3.64802E-2,-5.563484E-3,-6.8996004E-3,2.3795914E-2,5.0369807E-2,7.588994E-2,-1.7508231E-2,3.1133521E-2,-5.04393E-2,-1.1555194E-2,-8.93886E-2,7.620667E-2,7.211589E-2,-7.0921585E-2],"split_indices":[79,2,20,39,77,75,2,55,52,55,320,13,48,39,76,12,48,48,110,37,119,44,89,42,2,17,17,13,154,77,3,110,131,13,39,1,48,144,154,50,8,89,154,178,0,75,145,0,96,125,151,13,2,15,145,17,48,154,154,52,119,42,89,0,0,0,0,0,0,0,0,0,0,0,0,0,0,0,0,0,0,0,0,0,0,0,0,0,0,0,0,0,0,0,0,0,0,0,0,0,0,0,0,0,0,0,0,0,0,0,0,0,0,0,0,0,0,0,0,0,0,0,0,0,0],"split_type":[0,0,0,0,0,0,0,0,0,0,0,0,0,0,0,0,0,0,0,0,0,0,0,0,0,0,0,0,0,0,0,0,0,0,0,0,0,0,0,0,0,0,0,0,0,0,0,0,0,0,0,0,0,0,0,0,0,0,0,0,0,0,0,0,0,0,0,0,0,0,0,0,0,0,0,0,0,0,0,0,0,0,0,0,0,0,0,0,0,0,0,0,0,0,0,0,0,0,0,0,0,0,0,0,0,0,0,0,0,0,0,0,0,0,0,0,0,0,0,0,0,0,0,0,0],"sum_hessian":[2.8722775E5,9.951209E4,1.8771567E5,7.1046336E4,2.8465764E4,2.6867783E4,1.6084788E5,4.215332E4,2.8893012E4,1.0079459E4,1.8386303E4,4.5791914E3,2.2288592E4,1.508365E5,1.0011376E4,5.306703E3,3.6846617E4,1.053919E4,1.8353822E4,4.156362E3,5.9230977E3,1.8339996E4,4.630722E1,1.1849863E3,3.394205E3,1.1536756E4,1.0751835E4,4.555471E4,1.0528179E5,6.0153037E3,3.9960725E3,7.349281E2,4.5717754E3,2.5897342E4,1.0949276E4,2.7059778E3,7.833213E3,8.4962705E3,9.857551E3,4.146236E3,1.0126087E1,4.7364688E3,1.1866287E3,1.8336068E4,3.9279776E0,2.7381569E1,1.8925652E1,5.103196E2,6.746667E2,1.367865E3,2.0263401E3,1.107161E4,4.6514584E2,1.054628E4,2.0555531E2,2.1435686E4,2.4119027E4,9.560616E4,9.675637E3,2.6030037E3,3.4123E3,3.4249097E3,5.711627E2,5.6001137E1,6.7892694E2,2.3997002E1,4.5477783E3,9.875866E3,1.6021475E4,6.876859E3,4.0724175E3,3.0006985E2,2.405908E3,4.1575303E3,3.6756826E3,8.406695E3,8.9574875E1,3.6214117E2,9.49541E3,4.1269653E3,1.9270473E1,2.2360418E0,7.8900456E0,1.376726E2,4.5987964E3,1.0171179E3,1.6951074E2,1.8192535E4,1.4353311E2,2.5313911E1,2.067657E0,1.391528E1,5.0103707E0,6.044049E1,4.4987912E2,6.672905E2,7.3761663E0,1.2076575E3,1.6020752E2,1.6414943E3,3.8484595E2,2.5129517E3,8.558659E3,3.924162E2,7.272963E1,1.0541062E4,5.2179003E0,1.9777802E2,7.777299E0,1.1165704E4,1.026998E4,9.253138E3,1.486589E4,8.642631E3,8.696352E4,8.1729834E3,1.5026536E3,2.1028376E3,5.001662E2,2.6277454E3,7.845549E2,3.4202065E3,4.703276E0,6.514603E0,5.6464813E2],"tree_param":{"num_deleted":"0","num_feature":"334","num_nodes":"125","size_leaf_vector":"1"}},{"base_weights":[-3.820757E-5,-6.813868E-1,3.605374E-1,-3.3263928E-1,-1.5583208E0,1.2733269E0,2.0903943E-1,-7.8363204E-1,-3.0971508E-2,-1.2947384E0,-1.7048899E0,1.3677752E-1,1.50814E0,2.8688622E-1,-9.685444E-1,-9.6721536E-1,-2.0798793E-1,-3.7416235E-1,2.158954E-1,-1.6085118E0,-1.0752864E0,-1.7079691E0,-4.7163755E-1,1.182562E0,-2.2692865E-1,1.3463175E0,1.682213E0,-1.0835853E-1,4.5803425E-1,-5.0450903E-1,-1.6410835E0,-1.3586907E0,-7.3499334E-1,1.1580318E-1,-3.984315E-1,-9.765576E-1,1.4684586E-2,-5.313272E-1,2.4751575E-1,-1.6153193E0,1.0157356E0,-1.2116183E0,-5.3055954E-1,-1.5839126E0,-1.73304E0,-1.4898572E0,9.688928E-1,1.3777966E0,-8.7790646E-2,3.5434258E-1,-6.19605E-1,1.3894339E0,3.252134E-1,1.699541E0,7.964077E-1,3.6416724E-1,-2.3049992E-1,6.738524E-1,2.8820086E-1,-1.5397201E-1,-7.8043956E-1,-1.4092836E0,-1.7423002E0,-8.126762E-2,-5.5970162E-2,-1.7153425E-2,-4.5089517E-2,-8.8486485E-3,3.172633E-2,-1.040086E-3,-2.8103242E-2,1.1716385E-2,-5.2704155E-2,-9.208155E-3,1.3131136E-2,8.626372E-2,-2.8420134E-2,1.840335E-2,4.5051835E-3,-8.118098E-2,7.565205E-3,-6.2105745E-2,8.508507E-2,-7.822974E-4,-6.2372733E-2,-3.2652043E-2,3.7609726E-2,-8.216156E-2,-5.535041E-2,-8.6677484E-2,6.4941324E-2,-8.5113E-2,3.8191333E-2,8.906807E-2,-6.0503036E-2,4.6669435E-2,8.05239E-2,-3.8109265E-2,4.185296E-2,2.805145E-2,-4.994889E-2,-3.9437268E-2,5.0187013E-3,8.470152E-2,6.500923E-2,7.9564944E-2,6.8724263E-3,8.506373E-2,-7.515883E-2,1.7591415E-2,6.6055916E-2,3.5099484E-2,6.492796E-3,8.9855044E-4,-2.1754146E-2,4.423569E-2,2.0152312E-2,-2.0934341E-2,1.7059775E-2,-1.6577648E-2,2.9550469E-2,-4.7542553E-2,-1.0607898E-2,-7.861472E-2,-4.784968E-2,-8.727694E-2,6.444376E-2],"categories":[],"categories_nodes":[],"categories_segments":[],"categories_sizes":[],"default_left":[0,0,0,0,0,0,0,0,0,0,0,0,0,0,0,0,0,0,0,0,0,0,0,0,0,0,0,0,0,0,0,0,0,0,0,0,0,0,0,0,0,0,0,0,0,0,0,0,0,0,0,0,0,0,0,0,0,0,0,0,0,0,0,0,0,0,0,0,0,0,0,0,0,0,0,0,0,0,0,0,0,0,0,0,0,0,0,0,0,0,0,0,0,0,0,0,0,0,0,0,0,0,0,0,0,0,0,0,0,0,0,0,0,0,0,0,0,0,0,0,0,0,0,0,0,0,0],"id":3,"left_children":[1,3,5,7,9,11,13,15,17,19,21,23,25,27,29,31,33,35,37,39,41,43,45,47,49,51,53,55,57,59,61,63,65,67,69,71,73,75,77,79,81,83,85,87,89,91,93,95,97,99,101,103,105,107,109,111,113,115,117,119,121,123,125,-1,-1,-1,-1,-1,-1,-1,-1,-1,-1,-1,-1,-1,-1,-1,-1,-1,-1,-1,-1,-1,-1,-1,-1,-1,-1,-1,-1,-1,-1,-1,-1,-1,-1,-1,-1,-1,-1,-1,-1,-1,-1,-1,-1,-1,-1,-1,-1,-1,-1,-1,-1,-1,-1,-1,-1,-1,-1,-1,-1,-1,-1,-1,-1],"loss_changes":[7.039139E4,3.0323871E4,2.5909562E4,9.651803E3,1.0877266E3,7.117535E3,1.4731354E4,3.0046816E3,3.6016409E3,6.9277734E2,6.803516E1,1.7376664E3,6.20375E2,1.019632E4,3.1089434E3,1.9588594E3,4.2409244E2,4.1661143E3,5.8433093E2,7.5759766E1,4.403413E2,5.3496094E1,6.969321E1,2.9249268E2,7.7398175E2,5.0408594E2,1.6203125E2,2.6288599E3,3.8551523E3,5.703324E2,9.298535E1,5.1029102E2,8.844155E2,3.87005E2,2.675636E2,6.5520996E2,5.329839E2,8.499249E1,4.501266E2,6.0932617E1,1.969068E1,2.035039E2,1.875257E2,8.450586E1,2.5476562E1,1.453849E1,3.7341156E1,1.04162964E2,9.916988E1,3.830396E2,2.465028E2,2.9670703E2,1.1046655E2,6.0523438E1,4.7617447E1,7.40458E2,1.8398018E3,2.644664E3,2.2053052E3,3.4402063E2,3.1935742E2,9.0036865E1,3.0004883E1,0E0,0E0,0E0,0E0,0E0,0E0,0E0,0E0,0E0,0E0,0E0,0E0,0E0,0E0,0E0,0E0,0E0,0E0,0E0,0E0,0E0,0E0,0E0,0E0,0E0,0E0,0E0,0E0,0E0,0E0,0E0,0E0,0E0,0E0,0E0,0E0,0E0,0E0,0E0,0E0,0E0,0E0,0E0,0E0,0E0,0E0,0E0,0E0,0E0,0E0,0E0,0E0,0E0,0E0,0E0,0E0,0E0,0E0,0E0,0E0,0E0,0E0,0E0,0E0],"parents":[2147483647,0,0,1,1,2,2,3,3,4,4,5,5,6,6,7,7,8,8,9,9,10,10,11,11,12,12,13,13,14,14,15,15,16,16,17,17,18,18,19,19,20,20,21,21,22,22,23,23,24,24,25,25,26,26,27,27,28,28,29,29,30,30,31,31,32,32,33,33,34,34,35,35,36,36,37,37,38,38,39,39,40,40,41,41,42,42,43,43,44,44,45,45,46,46,47,47,48,48,49,49,50,50,51,51,52,52,53,53,54,54,55,55,56,56,57,57,58,58,59,59,60,60,61,61,62,62],"right_children":[2,4,6,8,10,12,14,16,18,20,22,24,26,28,30,32,34,36,38,40,42,44,46,48,50,52,54,56,58,60,62,64,66,68,70,72,74,76,78,80,82,84,86,88,90,92,94,96,98,100,102,104,106,108,110,112,114,116,118,120,122,124,126,-1,-1,-1,-1,-1,-1,-1,-1,-1,-1,-1,-1,-1,-1,-1,-1,-1,-1,-1,-1,-1,-1,-1,-1,-1,-1,-1,-1,-1,-1,-1,-1,-1,-1,-1,-1,-1,-1,-1,-1,-1,-1,-1,-1,-1,-1,-1,-1,-1,-1,-1,-1,-1,-1,-1,-1,-1,-1,-1,-1,-1,-1,-1,-1],"split_conditions":[0E0,1E0,6.0711113E1,1E0,1.1526813E3,1.3434143E1,1E0,4E0,3E0,5.642619E1,1E0,1E0,3E0,1E0,1.3813167E3,-2.2163516E2,-7.395093E1,3E0,-4.2E1,2E0,1E0,1.362273E3,2.4225246E2,1E0,1E0,2E0,3E0,3E0,3E0,6.8372363E2,1.825172E3,2.9236194E2,1E1,4.1425168E2,3.1644736E2,1.45E1,4E0,-2.5356365E3,7.112068E2,2E0,1E0,-2.100348E3,4E0,2E0,3E0,3.8507993E2,-2.3533022E3,1E0,7.718289E2,1.216E3,4E0,1E0,-1.328E3,4E0,1E0,2.4268238E1,4E0,4E0,-2.1E1,4E0,1E0,1E0,1E0,-8.126762E-2,-5.5970162E-2,-1.7153425E-2,-4.5089517E-2,-8.8486485E-3,3.172633E-2,-1.040086E-3,-2.8103242E-2,1.1716385E-2,-5.2704155E-2,-9.208155E-3,1.3131136E-2,8.626372E-2,-2.8420134E-2,1.840335E-2,4.5051835E-3,-8.118098E-2,7.565205E-3,-6.2105745E-2,8.508507E-2,-7.822974E-4,-6.2372733E-2,-3.2652043E-2,3.7609726E-2,-8.216156E-2,-5.535041E-2,-8.6677484E-2,6.4941324E-2,-8.5113E-2,3.8191333E-2,8.906807E-2,-6.0503036E-2,4.6669435E-2,8.05239E-2,-3.8109265E-2,4.185296E-2,2.805145E-2,-4.994889E-2,-3.9437268E-2,5.0187013E-3,8.470152E-2,6.500923E-2,7.9564944E-2,6.8724263E-3,8.506373E-2,-7.515883E-2,1.7591415E-2,6.6055916E-2,3.5099484E-2,6.492796E-3,8.9855044E-4,-2.1754146E-2,4.423569E-2,2.0152312E-2,-2.0934341E-2,1.7059775E-2,-1.6577648E-2,2.9550469E-2,-4.7542553E-2,-1.0607898E-2,-7.861472E-2,-4.784968E-2,-8.727694E-2,6.444376E-2],"split_indices":[79,2,20,39,77,75,2,48,52,55,320,13,48,39,76,79,146,48,154,37,119,77,89,52,2,17,17,0,13,77,76,55,1,152,125,1,48,117,54,50,8,89,39,39,44,75,145,42,124,95,151,13,125,15,119,153,17,17,154,52,119,3,42,0,0,0,0,0,0,0,0,0,0,0,0,0,0,0,0,0,0,0,0,0,0,0,0,0,0,0,0,0,0,0,0,0,0,0,0,0,0,0,0,0,0,0,0,0,0,0,0,0,0,0,0,0,0,0,0,0,0,0,0,0,0,0,0],"split_type":[0,0,0,0,0,0,0,0,0,0,0,0,0,0,0,0,0,0,0,0,0,0,0,0,0,0,0,0,0,0,0,0,0,0,0,0,0,0,0,0,0,0,0,0,0,0,0,0,0,0,0,0,0,0,0,0,0,0,0,0,0,0,0,0,0,0,0,0,0,0,0,0,0,0,0,0,0,0,0,0,0,0,0,0,0,0,0,0,0,0,0,0,0,0,0,0,0,0,0,0,0,0,0,0,0,0,0,0,0,0,0,0,0,0,0,0,0,0,0,0,0,0,0,0,0,0,0],"sum_hessian":[2.8651725E5,9.915386E4,1.8736339E5,7.094224E4,2.8211617E4,2.6669535E4,1.6069386E5,2.8433145E4,4.2509098E4,1.0085033E4,1.8126584E4,4.5667935E3,2.2102742E4,1.5073025E5,9.963601E3,2.1557414E4,6.8757295E3,1.7784637E4,2.472446E4,4.1479487E3,5.9370845E3,1.8081055E4,4.5530407E1,1.1778383E3,3.388955E3,1.1458952E4,1.0643789E4,4.554657E4,1.0518368E5,5.896743E3,4.0668572E3,8.024693E3,1.3532722E4,2.5465283E3,4.329201E3,6.976008E3,1.0808629E4,1.0031502E3,2.372131E4,4.1376E3,1.0348706E1,4.7476416E3,1.189443E3,3.050532E3,1.5030521E4,2.6655254E1,1.887515E1,1.0208621E3,1.5697614E2,1.3663988E3,2.0225563E3,1.0994354E4,4.6459958E2,1.0438672E4,2.0511784E2,9.35461E3,3.619196E4,4.6319527E4,5.8864156E4,2.597934E3,3.2988088E3,1.2406119E3,2.826245E3,3.7925215E3,4.2321714E3,4.0408782E3,9.491843E3,1.6282024E3,9.183258E2,1.3091343E3,3.0200671E3,4.196348E2,6.556373E3,5.9982544E3,4.810374E3,1.54791155E1,9.876711E2,1.3432745E4,1.0288566E4,4.118331E3,1.9268877E1,2.2225268E0,8.12618E0,1.3816232E2,4.609479E3,1.0862184E3,1.0322455E2,2.7108982E3,3.3963385E2,1.5028424E4,2.097614E0,2.4583054E1,2.0722003E0,1.3881581E1,4.99357E0,3.525408E2,6.6832135E2,9.0881676E1,6.609446E1,1.1858716E3,1.8052731E2,1.6377208E3,3.8483548E2,2.4873523E3,8.507001E3,5.9037678E1,4.055619E2,1.0433492E4,5.178954E0,1.11941795E2,9.3176056E1,3.8302642E3,5.5243457E3,1.6343409E4,1.984855E4,2.6040777E4,2.027875E4,4.1047383E3,5.4759418E4,2.0983145E3,4.996195E2,2.537278E3,7.615308E2,9.101182E2,3.3049377E2,2.8236523E3,2.5928931E0],"tree_param":{"num_deleted":"0","num_feature":"334","num_nodes":"127","size_leaf_vector":"1"}},{"base_weights":[-6.394483E-5,-7.8054285E-1,2.869071E-1,-4.1553327E-1,-1.530671E0,1.2228812E0,1.5538071E-1,-8.552441E-1,-9.514475E-2,-1.2980607E0,-1.6466407E0,9.019298E-2,1.4736896E0,2.3968682E-1,-9.808056E-1,-1.1891557E0,-5.1512945E-1,-4.507369E-1,1.8977624E-1,-1.4115276E0,-7.3751307E-1,-1.6508425E0,-5.653229E-1,1.132924E0,-2.5854617E-1,1.3188037E0,1.6440625E0,-1.3519098E-1,4.0562645E-1,-5.8505505E-1,-1.5785711E0,-3.1316623E-1,-1.3236262E0,-7.4295986E-1,-2.4176656E-1,-1.0057406E0,-2.9224444E-2,2.5526464E-1,-2.4269427E-1,-1.4231983E0,8.51963E-1,-1.1534175E0,-4.056236E-1,-1.6514658E0,8.74969E-2,-1.4257625E0,3.492963E-1,1.3215045E0,-8.34044E-2,2.6928982E-1,-6.175931E-1,1.6316488E0,1.2291704E0,1.6581924E0,1.292819E0,-3.7083474E-1,1.069546E-1,3.5048062E-1,9.887263E-1,-9.7374475E-1,-3.4311146E-1,-1.6400707E0,-1.2143975E0,-2.525994E-2,1.9330107E-2,-5.116106E-2,-7.5339355E-2,-3.4570638E-2,-7.219691E-2,5.905515E-3,-2.1545876E-2,-7.2566494E-2,-4.2596694E-2,-1.2057847E-2,1.2725212E-2,-2.0360148E-2,1.4287308E-2,-1.563174E-2,5.663042E-2,-7.822538E-2,-6.300685E-2,1.04232945E-1,-7.9942435E-2,-6.6438384E-2,6.017492E-3,-2.7864894E-2,5.70048E-2,-7.793582E-2,-8.3852224E-2,-7.835017E-2,6.084597E-2,6.8696074E-2,-2.2774732E-2,4.4512194E-2,7.746124E-2,-3.622348E-2,3.9835315E-2,2.2391206E-2,-5.3717326E-2,-5.033456E-2,-1.709949E-2,8.239936E-2,4.1821934E-2,7.039016E-2,4.1118287E-2,8.298256E-2,-6.969049E-2,-4.555374E-2,6.7526236E-2,-6.869907E-3,-3.474403E-2,2.3666373E-2,-4.96987E-3,-1.6322037E-2,1.9515114E-2,1.3348713E-2,5.2151676E-2,-3.579786E-2,-6.62237E-2,-8.868785E-3,-4.9051277E-2,-8.221131E-2,7.569311E-2,-4.770941E-2,-7.99669E-2],"categories":[],"categories_nodes":[],"categories_segments":[],"categories_sizes":[],"default_left":[0,0,0,0,0,0,0,0,0,0,0,0,0,0,0,0,0,0,0,0,0,0,0,0,0,0,0,0,0,0,0,0,0,0,0,0,0,0,0,0,0,0,0,0,0,0,0,0,0,0,0,0,0,0,0,0,0,0,0,0,0,0,0,0,0,0,0,0,0,0,0,0,0,0,0,0,0,0,0,0,0,0,0,0,0,0,0,0,0,0,0,0,0,0,0,0,0,0,0,0,0,0,0,0,0,0,0,0,0,0,0,0,0,0,0,0,0,0,0,0,0,0,0,0,0],"id":4,"left_children":[1,3,5,7,9,11,13,15,17,19,21,23,25,27,29,31,33,35,37,39,41,43,45,47,49,51,53,55,57,59,61,63,65,67,69,71,73,75,77,79,81,83,85,87,-1,89,91,93,95,97,99,101,103,105,107,109,111,113,115,117,119,121,123,-1,-1,-1,-1,-1,-1,-1,-1,-1,-1,-1,-1,-1,-1,-1,-1,-1,-1,-1,-1,-1,-1,-1,-1,-1,-1,-1,-1,-1,-1,-1,-1,-1,-1,-1,-1,-1,-1,-1,-1,-1,-1,-1,-1,-1,-1,-1,-1,-1,-1,-1,-1,-1,-1,-1,-1,-1,-1,-1,-1,-1,-1],"loss_changes":[6.3964734E4,2.1021242E4,2.5705643E4,7.275948E3,6.7577734E2,7.3087305E3,1.7537508E4,2.471745E3,3.0272783E3,5.310293E2,7.524609E1,1.6967129E3,5.5365625E2,1.0602591E4,2.9909033E3,1.2934775E3,6.716067E2,3.109365E3,4.6987714E2,1.8496777E2,1.942121E2,3.8289062E1,5.276876E1,2.683379E2,6.628557E2,3.0751953E2,4.7617188E1,2.9841033E3,3.7986191E3,7.153938E2,1.1082129E2,1.9680212E2,5.2239453E2,2.1156519E2,3.339232E2,3.9195947E2,4.5436475E2,2.9104376E2,2.1025114E2,1.5749805E2,1.1302157E2,1.3985004E2,1.8489983E2,3.7003906E1,0E0,1.4754471E1,2.7837496E1,9.8052734E1,8.966924E1,3.4023285E2,2.2285858E2,3.0520996E1,6.2263184E2,4.5208984E1,5.111859E1,2.0048142E3,1.9500719E3,2.9096963E3,3.9981055E2,2.6300146E2,4.9593622E2,5.892871E1,7.175403E1,0E0,0E0,0E0,0E0,0E0,0E0,0E0,0E0,0E0,0E0,0E0,0E0,0E0,0E0,0E0,0E0,0E0,0E0,0E0,0E0,0E0,0E0,0E0,0E0,0E0,0E0,0E0,0E0,0E0,0E0,0E0,0E0,0E0,0E0,0E0,0E0,0E0,0E0,0E0,0E0,0E0,0E0,0E0,0E0,0E0,0E0,0E0,0E0,0E0,0E0,0E0,0E0,0E0,0E0,0E0,0E0,0E0,0E0,0E0,0E0,0E0,0E0],"parents":[2147483647,0,0,1,1,2,2,3,3,4,4,5,5,6,6,7,7,8,8,9,9,10,10,11,11,12,12,13,13,14,14,15,15,16,16,17,17,18,18,19,19,20,20,21,21,22,22,23,23,24,24,25,25,26,26,27,27,28,28,29,29,30,30,31,31,32,32,33,33,34,34,35,35,36,36,37,37,38,38,39,39,40,40,41,41,42,42,43,43,45,45,46,46,47,47,48,48,49,49,50,50,51,51,52,52,53,53,54,54,55,55,56,56,57,57,58,58,59,59,60,60,61,61,62,62],"right_children":[2,4,6,8,10,12,14,16,18,20,22,24,26,28,30,32,34,36,38,40,42,44,46,48,50,52,54,56,58,60,62,64,66,68,70,72,74,76,78,80,82,84,86,88,-1,90,92,94,96,98,100,102,104,106,108,110,112,114,116,118,120,122,124,-1,-1,-1,-1,-1,-1,-1,-1,-1,-1,-1,-1,-1,-1,-1,-1,-1,-1,-1,-1,-1,-1,-1,-1,-1,-1,-1,-1,-1,-1,-1,-1,-1,-1,-1,-1,-1,-1,-1,-1,-1,-1,-1,-1,-1,-1,-1,-1,-1,-1,-1,-1,-1,-1,-1,-1,-1,-1,-1,-1,-1,-1],"split_conditions":[-5.311039E1,1E0,4.770254E1,1E0,1.1477781E3,1.3434143E1,1E0,3E0,3E0,3E0,1.39E2,1E0,3E0,1E0,1.3582983E3,6.5E0,4E0,3E0,8.7816614E2,2.5688628E3,1E0,2E1,2E0,1E0,1E0,1E0,2E0,4E0,5.9E1,1E0,1E0,1E0,3E0,1.648911E3,-2.0254181E2,5.642619E1,4E0,-3.7E1,1E0,5.642619E1,6.2522253E2,1E0,2E0,1.4294431E3,8.74969E-2,1E0,-6.7113403E2,1E0,7.718289E2,1.6661185E3,-1.06278564E2,8.228913E2,1E0,4E0,-2.291768E3,3E0,3E0,-4.7E1,3E0,2E0,1.0141714E3,1E0,1.8519154E3,-2.525994E-2,1.9330107E-2,-5.116106E-2,-7.5339355E-2,-3.4570638E-2,-7.219691E-2,5.905515E-3,-2.1545876E-2,-7.2566494E-2,-4.2596694E-2,-1.2057847E-2,1.2725212E-2,-2.0360148E-2,1.4287308E-2,-1.563174E-2,5.663042E-2,-7.822538E-2,-6.300685E-2,1.04232945E-1,-7.9942435E-2,-6.6438384E-2,6.017492E-3,-2.7864894E-2,5.70048E-2,-7.793582E-2,-8.3852224E-2,-7.835017E-2,6.084597E-2,6.8696074E-2,-2.2774732E-2,4.4512194E-2,7.746124E-2,-3.622348E-2,3.9835315E-2,2.2391206E-2,-5.3717326E-2,-5.033456E-2,-1.709949E-2,8.239936E-2,4.1821934E-2,7.039016E-2,4.1118287E-2,8.298256E-2,-6.969049E-2,-4.555374E-2,6.7526236E-2,-6.869907E-3,-3.474403E-2,2.3666373E-2,-4.96987E-3,-1.6322037E-2,1.9515114E-2,1.3348713E-2,5.2151676E-2,-3.579786E-2,-6.62237E-2,-8.868785E-3,-4.9051277E-2,-8.221131E-2,7.569311E-2,-4.770941E-2,-7.99669E-2],"split_indices":[79,2,20,39,77,75,2,48,52,52,81,13,48,39,76,1,48,48,117,145,39,144,48,52,2,13,17,48,154,39,3,57,13,96,146,55,48,154,236,55,153,87,68,77,0,209,95,42,124,125,102,55,2,15,146,13,13,154,48,17,53,42,76,0,0,0,0,0,0,0,0,0,0,0,0,0,0,0,0,0,0,0,0,0,0,0,0,0,0,0,0,0,0,0,0,0,0,0,0,0,0,0,0,0,0,0,0,0,0,0,0,0,0,0,0,0,0,0,0,0,0,0,0,0,0],"split_type":[0,0,0,0,0,0,0,0,0,0,0,0,0,0,0,0,0,0,0,0,0,0,0,0,0,0,0,0,0,0,0,0,0,0,0,0,0,0,0,0,0,0,0,0,0,0,0,0,0,0,0,0,0,0,0,0,0,0,0,0,0,0,0,0,0,0,0,0,0,0,0,0,0,0,0,0,0,0,0,0,0,0,0,0,0,0,0,0,0,0,0,0,0,0,0,0,0,0,0,0,0,0,0,0,0,0,0,0,0,0,0,0,0,0,0,0,0,0,0,0,0,0,0,0,0],"sum_hessian":[2.8558688E5,7.6776125E4,2.0881077E5,5.1646625E4,2.5129504E4,2.5726482E4,1.8308428E5,2.17688E4,2.9877822E4,8.364431E3,1.6765072E4,4.6640938E3,2.1062389E4,1.7043838E5,1.2645901E4,1.098331E4,1.0785491E4,1.3290364E4,1.6587459E4,6.9550576E3,1.4093737E3,1.6699652E4,6.541986E1,1.1683815E3,3.4957122E3,1.103721E4,1.0025179E4,5.229586E4,1.1814252E5,7.609808E3,5.0360933E3,1.4620847E3,9.521225E3,5.88173E3,4.9037617E3,5.7361777E3,7.5541865E3,1.4406337E4,2.181122E3,6.91975E3,3.5307404E1,6.244164E2,7.849573E2,1.6697107E4,2.5459788E0,3.3420364E1,3.1999495E1,1.0114751E3,1.5690633E2,1.4153102E3,2.080402E3,2.4541907E3,8.58302E3,9.633904E3,3.9127414E2,2.6503486E4,2.5792373E4,1.0793621E5,1.020631E4,2.9183564E3,4.6914517E3,4.3055005E3,7.3059296E2,1.1474705E3,3.1461423E2,3.6088616E3,5.912363E3,5.4806885E3,4.0104117E2,1.6895724E3,3.2141892E3,1.4697543E3,4.2664233E3,4.3242886E3,3.229898E3,6.3316327E2,1.3773174E4,2.076305E3,1.0481709E2,3.7025342E3,3.2172158E3,2.3591085E1,1.1716315E1,5.4882104E2,7.559532E1,7.153981E2,6.9559235E1,3.622766E3,1.3074341E4,3.211119E1,1.3091749E0,1.3766016E1,1.8233479E1,3.512263E2,6.6024884E2,9.088402E1,6.602231E1,1.2498981E3,1.6541219E2,8.6149133E2,1.2189106E3,2.403731E3,5.045966E1,5.9624004E3,2.620619E3,9.629758E3,4.1464405E0,9.606175E0,3.8166797E2,1.5406415E4,1.109707E4,9.292491E3,1.6499883E4,5.996447E3,1.01939766E5,7.146327E2,9.491677E3,1.6837983E3,1.234558E3,3.7249536E3,9.664981E2,4.3003135E3,5.1870446E0,4.3799744E2,2.925955E2],"tree_param":{"num_deleted":"0","num_feature":"334","num_nodes":"125","size_leaf_vector":"1"}},{"base_weights":[-9.487365E-5,-6.2416524E-1,3.28482E-1,-3.0450505E-1,-1.4452623E0,1.1628362E0,1.8827608E-1,-5.839078E-1,1.00388564E-1,-1.191443E0,-1.586532E0,1.2689973E-1,1.3748373E0,2.5853047E-1,-8.8637465E-1,-1.445668E0,-4.6196127E-1,-6.786404E-1,1.5325238E-1,-1.4936199E0,-9.830123E-1,-1.5903263E0,-6.2008023E-1,1.0873141E0,-2.0033786E-1,1.4087836E0,3.2601807E-1,-1.0008097E-1,4.139708E-1,-4.6471557E-1,-1.5402278E0,-9.7139585E-1,-1.5221639E0,-6.281611E-1,-7.194575E-2,-1.2576482E-1,-7.994277E-1,1.9731139E-1,-6.4237136E-1,-1.5001043E0,9.96014E-1,-1.1145549E0,-4.641861E-1,-1.4896476E0,-1.6198459E0,-1.2656726E0,4.50961E-1,1.2699988E0,-7.929355E-2,3.2352686E-1,-5.6075305E-1,1.2525067E0,1.5774062E0,-7.9699606E-4,1.201709E0,-1.6860357E-1,6.7465407E-1,6.1902887E-1,2.544145E-1,-6.008316E-1,2.0107816E-1,-1.3302928E0,-1.624232E0,3.09552E-2,-5.5254277E-2,4.9328726E-2,-7.6795034E-2,-1.2552761E-2,-4.3110184E-2,-5.0165667E-3,5.244344E-2,-1.3251667E-2,5.7151925E-2,-3.092426E-2,-6.154212E-2,2.1797223E-2,3.8896953E-3,2.7395706E-4,-4.838034E-2,-7.542261E-2,1.0753459E-2,-5.8118667E-2,8.2931094E-2,-9.15863E-4,-5.769956E-2,7.750263E-2,-2.6997415E-2,-7.703813E-2,-5.4624885E-2,-8.103807E-2,-8.844396E-3,-8.015649E-2,-8.3788636E-4,7.888917E-2,-3.181793E-2,4.2490922E-2,7.47067E-2,-3.4454584E-2,3.794411E-2,2.5735974E-2,-4.7638584E-2,-3.6115993E-2,6.119937E-3,7.8805976E-2,5.8166016E-2,7.897695E-2,-6.752077E-2,6.7326925E-3,-6.2057383E-2,6.8628356E-2,-2.1732086E-2,-1.9904329E-2,2.0803318E-3,2.7626304E-2,6.639438E-2,4.094894E-2,1.816825E-2,-1.9659614E-2,1.5151883E-2,-2.0360148E-2,-6.81089E-2,-4.534189E-3,4.93242E-2,-7.372254E-2,-4.6274234E-2,-8.136507E-2,6.0368437E-2],"categories":[],"categories_nodes":[],"categories_segments":[],"categories_sizes":[],"default_left":[0,0,0,0,0,0,0,0,0,0,0,0,0,0,0,0,0,0,0,0,0,0,0,0,0,0,0,0,0,0,0,0,0,0,0,0,0,0,0,0,0,0,0,0,0,0,0,0,0,0,0,0,0,0,0,0,0,0,0,0,0,0,0,0,0,0,0,0,0,0,0,0,0,0,0,0,0,0,0,0,0,0,0,0,0,0,0,0,0,0,0,0,0,0,0,0,0,0,0,0,0,0,0,0,0,0,0,0,0,0,0,0,0,0,0,0,0,0,0,0,0,0,0,0,0,0,0],"id":5,"left_children":[1,3,5,7,9,11,13,15,17,19,21,23,25,27,29,31,33,35,37,39,41,43,45,47,49,51,53,55,57,59,61,63,65,67,69,71,73,75,77,79,81,83,85,87,89,91,93,95,97,99,101,103,105,107,109,111,113,115,117,119,121,123,125,-1,-1,-1,-1,-1,-1,-1,-1,-1,-1,-1,-1,-1,-1,-1,-1,-1,-1,-1,-1,-1,-1,-1,-1,-1,-1,-1,-1,-1,-1,-1,-1,-1,-1,-1,-1,-1,-1,-1,-1,-1,-1,-1,-1,-1,-1,-1,-1,-1,-1,-1,-1,-1,-1,-1,-1,-1,-1,-1,-1,-1,-1,-1,-1],"loss_changes":[5.833737E4,2.5754719E4,2.180169E4,7.9903354E3,9.8403906E2,5.8883125E3,1.2046805E4,4.3911504E3,1.18779E3,6.180117E2,6.3777344E1,1.4320908E3,7.9197266E2,8.348586E3,2.6987544E3,1.8645996E2,2.3731792E3,1.2229712E2,9.4686804E2,6.62793E1,3.9693408E2,4.9871094E1,4.9461967E1,2.4689343E2,6.419419E2,5.6614453E2,2.0007504E2,2.4043352E3,3.4183125E3,5.397001E2,6.552832E1,1.5425836E2,1.5518262E2,2.265584E3,3.4819437E2,5.85824E1,1.16644714E2,7.2985455E2,2.9864874E2,5.763965E1,1.7696827E1,2.0079199E2,1.8084727E2,7.953711E1,1.7667969E1,1.8676704E1,3.448802E1,9.302673E1,8.113917E1,3.387002E2,2.2238263E2,3.212461E2,6.686133E1,8.586682E1,5.371753E1,2.0072277E3,2.9287463E2,2.3369531E3,1.8504573E3,7.282218E2,2.318474E2,6.297046E1,2.5751465E1,0E0,0E0,0E0,0E0,0E0,0E0,0E0,0E0,0E0,0E0,0E0,0E0,0E0,0E0,0E0,0E0,0E0,0E0,0E0,0E0,0E0,0E0,0E0,0E0,0E0,0E0,0E0,0E0,0E0,0E0,0E0,0E0,0E0,0E0,0E0,0E0,0E0,0E0,0E0,0E0,0E0,0E0,0E0,0E0,0E0,0E0,0E0,0E0,0E0,0E0,0E0,0E0,0E0,0E0,0E0,0E0,0E0,0E0,0E0,0E0,0E0,0E0,0E0,0E0],"parents":[2147483647,0,0,1,1,2,2,3,3,4,4,5,5,6,6,7,7,8,8,9,9,10,10,11,11,12,12,13,13,14,14,15,15,16,16,17,17,18,18,19,19,20,20,21,21,22,22,23,23,24,24,25,25,26,26,27,27,28,28,29,29,30,30,31,31,32,32,33,33,34,34,35,35,36,36,37,37,38,38,39,39,40,40,41,41,42,42,43,43,44,44,45,45,46,46,47,47,48,48,49,49,50,50,51,51,52,52,53,53,54,54,55,55,56,56,57,57,58,58,59,59,60,60,61,61,62,62],"right_children":[2,4,6,8,10,12,14,16,18,20,22,24,26,28,30,32,34,36,38,40,42,44,46,48,50,52,54,56,58,60,62,64,66,68,70,72,74,76,78,80,82,84,86,88,90,92,94,96,98,100,102,104,106,108,110,112,114,116,118,120,122,124,126,-1,-1,-1,-1,-1,-1,-1,-1,-1,-1,-1,-1,-1,-1,-1,-1,-1,-1,-1,-1,-1,-1,-1,-1,-1,-1,-1,-1,-1,-1,-1,-1,-1,-1,-1,-1,-1,-1,-1,-1,-1,-1,-1,-1,-1,-1,-1,-1,-1,-1,-1,-1,-1,-1,-1,-1,-1,-1,-1,-1,-1,-1,-1,-1],"split_conditions":[0E0,1E0,6.801845E1,2E0,1.1477781E3,1.3434143E1,1E0,5.642619E1,-4.2E1,5.642619E1,1.39E2,1E0,3E0,1E0,1.4166924E3,1E0,4E0,-1.2552728E3,1E0,2E0,1E0,1.4388352E3,1E0,1E0,1E0,3E0,4E0,5.5E1,3E0,4E0,1.825172E3,-1.8431631E3,-2.9318076E3,3E0,8.9E1,1E0,4.280606E2,-8.28735E2,-4.3262256E2,2E0,1E0,2.2174702E2,-1.816091E3,2E0,2E0,7.8169885E2,1.6069686E0,1E0,7.718289E2,1.216E3,4E0,1E0,2E0,4.9371207E2,1.6216237E3,4E0,1.48E2,4E0,-2.1E1,3E0,1E0,1E0,1E0,3.09552E-2,-5.5254277E-2,4.9328726E-2,-7.6795034E-2,-1.2552761E-2,-4.3110184E-2,-5.0165667E-3,5.244344E-2,-1.3251667E-2,5.7151925E-2,-3.092426E-2,-6.154212E-2,2.1797223E-2,3.8896953E-3,2.7395706E-4,-4.838034E-2,-7.542261E-2,1.0753459E-2,-5.8118667E-2,8.2931094E-2,-9.15863E-4,-5.769956E-2,7.750263E-2,-2.6997415E-2,-7.703813E-2,-5.4624885E-2,-8.103807E-2,-8.844396E-3,-8.015649E-2,-8.3788636E-4,7.888917E-2,-3.181793E-2,4.2490922E-2,7.47067E-2,-3.4454584E-2,3.794411E-2,2.5735974E-2,-4.7638584E-2,-3.6115993E-2,6.119937E-3,7.8805976E-2,5.8166016E-2,7.897695E-2,-6.752077E-2,6.7326925E-3,-6.2057383E-2,6.8628356E-2,-2.1732086E-2,-1.9904329E-2,2.0803318E-3,2.7626304E-2,6.639438E-2,4.094894E-2,1.816825E-2,-1.9659614E-2,1.5151883E-2,-2.0360148E-2,-6.81089E-2,-4.534189E-3,4.93242E-2,-7.372254E-2,-4.6274234E-2,-8.136507E-2,6.0368437E-2],"split_indices":[79,2,20,39,77,75,2,55,154,55,81,13,17,39,76,12,48,110,151,37,119,77,39,52,2,48,48,154,13,52,76,110,131,13,154,108,18,110,152,50,8,20,110,39,294,152,18,42,124,95,151,13,33,95,145,48,154,17,154,13,154,3,42,0,0,0,0,0,0,0,0,0,0,0,0,0,0,0,0,0,0,0,0,0,0,0,0,0,0,0,0,0,0,0,0,0,0,0,0,0,0,0,0,0,0,0,0,0,0,0,0,0,0,0,0,0,0,0,0,0,0,0,0,0,0,0,0],"split_type":[0,0,0,0,0,0,0,0,0,0,0,0,0,0,0,0,0,0,0,0,0,0,0,0,0,0,0,0,0,0,0,0,0,0,0,0,0,0,0,0,0,0,0,0,0,0,0,0,0,0,0,0,0,0,0,0,0,0,0,0,0,0,0,0,0,0,0,0,0,0,0,0,0,0,0,0,0,0,0,0,0,0,0,0,0,0,0,0,0,0,0,0,0,0,0,0,0,0,0,0,0,0,0,0,0,0,0,0,0,0,0,0,0,0,0,0,0,0,0,0,0,0,0,0,0,0,0],"sum_hessian":[2.844941E5,9.812434E4,1.8636975E5,7.0629164E4,2.7495174E4,2.6811195E4,1.5955855E5,4.1790547E4,2.8838621E4,9.834663E3,1.7660512E4,4.554989E3,2.2256205E4,1.4976833E5,9.790222E3,5.179276E3,3.661127E4,1.8318389E3,2.7006781E4,4.0120042E3,5.8226587E3,1.7590805E4,6.9707596E1,1.1569923E3,3.3979963E3,2.1558107E4,6.9809766E2,4.528745E4,1.0448088E5,5.9529644E3,3.837257E3,7.2124945E2,4.4580264E3,2.567122E4,1.094005E4,3.2881332E2,1.5030255E3,2.559042E4,1.4163607E3,4.0019783E3,1.002593E1,4.644061E3,1.1785975E3,3.999998E3,1.3590806E4,4.337855E1,2.6329046E1,1.0002671E3,1.5672527E2,1.3849985E3,2.0129978E3,1.11930205E4,1.0365087E4,5.090974E2,1.8900024E2,4.1608137E4,3.6793118E3,4.571987E4,5.8761008E4,4.9425903E3,1.01037415E3,1.101453E3,2.7358042E3,5.5642452E1,6.65607E2,2.3891615E1,4.434135E3,9.831728E3,1.5839493E4,1.0670716E4,2.6933438E2,2.9700418E2,3.1809155E1,1.0606184E3,4.4240717E2,8.538828E3,1.7051592E4,4.737202E2,9.426405E2,3.9827148E3,1.9263342E1,2.1777756E0,7.8481545E0,1.6131624E2,4.482745E3,4.201858E1,1.136579E3,3.5413337E3,4.586644E2,1.3582066E4,8.739773E0,3.392767E1,9.450885E0,1.2708139E1,1.3620907E1,3.496253E2,6.506418E2,9.082512E1,6.590015E1,1.2050725E3,1.7992609E2,1.6279314E3,3.8506644E2,2.4146821E3,8.778339E3,1.0358003E4,7.0846562E0,4.5977927E2,4.9318146E1,1.7127765E2,1.7722591E1,1.989175E4,2.1716389E4,3.1013347E3,5.7797705E2,2.5654094E4,2.0065777E4,4.103244E3,5.4657766E4,3.941665E3,1.00092523E3,7.373489E2,2.7302524E2,8.102641E2,2.9118887E2,2.7332666E3,2.5374784E0],"tree_param":{"num_deleted":"0","num_feature":"334","num_nodes":"127","size_leaf_vector":"1"}},{"base_weights":[-1.2555683E-4,-7.4683017E-1,2.508978E-1,-1.1614848E0,-1.7580867E-1,1.1334422E0,1.3244465E-1,6.716956E-2,-1.3097751E0,-5.652364E-1,4.5553636E-2,8.244738E-2,1.3708341E0,2.1103649E-1,-9.1309506E-1,-4.0910855E-1,3.0137622E-1,-1.5128301E0,-1.1542795E0,-4.8079655E-1,-1.5030698E0,1.0190605E-1,-1.1028609E0,1.045151E0,-2.343821E-1,1.2197915E0,1.5389743E0,-1.2976667E-1,3.6277956E-1,-4.426783E-1,-1.3470693E0,7.040382E-2,-7.5887334E-1,5.0599414E-1,1.22362934E-1,-1.440962E0,-1.5950139E0,-8.3529234E-1,-1.3423829E0,-6.86349E-1,-2.3167624E-1,-1.5262519E0,1.7141665E0,-5.8688515E-1,1.4712186E-1,-1.2447313E0,1.0985606E-2,5.369238E-1,1.4442492E0,2.4440826E-1,-5.6092346E-1,1.5262711E0,1.1332928E0,1.5530319E0,1.1923826E0,3.2570267E-1,-2.4407314E-1,3.0876294E-1,8.908699E-1,-7.9000825E-1,-2.346049E-1,-1.0476366E0,-1.5408275E0,-1.8431408E-2,3.080373E-2,-5.9849318E-2,-3.197963E-2,2.6345054E-2,-2.522296E-2,8.9571765E-3,-1.386287E-2,4.778086E-2,-7.229612E-2,-7.993578E-2,-6.3068554E-2,-2.434489E-2,-5.5791367E-2,-6.0017683E-2,-7.734022E-2,-3.173761E-2,-6.95234E-2,5.480962E-3,-2.0723496E-2,-7.721693E-2,6.938998E-2,2.1581648E-2,9.619296E-2,8.422104E-2,-3.0951565E-2,9.75857E-3,-1.6656285E-2,-6.565147E-2,1.3971696E-2,-3.7656717E-2,5.9608158E-2,-3.4753736E-2,3.5231348E-2,7.414585E-2,6.8871384E-5,2.0639436E-2,-5.128506E-2,-3.1996485E-2,3.4787994E-2,7.712032E-2,3.5947476E-2,6.5473385E-2,3.6750033E-2,7.7725075E-2,-6.998425E-2,-4.7312684E-2,6.2490072E-2,3.2171723E-2,5.388618E-3,-1.5414858E-2,2.017375E-2,-9.651996E-3,1.7804798E-2,3.9212745E-2,6.1815765E-2,-5.136168E-2,-2.1077204E-2,-3.9391126E-3,-4.2000104E-2,-5.9720423E-2,-1.890426E-2,-7.719196E-2,6.787624E-2],"categories":[],"categories_nodes":[],"categories_segments":[],"categories_sizes":[],"default_left":[0,0,0,0,0,0,0,0,0,0,0,0,0,0,0,0,0,0,0,0,0,0,0,0,0,0,0,0,0,0,0,0,0,0,0,0,0,0,0,0,0,0,0,0,0,0,0,0,0,0,0,0,0,0,0,0,0,0,0,0,0,0,0,0,0,0,0,0,0,0,0,0,0,0,0,0,0,0,0,0,0,0,0,0,0,0,0,0,0,0,0,0,0,0,0,0,0,0,0,0,0,0,0,0,0,0,0,0,0,0,0,0,0,0,0,0,0,0,0,0,0,0,0,0,0,0,0],"id":6,"left_children":[1,3,5,7,9,11,13,15,17,19,21,23,25,27,29,31,33,35,37,39,41,43,45,47,49,51,53,55,57,59,61,63,65,67,69,71,73,75,77,79,81,83,85,87,89,91,93,95,97,99,101,103,105,107,109,111,113,115,117,119,121,123,125,-1,-1,-1,-1,-1,-1,-1,-1,-1,-1,-1,-1,-1,-1,-1,-1,-1,-1,-1,-1,-1,-1,-1,-1,-1,-1,-1,-1,-1,-1,-1,-1,-1,-1,-1,-1,-1,-1,-1,-1,-1,-1,-1,-1,-1,-1,-1,-1,-1,-1,-1,-1,-1,-1,-1,-1,-1,-1,-1,-1,-1,-1,-1,-1],"loss_changes":[5.3095668E4,1.687454E4,2.2162209E4,7.5225E3,2.5846536E3,6.2589688E3,1.535898E4,4.9621686E2,1.1614609E3,8.5978613E2,1.2372975E3,1.4104486E3,5.1783984E2,8.990401E3,2.6671982E3,2.4600505E2,1.0916315E2,9.205078E1,1.2510098E3,5.1038867E2,6.952344E1,5.6765546E2,1.4132959E2,2.3146863E2,5.441263E2,2.841836E2,4.5310547E1,2.788525E3,3.4310166E3,4.5310364E2,3.9271484E2,1.4862207E2,4.355179E1,2.965393E1,3.6168243E1,1.0280859E2,7.1777344E0,7.5628564E2,3.7922656E2,1.9756396E2,2.813428E2,4.9114258E1,1.0222721E0,8.30238E1,3.9470667E2,8.2942505E1,9.298326E1,1.048766E2,3.574817E1,3.0229156E2,2.0585858E2,2.9776855E1,5.895137E2,4.2529297E1,4.8045654E1,7.4396765E2,1.7807092E3,2.592042E3,4.1010742E2,2.0492078E2,3.700845E2,2.622605E2,3.809668E1,0E0,0E0,0E0,0E0,0E0,0E0,0E0,0E0,0E0,0E0,0E0,0E0,0E0,0E0,0E0,0E0,0E0,0E0,0E0,0E0,0E0,0E0,0E0,0E0,0E0,0E0,0E0,0E0,0E0,0E0,0E0,0E0,0E0,0E0,0E0,0E0,0E0,0E0,0E0,0E0,0E0,0E0,0E0,0E0,0E0,0E0,0E0,0E0,0E0,0E0,0E0,0E0,0E0,0E0,0E0,0E0,0E0,0E0,0E0,0E0,0E0,0E0,0E0,0E0],"parents":[2147483647,0,0,1,1,2,2,3,3,4,4,5,5,6,6,7,7,8,8,9,9,10,10,11,11,12,12,13,13,14,14,15,15,16,16,17,17,18,18,19,19,20,20,21,21,22,22,23,23,24,24,25,25,26,26,27,27,28,28,29,29,30,30,31,31,32,32,33,33,34,34,35,35,36,36,37,37,38,38,39,39,40,40,41,41,42,42,43,43,44,44,45,45,46,46,47,47,48,48,49,49,50,50,51,51,52,52,53,53,54,54,55,55,56,56,57,57,58,58,59,59,60,60,61,61,62,62],"right_children":[2,4,6,8,10,12,14,16,18,20,22,24,26,28,30,32,34,36,38,40,42,44,46,48,50,52,54,56,58,60,62,64,66,68,70,72,74,76,78,80,82,84,86,88,90,92,94,96,98,100,102,104,106,108,110,112,114,116,118,120,122,124,126,-1,-1,-1,-1,-1,-1,-1,-1,-1,-1,-1,-1,-1,-1,-1,-1,-1,-1,-1,-1,-1,-1,-1,-1,-1,-1,-1,-1,-1,-1,-1,-1,-1,-1,-1,-1,-1,-1,-1,-1,-1,-1,-1,-1,-1,-1,-1,-1,-1,-1,-1,-1,-1,-1,-1,-1,-1,-1,-1,-1,-1,-1,-1,-1],"split_conditions":[-6.5483696E1,3E0,4.770254E1,1.05E1,1E0,1.3434143E1,1E0,1E0,5.642619E1,1E0,1E0,1E0,3E0,1E0,9.47247E2,-1.22560425E2,-4.0771875E2,3E0,3E0,4E0,2E0,-4.7E1,8E0,1E0,1E0,1E0,2E0,3E0,5.1E1,1E0,1.5993009E3,-5.178887E2,-2.1482552E2,3.3E1,2.3E1,-2.9318076E3,8E0,1E0,1.5942576E3,1.648911E3,-2.0254181E2,1E0,3.75E1,-2.5356365E3,2.0764202E3,2E0,4E0,4E0,2.8950151E3,1.6661185E3,7.894518E-1,8.312709E2,1E0,4E0,-2.291768E3,2.4268238E1,3.7E1,-1.8E1,1.11E2,6.708326E2,1.0141714E3,1E0,1E0,-1.8431408E-2,3.080373E-2,-5.9849318E-2,-3.197963E-2,2.6345054E-2,-2.522296E-2,8.9571765E-3,-1.386287E-2,4.778086E-2,-7.229612E-2,-7.993578E-2,-6.3068554E-2,-2.434489E-2,-5.5791367E-2,-6.0017683E-2,-7.734022E-2,-3.173761E-2,-6.95234E-2,5.480962E-3,-2.0723496E-2,-7.721693E-2,6.938998E-2,2.1581648E-2,9.619296E-2,8.422104E-2,-3.0951565E-2,9.75857E-3,-1.6656285E-2,-6.565147E-2,1.3971696E-2,-3.7656717E-2,5.9608158E-2,-3.4753736E-2,3.5231348E-2,7.414585E-2,6.8871384E-5,2.0639436E-2,-5.128506E-2,-3.1996485E-2,3.4787994E-2,7.712032E-2,3.5947476E-2,6.5473385E-2,3.6750033E-2,7.7725075E-2,-6.998425E-2,-4.7312684E-2,6.2490072E-2,3.2171723E-2,5.388618E-3,-1.5414858E-2,2.017375E-2,-9.651996E-3,1.7804798E-2,3.9212745E-2,6.1815765E-2,-5.136168E-2,-2.1077204E-2,-3.9391126E-3,-4.2000104E-2,-5.9720423E-2,-1.890426E-2,-7.719196E-2,6.787624E-2],"split_indices":[79,48,20,1,39,75,2,39,55,2,2,13,48,39,77,146,139,13,13,48,178,154,154,42,2,13,17,0,154,39,76,132,79,0,0,131,101,2,77,96,146,276,1,117,54,108,52,0,117,125,107,55,2,15,146,153,154,154,154,53,53,119,42,0,0,0,0,0,0,0,0,0,0,0,0,0,0,0,0,0,0,0,0,0,0,0,0,0,0,0,0,0,0,0,0,0,0,0,0,0,0,0,0,0,0,0,0,0,0,0,0,0,0,0,0,0,0,0,0,0,0,0,0,0,0,0,0],"split_type":[0,0,0,0,0,0,0,0,0,0,0,0,0,0,0,0,0,0,0,0,0,0,0,0,0,0,0,0,0,0,0,0,0,0,0,0,0,0,0,0,0,0,0,0,0,0,0,0,0,0,0,0,0,0,0,0,0,0,0,0,0,0,0,0,0,0,0,0,0,0,0,0,0,0,0,0,0,0,0,0,0,0,0,0,0,0,0,0,0,0,0,0,0,0,0,0,0,0,0,0,0,0,0,0,0,0,0,0,0,0,0,0,0,0,0,0,0,0,0,0,0,0,0,0,0,0,0],"sum_hessian":[2.832651E5,7.126758E4,2.119975E5,4.1286105E4,2.9981475E4,2.5085732E4,1.8691177E5,4.4463745E3,3.683973E4,1.0865312E4,1.9116162E4,4.622424E3,2.0463309E4,1.7384488E5,1.3066892E4,1.4654722E3,2.9809023E3,1.59728125E4,2.086692E4,9.969224E3,8.960878E2,1.822288E4,8.93281E2,1.1440046E3,3.478419E3,1.0784083E4,9.679227E3,5.355797E4,1.2028691E5,6.2711494E3,6.795742E3,6.184301E2,8.4704205E2,1.3901221E3,1.5907803E3,8.531076E3,7.441736E3,7.742531E3,1.3124389E4,5.4612886E3,4.5079355E3,8.90199E2,5.8888516E0,1.1218157E3,1.7101064E4,7.922543E2,1.0102676E2,5.0423615E2,6.397685E2,1.4105116E3,2.0679075E3,2.370028E3,8.414055E3,9.2986E3,3.806274E2,1.0744244E4,4.2813727E4,1.0912632E5,1.1160586E4,2.3483428E3,3.9228066E3,2.6723374E3,4.123405E3,3.4288144E2,2.7554868E2,1.7933118E2,6.677109E2,1.3624114E3,2.7710617E1,1.3933552E3,1.9742505E2,1.7225025E1,8.513852E3,7.3563257E3,8.541015E1,3.454788E3,4.2877427E3,7.748031E3,5.3763574E3,5.090189E3,3.710996E2,1.5724333E3,2.9355022E3,8.85175E2,5.023965E0,1.257299E0,4.6315527E0,1.4938372E1,1.1068773E3,1.5546233E4,1.5548322E3,7.5840845E2,3.3845814E1,6.1563118E1,3.946364E1,6.0037518E1,4.4419864E2,6.2304364E2,1.6724863E1,1.2460022E3,1.6450952E2,1.946052E3,1.2185534E2,2.3226958E3,4.733213E1,5.8320845E3,2.5819702E3,9.294447E3,4.152369E0,9.547281E0,3.7108014E2,4.3704253E3,6.3738193E3,3.895107E4,3.8626543E3,9.405922E3,9.97204E4,8.530946E3,2.62964E3,1.4274995E3,9.208432E2,3.120702E3,8.021046E2,2.1912185E3,4.811189E2,4.1195913E3,3.8131258E0],"tree_param":{"num_deleted":"0","num_feature":"334","num_nodes":"127","size_leaf_vector":"1"}},{"base_weights":[-1.5599087E-4,-5.74185E-1,3.0015212E-1,-2.7938637E-1,-1.3528203E0,1.0699296E0,1.6993636E-1,-6.602188E-1,-2.7742133E-2,-1.1025625E0,-1.4956384E0,1.2949805E-1,1.26782E0,2.334483E-1,-8.150096E-1,-1.0834115E0,-4.6881714E-1,-3.2001498E-1,1.8090431E-1,-1.2222084E0,-5.9902436E-1,-1.4987763E0,-2.8013715E-1,1.0130818E0,-1.6012958E-1,1.3122243E0,3.303373E-1,-9.155207E-2,3.7445158E-1,-4.181929E-1,-1.4442883E0,-1.3138245E0,-6.6382325E-1,-6.182981E-1,-1.2910166E-1,-8.369377E-1,6.587349E-3,2.3421457E-1,-1.3060702E-1,-1.4047227E0,-1.0406505E0,-6.7485523E-1,8.253985E-1,-1.5037059E0,-8.675899E-1,-1.2911348E0,1.0821143E0,1.1876632E0,-7.854532E-2,2.9815254E-1,-4.976697E-1,1.1555414E0,1.4810879E0,4.1345455E-2,1.1469554E0,1.4328402E-1,-2.9590344E-1,5.693157E-1,2.2459413E-1,-9.435058E-2,-6.841491E-1,-1.5021576E0,-1.1076251E0,-6.649959E-2,1.0269197E-1,1.9899562E-2,-4.279737E-2,-1.2836468E-2,-3.8816076E-2,1.0985724E-2,-1.5085878E-2,-4.713986E-2,-5.1915026E-3,-2.35273E-2,4.2717755E-3,2.5627235E-2,8.579759E-3,1.7868271E-2,-1.7818114E-2,-7.0570394E-2,5.19634E-2,-4.0955838E-2,-7.0690274E-2,5.439278E-2,-3.7259728E-2,5.887417E-2,-8.5264094E-2,-7.522799E-2,8.712867E-2,-6.633249E-2,3.1367093E-2,-7.541336E-2,4.2587414E-2,9.1803335E-2,-5.1434007E-2,3.974163E-2,7.008352E-2,-5.463292E-2,2.0460358E-2,2.3249952E-2,-4.2086806E-2,-4.4144094E-2,-1.1170201E-2,7.406383E-2,5.3436797E-2,7.417631E-2,-5.897059E-2,-1.1692197E-2,2.3179416E-2,6.5364085E-2,-2.107038E-2,-1.6514352E-2,1.4871205E-2,-3.1432524E-2,-4.471983E-3,3.7998866E-2,1.6316898E-2,-3.1934853E-3,1.65183E-2,-1.2643282E-2,2.8366497E-2,3.9737333E-2,-3.722873E-2,-7.533928E-2,6.999832E-2,-6.1867744E-2,-1.2660379E-2],"categories":[],"categories_nodes":[],"categories_segments":[],"categories_sizes":[],"default_left":[0,0,0,0,0,0,0,0,0,0,0,0,0,0,0,0,0,0,0,0,0,0,0,0,0,0,0,0,0,0,0,0,0,0,0,0,0,0,0,0,0,0,0,0,0,0,0,0,0,0,0,0,0,0,0,0,0,0,0,0,0,0,0,0,0,0,0,0,0,0,0,0,0,0,0,0,0,0,0,0,0,0,0,0,0,0,0,0,0,0,0,0,0,0,0,0,0,0,0,0,0,0,0,0,0,0,0,0,0,0,0,0,0,0,0,0,0,0,0,0,0,0,0,0,0,0,0],"id":7,"left_children":[1,3,5,7,9,11,13,15,17,19,21,23,25,27,29,31,33,35,37,39,41,43,45,47,49,51,53,55,57,59,61,63,65,67,69,71,73,75,77,79,81,83,85,87,89,91,93,95,97,99,101,103,105,107,109,111,113,115,117,119,121,123,125,-1,-1,-1,-1,-1,-1,-1,-1,-1,-1,-1,-1,-1,-1,-1,-1,-1,-1,-1,-1,-1,-1,-1,-1,-1,-1,-1,-1,-1,-1,-1,-1,-1,-1,-1,-1,-1,-1,-1,-1,-1,-1,-1,-1,-1,-1,-1,-1,-1,-1,-1,-1,-1,-1,-1,-1,-1,-1,-1,-1,-1,-1,-1,-1],"loss_changes":[4.8597965E4,2.2225803E4,1.8552252E4,6.731184E3,9.4878906E2,4.983455E3,9.903242E3,2.263081E3,2.5791772E3,5.81584E2,6.414453E1,1.1918003E3,9.2053125E2,6.8152275E3,2.3940835E3,8.4045215E2,9.77167E2,2.9741973E3,4.0984613E2,2.5730176E2,2.0121393E2,5.1222656E1,6.3121445E1,2.1919434E2,5.427653E2,5.5715234E2,2.3638174E2,2.159552E3,3.02867E3,5.0659778E2,7.058252E1,3.085254E2,6.300509E2,7.63353E2,3.542074E2,5.2925195E2,4.0622433E2,3.6717224E2,3.9745123E2,6.50459E1,3.2277783E2,2.195658E2,8.607209E1,4.9054688E1,9.2244354E1,1.3466587E1,3.3138557E1,8.2216064E1,7.931735E1,2.8346967E2,2.1325656E2,3.0834668E2,6.767969E1,8.6210945E1,6.638776E1,1.5285615E3,1.6530149E3,2.088539E3,1.7889688E3,2.784928E2,2.892213E2,4.4571777E1,6.039862E1,0E0,0E0,0E0,0E0,0E0,0E0,0E0,0E0,0E0,0E0,0E0,0E0,0E0,0E0,0E0,0E0,0E0,0E0,0E0,0E0,0E0,0E0,0E0,0E0,0E0,0E0,0E0,0E0,0E0,0E0,0E0,0E0,0E0,0E0,0E0,0E0,0E0,0E0,0E0,0E0,0E0,0E0,0E0,0E0,0E0,0E0,0E0,0E0,0E0,0E0,0E0,0E0,0E0,0E0,0E0,0E0,0E0,0E0,0E0,0E0,0E0,0E0,0E0,0E0],"parents":[2147483647,0,0,1,1,2,2,3,3,4,4,5,5,6,6,7,7,8,8,9,9,10,10,11,11,12,12,13,13,14,14,15,15,16,16,17,17,18,18,19,19,20,20,21,21,22,22,23,23,24,24,25,25,26,26,27,27,28,28,29,29,30,30,31,31,32,32,33,33,34,34,35,35,36,36,37,37,38,38,39,39,40,40,41,41,42,42,43,43,44,44,45,45,46,46,47,47,48,48,49,49,50,50,51,51,52,52,53,53,54,54,55,55,56,56,57,57,58,58,59,59,60,60,61,61,62,62],"right_children":[2,4,6,8,10,12,14,16,18,20,22,24,26,28,30,32,34,36,38,40,42,44,46,48,50,52,54,56,58,60,62,64,66,68,70,72,74,76,78,80,82,84,86,88,90,92,94,96,98,100,102,104,106,108,110,112,114,116,118,120,122,124,126,-1,-1,-1,-1,-1,-1,-1,-1,-1,-1,-1,-1,-1,-1,-1,-1,-1,-1,-1,-1,-1,-1,-1,-1,-1,-1,-1,-1,-1,-1,-1,-1,-1,-1,-1,-1,-1,-1,-1,-1,-1,-1,-1,-1,-1,-1,-1,-1,-1,-1,-1,-1,-1,-1,-1,-1,-1,-1,-1,-1,-1,-1,-1,-1],"split_conditions":[0E0,1E0,7.413906E1,1E0,1.1526813E3,2.6925781E1,1E0,-2.4310583E2,3E0,3E0,1E0,1E0,3E0,1E0,1.4106619E3,4.0588828E2,4E0,3E0,8.128633E2,5.642619E1,4E0,1E0,2.4225246E2,1E0,1E0,3E0,4E0,3E0,3E0,6.945071E2,1E0,3E0,3E0,1.05E1,-1.3741766E2,2E0,-2E0,-1.312229E3,9.0752985E2,2E0,3E0,-2.0603528E3,3.0059663E3,3E0,2.1E1,3.8507993E2,-2.3533022E3,1E0,-2.273844E2,1.6661185E3,-1.06278564E2,1E0,2E0,2E0,1.6216237E3,3E0,4E0,4E0,4E0,4E0,-2.1330898E3,1E0,1E0,-6.649959E-2,1.0269197E-1,1.9899562E-2,-4.279737E-2,-1.2836468E-2,-3.8816076E-2,1.0985724E-2,-1.5085878E-2,-4.713986E-2,-5.1915026E-3,-2.35273E-2,4.2717755E-3,2.5627235E-2,8.579759E-3,1.7868271E-2,-1.7818114E-2,-7.0570394E-2,5.19634E-2,-4.0955838E-2,-7.0690274E-2,5.439278E-2,-3.7259728E-2,5.887417E-2,-8.5264094E-2,-7.522799E-2,8.712867E-2,-6.633249E-2,3.1367093E-2,-7.541336E-2,4.2587414E-2,9.1803335E-2,-5.1434007E-2,3.974163E-2,7.008352E-2,-5.463292E-2,2.0460358E-2,2.3249952E-2,-4.2086806E-2,-4.4144094E-2,-1.1170201E-2,7.406383E-2,5.3436797E-2,7.417631E-2,-5.897059E-2,-1.1692197E-2,2.3179416E-2,6.5364085E-2,-2.107038E-2,-1.6514352E-2,1.4871205E-2,-3.1432524E-2,-4.471983E-3,3.7998866E-2,1.6316898E-2,-3.1934853E-3,1.65183E-2,-1.2643282E-2,2.8366497E-2,3.9737333E-2,-3.722873E-2,-7.533928E-2,6.999832E-2,-6.1867744E-2,-1.2660379E-2],"split_indices":[79,2,20,39,77,75,2,75,52,52,320,13,17,39,76,55,48,48,96,55,39,178,89,52,2,48,48,13,13,77,3,240,13,1,146,49,154,109,125,37,13,89,110,44,81,75,145,42,153,125,102,13,33,39,145,48,48,17,48,52,89,42,87,0,0,0,0,0,0,0,0,0,0,0,0,0,0,0,0,0,0,0,0,0,0,0,0,0,0,0,0,0,0,0,0,0,0,0,0,0,0,0,0,0,0,0,0,0,0,0,0,0,0,0,0,0,0,0,0,0,0,0,0,0,0,0,0],"split_type":[0,0,0,0,0,0,0,0,0,0,0,0,0,0,0,0,0,0,0,0,0,0,0,0,0,0,0,0,0,0,0,0,0,0,0,0,0,0,0,0,0,0,0,0,0,0,0,0,0,0,0,0,0,0,0,0,0,0,0,0,0,0,0,0,0,0,0,0,0,0,0,0,0,0,0,0,0,0,0,0,0,0,0,0,0,0,0,0,0,0,0,0,0,0,0,0,0,0,0,0,0,0,0,0,0,0,0,0,0,0,0,0,0,0,0,0,0,0,0,0,0,0,0,0,0,0,0],"sum_hessian":[2.8191234E5,9.682797E4,1.8508438E5,7.023695E4,2.6591018E4,2.6777936E4,1.5830645E5,2.7944615E4,4.2292336E4,9.664612E3,1.6926404E4,4.6554688E3,2.2122467E4,1.4871752E5,9.588937E3,8.701271E3,1.9243344E4,1.761568E4,2.4676656E4,7.80794E3,1.8566725E3,1.6882586E4,4.3817608E1,1.1486667E3,3.506802E3,2.112163E4,1.00083563E3,4.499902E4,1.0371849E5,5.881676E3,3.7072605E3,5.615461E3,3.0858105E3,1.3362695E4,5.880648E3,6.819966E3,1.0795715E4,2.1070945E4,3.605712E3,3.8903545E3,3.9175857E3,1.763326E3,9.3346535E1,1.6750385E4,1.3220264E2,2.518139E1,1.8636215E1,9.9021576E2,1.5845099E2,1.4874248E3,2.0193771E3,1.0960027E4,1.0161604E4,7.400065E2,2.608292E2,2.0937922E4,2.4061098E4,4.508732E4,5.863117E4,2.6528188E3,3.2288572E3,3.1605327E3,5.467277E2,5.589234E3,2.6227415E1,4.726332E2,2.6131772E3,4.0647898E3,9.297905E3,1.9466509E3,3.9339968E3,5.959184E3,8.607819E2,1.5303218E3,9.265393E3,3.8686082E3,1.7202336E4,1.1403184E3,2.4653936E3,3.8801633E3,1.0191079E1,2.4602097E3,1.457376E3,6.710874E1,1.6962173E3,8.2415115E1,1.0931418E1,1.6746516E4,3.8682387E0,1.012298E2,3.097283E1,2.313349E1,2.0479016E0,1.3827381E1,4.808834E0,3.5087146E2,6.393443E2,5.1056473E1,1.0739452E2,1.2980239E3,1.8940088E2,8.389019E2,1.1804752E3,2.302791E3,8.657236E3,1.015274E4,8.86244E0,4.4828845E2,2.91718E2,2.3678978E2,2.4039412E1,5.1412134E3,1.5796708E4,9.212211E3,1.4848888E4,2.5262227E4,1.9825094E4,1.5730615E4,4.2900555E4,2.1406204E3,5.121985E2,1.2627051E2,3.1025867E3,3.1559807E3,4.552079E0,4.7426926E2,7.24585E1],"tree_param":{"num_deleted":"0","num_feature":"334","num_nodes":"127","size_leaf_vector":"1"}},{"base_weights":[-1.8942854E-4,-5.499362E-1,2.8631568E-1,-2.6634318E-1,-1.3114066E0,1.0564107E0,1.6556427E-1,-6.3101035E-1,-2.6419662E-2,-1.0624995E0,-1.454758E0,1.1119973E-1,1.2619438E0,2.2576456E-1,-7.7837294E-1,-1.0412562E0,-4.4692904E-1,-1.2137973E0,2.1079432E-2,-1.3579067E0,-8.6441547E-1,-1.4578452E0,-2.6996306E-1,9.68118E-1,-1.7444451E-1,1.1090968E0,1.431489E0,-8.198596E-2,3.5974076E-1,-3.945991E-1,-1.4058391E0,-1.2674075E0,-6.3366073E-1,-5.901787E-1,-1.2271095E-1,-1.2397883E0,1.631102E0,-6.857818E-1,7.9557925E-2,-1.3644406E0,9.930815E-1,-9.919979E-1,-3.6793E-1,-1.3328131E0,-1.4834248E0,-1.251995E0,1.0358069E0,4.8800635E-1,1.3572372E0,2.821418E-1,-4.846237E-1,1.1499665E0,1.839912E-1,1.4479622E0,6.4750355E-1,3.378858E-1,-1.9054843E-1,5.467443E-1,2.135487E-1,-2.4129806E-1,-9.36354E-1,-1.4619187E0,-1.0795761E0,-6.4159684E-2,9.636914E-2,1.8872336E-2,-4.0899765E-2,-1.2207081E-2,-3.711016E-2,6.134908E-3,-1.7570458E-2,-6.752287E-2,-4.189753E-2,1.21666506E-1,-5.9470214E-2,-3.9946377E-2,-1.2776886E-2,5.513188E-3,-5.0441355E-2,-6.865564E-2,1.6909685E-2,-5.5955358E-2,8.088871E-2,-3.9401192E-2,-6.001696E-2,-2.2658838E-2,6.806694E-2,-6.966091E-2,-4.2953473E-2,-7.419364E-2,7.91527E-2,-7.335285E-2,4.1042373E-2,8.7867945E-2,-4.9752828E-2,2.9901741E-2,-6.456137E-2,6.917377E-2,-3.706593E-2,2.3243682E-2,-4.5807492E-2,-4.302931E-2,-1.0891515E-2,7.203323E-2,5.3404685E-2,6.898097E-2,5.137489E-4,7.248468E-2,-7.3622905E-2,5.0090957E-2,2.6477044E-3,3.1928744E-2,6.2343874E-3,2.161645E-3,-1.916006E-2,3.6543127E-2,1.5620902E-2,-3.036725E-3,1.5713064E-2,-7.938438E-3,-6.0527414E-2,-5.3748053E-2,9.243252E-2,-7.3323056E-2,6.7896865E-2,8.212811E-2,-5.5773016E-2],"categories":[],"categories_nodes":[],"categories_segments":[],"categories_sizes":[],"default_left":[0,0,0,0,0,0,0,0,0,0,0,0,0,0,0,0,0,0,0,0,0,0,0,0,0,0,0,0,0,0,0,0,0,0,0,0,0,0,0,0,0,0,0,0,0,0,0,0,0,0,0,0,0,0,0,0,0,0,0,0,0,0,0,0,0,0,0,0,0,0,0,0,0,0,0,0,0,0,0,0,0,0,0,0,0,0,0,0,0,0,0,0,0,0,0,0,0,0,0,0,0,0,0,0,0,0,0,0,0,0,0,0,0,0,0,0,0,0,0,0,0,0,0,0,0,0,0],"id":8,"left_children":[1,3,5,7,9,11,13,15,17,19,21,23,25,27,29,31,33,35,37,39,41,43,45,47,49,51,53,55,57,59,61,63,65,67,69,71,73,75,77,79,81,83,85,87,89,91,93,95,97,99,101,103,105,107,109,111,113,115,117,119,121,123,125,-1,-1,-1,-1,-1,-1,-1,-1,-1,-1,-1,-1,-1,-1,-1,-1,-1,-1,-1,-1,-1,-1,-1,-1,-1,-1,-1,-1,-1,-1,-1,-1,-1,-1,-1,-1,-1,-1,-1,-1,-1,-1,-1,-1,-1,-1,-1,-1,-1,-1,-1,-1,-1,-1,-1,-1,-1,-1,-1,-1,-1,-1,-1,-1],"loss_changes":[4.4173805E4,2.074944E4,1.7144605E4,6.1256416E3,9.288164E2,4.8548906E3,9.057122E3,2.0977402E3,2.3818157E3,5.566328E2,6.011328E1,1.093008E3,5.303672E2,6.1776147E3,2.3004702E3,7.923711E2,8.9073315E2,1.2213379E2,1.6786088E3,6.0104492E1,3.612622E2,5.079297E1,5.799949E1,2.0789307E2,4.7448386E2,4.0810938E2,1.2470117E2,2.071495E3,2.8536055E3,4.9231415E2,6.47666E1,2.8152832E2,5.729863E2,6.99605E2,3.299876E2,7.047876E1,3.714694E1,1.5084375E2,1.2535374E3,5.6785645E1,1.6560242E1,1.9204297E2,1.7290448E2,7.927539E1,2.1152344E1,1.2657028E1,3.0364805E1,9.891007E1,3.4945923E1,2.972438E2,1.9990042E2,2.4461621E2,9.513627E1,5.0310547E1,4.2503975E1,5.98443E2,1.6262861E3,1.9757139E3,1.6184109E3,3.696763E2,5.0678223E2,4.1586914E1,5.415674E1,0E0,0E0,0E0,0E0,0E0,0E0,0E0,0E0,0E0,0E0,0E0,0E0,0E0,0E0,0E0,0E0,0E0,0E0,0E0,0E0,0E0,0E0,0E0,0E0,0E0,0E0,0E0,0E0,0E0,0E0,0E0,0E0,0E0,0E0,0E0,0E0,0E0,0E0,0E0,0E0,0E0,0E0,0E0,0E0,0E0,0E0,0E0,0E0,0E0,0E0,0E0,0E0,0E0,0E0,0E0,0E0,0E0,0E0,0E0,0E0,0E0,0E0,0E0,0E0],"parents":[2147483647,0,0,1,1,2,2,3,3,4,4,5,5,6,6,7,7,8,8,9,9,10,10,11,11,12,12,13,13,14,14,15,15,16,16,17,17,18,18,19,19,20,20,21,21,22,22,23,23,24,24,25,25,26,26,27,27,28,28,29,29,30,30,31,31,32,32,33,33,34,34,35,35,36,36,37,37,38,38,39,39,40,40,41,41,42,42,43,43,44,44,45,45,46,46,47,47,48,48,49,49,50,50,51,51,52,52,53,53,54,54,55,55,56,56,57,57,58,58,59,59,60,60,61,61,62,62],"right_children":[2,4,6,8,10,12,14,16,18,20,22,24,26,28,30,32,34,36,38,40,42,44,46,48,50,52,54,56,58,60,62,64,66,68,70,72,74,76,78,80,82,84,86,88,90,92,94,96,98,100,102,104,106,108,110,112,114,116,118,120,122,124,126,-1,-1,-1,-1,-1,-1,-1,-1,-1,-1,-1,-1,-1,-1,-1,-1,-1,-1,-1,-1,-1,-1,-1,-1,-1,-1,-1,-1,-1,-1,-1,-1,-1,-1,-1,-1,-1,-1,-1,-1,-1,-1,-1,-1,-1,-1,-1,-1,-1,-1,-1,-1,-1,-1,-1,-1,-1,-1,-1,-1,-1,-1,-1,-1],"split_conditions":[0E0,1E0,6.0711113E1,1E0,1.1526813E3,1.3434143E1,1E0,-2.4310583E2,5.642619E1,5.642619E1,1E0,1E0,3E0,1E0,1.4166924E3,4.0588828E2,4E0,1.6E1,-4.2E1,2E0,1E0,1.362273E3,2.4225246E2,1E0,1E0,2E0,3E0,3E0,3E0,3E0,1E0,3E0,3E0,1.05E1,3.2800992E2,9.247499E2,6E0,4E0,1E0,2E0,1E0,2E0,5E0,2E0,2E1,3.8507993E2,-2.3533022E3,1.375E2,2.983083E3,1.216E3,-1.06278564E2,1E0,-1.328E3,4E0,6.110566E2,6.0646015E1,4E0,4E0,4E0,1E0,4E0,1E0,-2.2066394E3,-6.4159684E-2,9.636914E-2,1.8872336E-2,-4.0899765E-2,-1.2207081E-2,-3.711016E-2,6.134908E-3,-1.7570458E-2,-6.752287E-2,-4.189753E-2,1.21666506E-1,-5.9470214E-2,-3.9946377E-2,-1.2776886E-2,5.513188E-3,-5.0441355E-2,-6.865564E-2,1.6909685E-2,-5.5955358E-2,8.088871E-2,-3.9401192E-2,-6.001696E-2,-2.2658838E-2,6.806694E-2,-6.966091E-2,-4.2953473E-2,-7.419364E-2,7.91527E-2,-7.335285E-2,4.1042373E-2,8.7867945E-2,-4.9752828E-2,2.9901741E-2,-6.456137E-2,6.917377E-2,-3.706593E-2,2.3243682E-2,-4.5807492E-2,-4.302931E-2,-1.0891515E-2,7.203323E-2,5.3404685E-2,6.898097E-2,5.137489E-4,7.248468E-2,-7.3622905E-2,5.0090957E-2,2.6477044E-3,3.1928744E-2,6.2343874E-3,2.161645E-3,-1.916006E-2,3.6543127E-2,1.5620902E-2,-3.036725E-3,1.5713064E-2,-7.938438E-3,-6.0527414E-2,-5.3748053E-2,9.243252E-2,-7.3323056E-2,6.7896865E-2,8.212811E-2,-5.5773016E-2],"split_indices":[79,2,20,39,77,75,2,75,55,55,320,13,48,39,76,55,48,115,154,37,119,77,89,42,2,17,17,0,13,13,3,240,13,1,125,125,0,48,6,50,8,17,94,39,144,75,145,1,96,95,102,13,125,15,125,153,17,17,48,232,39,42,89,0,0,0,0,0,0,0,0,0,0,0,0,0,0,0,0,0,0,0,0,0,0,0,0,0,0,0,0,0,0,0,0,0,0,0,0,0,0,0,0,0,0,0,0,0,0,0,0,0,0,0,0,0,0,0,0,0,0,0,0,0,0,0,0],"split_type":[0,0,0,0,0,0,0,0,0,0,0,0,0,0,0,0,0,0,0,0,0,0,0,0,0,0,0,0,0,0,0,0,0,0,0,0,0,0,0,0,0,0,0,0,0,0,0,0,0,0,0,0,0,0,0,0,0,0,0,0,0,0,0,0,0,0,0,0,0,0,0,0,0,0,0,0,0,0,0,0,0,0,0,0,0,0,0,0,0,0,0,0,0,0,0,0,0,0,0,0,0,0,0,0,0,0,0,0,0,0,0,0,0,0,0,0,0,0,0,0,0,0,0,0,0,0,0],"sum_hessian":[2.8045728E5,9.608611E4,1.8437117E5,7.001274E4,2.6073363E4,2.498988E4,1.593813E5,2.7782947E4,4.2229797E4,9.531624E3,1.654174E4,4.4636914E3,2.052619E4,1.4982675E5,9.554551E3,8.603787E3,1.9179158E4,1.6234095E3,4.0606387E4,3.8235784E3,5.708045E3,1.649852E4,4.321924E1,1.1153396E3,3.3483516E3,1.0798631E4,9.727558E3,4.5442734E4,1.0438401E5,5.9295317E3,3.6250193E3,5.5321855E3,3.0716018E3,1.3301376E4,5.877783E3,1.6092715E3,1.4138061E1,3.1018555E3,3.750453E4,3.8134E3,1.0178575E1,4.540317E3,1.1677284E3,2.8111E3,1.368742E4,2.469102E1,1.852822E1,5.0030112E2,6.1503845E2,1.3545433E3,1.9938083E3,1.0341517E4,4.5711478E2,9.526539E3,2.0101935E2,9.335403E3,3.6107332E4,4.5798066E4,5.8585945E4,4.6228447E3,1.3066868E3,3.0903538E3,5.346654E2,5.50558E3,2.6605751E1,4.7347275E2,2.5981292E3,4.0608042E3,9.240571E3,2.8355278E3,3.0422554E3,1.2599197E3,3.493518E2,1.1114164E1,3.0238967E0,2.4553022E3,6.465533E2,3.6476348E4,1.0281824E3,3.7942678E3,1.9132103E1,2.142609E0,8.035966E0,2.2966204E3,2.2436963E3,1.1135713E3,5.4157127E1,2.491481E3,3.1961926E2,1.3685937E4,1.4833875E0,2.263485E1,2.056168E0,1.3770373E1,4.7578464E0,4.7178937E2,2.8511742E1,6.0778015E2,7.25829E0,1.1758463E3,1.7869702E2,8.266608E2,1.1671475E3,2.2689114E3,8.072605E3,5.7109337E1,4.0000543E2,9.521397E3,5.141393E0,1.2552753E2,7.549182E1,3.8721816E3,5.463221E3,1.6312783E4,1.9794549E4,2.5645441E4,2.0152625E4,1.5734528E4,4.2851418E4,4.261179E3,3.6166534E2,1.2453223E3,6.136451E1,3.085863E3,4.490809E0,6.3738847E0,5.2829156E2],"tree_param":{"num_deleted":"0","num_feature":"334","num_nodes":"127","size_leaf_vector":"1"}},{"base_weights":[-2.2209753E-4,-6.621976E-1,2.1859927E-1,-3.534599E-1,-1.3112156E0,1.0226028E0,1.1514269E-1,-7.4984753E-1,-8.693859E-2,-1.0997843E0,-1.4288503E0,7.1258314E-2,1.24613E0,1.8260774E-1,-8.0863017E-1,7.2453365E-2,-9.993745E-1,-4.11665E-1,8.914781E-2,-1.2084895E0,-5.5904865E-1,-1.4328687E0,-3.686262E-1,9.329179E-1,-2.0391235E-1,1.0962731E0,1.4170185E0,-1.8056931E-2,3.7643576E-1,-4.8801768E-1,-1.3773234E0,-3.4080833E-1,2.7232862E-1,-7.1334237E-1,-1.1871347E0,-4.420983E-1,8.938205E-1,-1.01136215E-1,2.3744267E-1,-1.2200506E0,9.6276784E-1,-9.740222E-1,-2.3217802E-1,-1.4343975E0,1.7313795E-1,-1.2279114E0,4.8743096E-1,1.1067172E0,-1.1946945E-1,2.0931627E-1,-4.8685738E-1,1.4034749E0,1.012144E0,1.4316571E0,1.0615488E0,-4.9445924E-1,6.414278E-2,2.4348608E-1,5.7483053E-1,-6.446102E-1,3.361121E-2,-1.4294502E0,-1.0536046E0,4.9688104E-3,-3.3483397E-2,2.5154237E-2,6.377935E-3,-5.8267504E-2,-2.0200502E-2,-6.984305E-2,-4.6925172E-2,-3.0981485E-2,-1.1471915E-2,5.8324285E-2,-1.01622455E-2,8.041761E-3,-1.6437251E-2,1.3348735E-2,-2.6253466E-2,-6.238377E-2,-2.3323154E-2,1.08630754E-1,-7.021022E-2,-5.7661027E-2,1.7509406E-2,-1.9375848E-2,6.640985E-2,-7.1751505E-2,8.9721434E-2,-6.674551E-2,8.38308E-2,-6.990046E-2,3.4074526E-2,4.396997E-2,-6.393426E-2,5.6503274E-2,-1.1181171E-1,-2.0099375E-2,7.3645376E-2,2.5812944E-2,-2.2498695E-2,-3.174125E-2,6.297057E-3,7.1046114E-2,2.9325059E-2,5.9535503E-2,3.066513E-2,7.165664E-2,-6.7837976E-2,-3.745352E-2,5.656218E-2,-4.098517E-2,-1.6616326E-2,1.3953904E-2,-4.9691782E-3,1.8760173E-2,3.4835644E-3,3.6733832E-2,1.898405E-2,-2.5729278E-2,-6.7067035E-2,-8.599659E-3,4.0497866E-2,-7.164448E-2,6.596207E-2,-5.9180688E-2,-1.2469756E-2],"categories":[],"categories_nodes":[],"categories_segments":[],"categories_sizes":[],"default_left":[0,0,0,0,0,0,0,0,0,0,0,0,0,0,0,0,0,0,0,0,0,0,0,0,0,0,0,0,0,0,0,0,0,0,0,0,0,0,0,0,0,0,0,0,0,0,0,0,0,0,0,0,0,0,0,0,0,0,0,0,0,0,0,0,0,0,0,0,0,0,0,0,0,0,0,0,0,0,0,0,0,0,0,0,0,0,0,0,0,0,0,0,0,0,0,0,0,0,0,0,0,0,0,0,0,0,0,0,0,0,0,0,0,0,0,0,0,0,0,0,0,0,0,0,0,0,0],"id":9,"left_children":[1,3,5,7,9,11,13,15,17,19,21,23,25,27,29,31,33,35,37,39,41,43,45,47,49,51,53,55,57,59,61,63,65,67,69,71,73,75,77,79,81,83,85,87,89,91,93,95,97,99,101,103,105,107,109,111,113,115,117,119,121,123,125,-1,-1,-1,-1,-1,-1,-1,-1,-1,-1,-1,-1,-1,-1,-1,-1,-1,-1,-1,-1,-1,-1,-1,-1,-1,-1,-1,-1,-1,-1,-1,-1,-1,-1,-1,-1,-1,-1,-1,-1,-1,-1,-1,-1,-1,-1,-1,-1,-1,-1,-1,-1,-1,-1,-1,-1,-1,-1,-1,-1,-1,-1,-1,-1],"loss_changes":[4.0404684E4,1.3885002E4,1.7437309E4,4.9610674E3,5.540117E2,5.0822363E3,1.1575742E4,3.874004E3,1.6057052E3,4.6896484E2,6.060547E1,1.0785747E3,4.9404492E2,6.7325034E3,2.3042969E3,3.6323157E2,7.7706445E2,3.9267102E2,5.138343E2,1.6813867E2,1.8142627E2,3.5341797E1,4.144448E1,2.0152155E2,4.0325653E2,2.6517383E2,4.551367E1,3.3305767E3,2.3222656E3,6.604861E2,7.5390625E1,2.0759131E2,9.894354E1,8.02478E2,4.545918E2,3.641532E2,6.761847E1,4.756307E2,2.3058612E2,1.3716309E2,1.0553491E2,1.403526E2,1.8241039E2,3.175E1,3.508275E1,1.0045322E1,2.0876013E1,7.629382E1,7.120776E1,2.839681E2,1.8568942E2,3.073877E1,5.7623535E2,3.7654297E1,4.6447296E1,6.5969604E2,2.5494585E3,1.2069971E3,1.1017402E3,5.626892E2,2.9828265E2,3.897168E1,6.6183716E1,0E0,0E0,0E0,0E0,0E0,0E0,0E0,0E0,0E0,0E0,0E0,0E0,0E0,0E0,0E0,0E0,0E0,0E0,0E0,0E0,0E0,0E0,0E0,0E0,0E0,0E0,0E0,0E0,0E0,0E0,0E0,0E0,0E0,0E0,0E0,0E0,0E0,0E0,0E0,0E0,0E0,0E0,0E0,0E0,0E0,0E0,0E0,0E0,0E0,0E0,0E0,0E0,0E0,0E0,0E0,0E0,0E0,0E0,0E0,0E0,0E0,0E0,0E0,0E0],"parents":[2147483647,0,0,1,1,2,2,3,3,4,4,5,5,6,6,7,7,8,8,9,9,10,10,11,11,12,12,13,13,14,14,15,15,16,16,17,17,18,18,19,19,20,20,21,21,22,22,23,23,24,24,25,25,26,26,27,27,28,28,29,29,30,30,31,31,32,32,33,33,34,34,35,35,36,36,37,37,38,38,39,39,40,40,41,41,42,42,43,43,44,44,45,45,46,46,47,47,48,48,49,49,50,50,51,51,52,52,53,53,54,54,55,55,56,56,57,57,58,58,59,59,60,60,61,61,62,62],"right_children":[2,4,6,8,10,12,14,16,18,20,22,24,26,28,30,32,34,36,38,40,42,44,46,48,50,52,54,56,58,60,62,64,66,68,70,72,74,76,78,80,82,84,86,88,90,92,94,96,98,100,102,104,106,108,110,112,114,116,118,120,122,124,126,-1,-1,-1,-1,-1,-1,-1,-1,-1,-1,-1,-1,-1,-1,-1,-1,-1,-1,-1,-1,-1,-1,-1,-1,-1,-1,-1,-1,-1,-1,-1,-1,-1,-1,-1,-1,-1,-1,-1,-1,-1,-1,-1,-1,-1,-1,-1,-1,-1,-1,-1,-1,-1,-1,-1,-1,-1,-1,-1,-1,-1,-1,-1,-1],"split_conditions":[-6.5483696E1,1E0,4.770254E1,3E0,1.1889691E3,1.3434143E1,1E0,1E1,1E0,3E0,1.39E2,1E0,3E0,2E0,1.4166924E3,1E0,3E0,8.9E1,4E0,2.5688628E3,1E0,2E0,2E0,1E0,1E0,1E0,2E0,0E0,2.5431042E2,1E0,1E0,-1.22560425E2,-4.769593E2,5.642619E1,4.6952283E2,4E0,8.56524E2,2.8E1,2E0,2E0,6.2522253E2,1E0,2E0,2E1,2E0,2E0,1.015E2,2.9997546E3,1.2036723E-1,5.949908E2,4E0,8.228913E2,1E0,4E0,-2.18607E3,-7.5E1,4E0,8.0672E2,3E0,3E0,8E0,1E0,1E0,4.9688104E-3,-3.3483397E-2,2.5154237E-2,6.377935E-3,-5.8267504E-2,-2.0200502E-2,-6.984305E-2,-4.6925172E-2,-3.0981485E-2,-1.1471915E-2,5.8324285E-2,-1.01622455E-2,8.041761E-3,-1.6437251E-2,1.3348735E-2,-2.6253466E-2,-6.238377E-2,-2.3323154E-2,1.08630754E-1,-7.021022E-2,-5.7661027E-2,1.7509406E-2,-1.9375848E-2,6.640985E-2,-7.1751505E-2,8.9721434E-2,-6.674551E-2,8.38308E-2,-6.990046E-2,3.4074526E-2,4.396997E-2,-6.393426E-2,5.6503274E-2,-1.1181171E-1,-2.0099375E-2,7.3645376E-2,2.5812944E-2,-2.2498695E-2,-3.174125E-2,6.297057E-3,7.1046114E-2,2.9325059E-2,5.9535503E-2,3.066513E-2,7.165664E-2,-6.7837976E-2,-3.745352E-2,5.656218E-2,-4.098517E-2,-1.6616326E-2,1.3953904E-2,-4.9691782E-3,1.8760173E-2,3.4835644E-3,3.6733832E-2,1.898405E-2,-2.5729278E-2,-6.7067035E-2,-8.599659E-3,4.0497866E-2,-7.164448E-2,6.596207E-2,-5.9180688E-2,-1.2469756E-2],"split_indices":[79,2,20,48,77,75,2,1,39,52,81,13,48,39,76,39,13,154,48,145,39,294,48,52,2,13,17,154,79,119,3,146,125,55,55,48,89,1,199,49,153,87,68,144,39,39,1,117,93,124,151,55,2,15,146,154,17,54,13,17,154,42,87,0,0,0,0,0,0,0,0,0,0,0,0,0,0,0,0,0,0,0,0,0,0,0,0,0,0,0,0,0,0,0,0,0,0,0,0,0,0,0,0,0,0,0,0,0,0,0,0,0,0,0,0,0,0,0,0,0,0,0,0,0,0,0,0],"split_type":[0,0,0,0,0,0,0,0,0,0,0,0,0,0,0,0,0,0,0,0,0,0,0,0,0,0,0,0,0,0,0,0,0,0,0,0,0,0,0,0,0,0,0,0,0,0,0,0,0,0,0,0,0,0,0,0,0,0,0,0,0,0,0,0,0,0,0,0,0,0,0,0,0,0,0,0,0,0,0,0,0,0,0,0,0,0,0,0,0,0,0,0,0,0,0,0,0,0,0,0,0,0,0,0,0,0,0,0,0,0,0,0,0,0,0,0,0,0,0,0,0,0,0,0,0,0,0],"sum_hessian":[2.7893112E5,6.9295945E4,2.0963519E5,4.695907E4,2.2336871E4,2.3898812E4,1.8573638E5,1.8879078E4,2.8079992E4,7.98869E3,1.4348181E4,4.54716E3,1.9351654E4,1.7309564E5,1.2640732E4,4.395311E3,1.4483768E4,9.872489E3,1.8207504E4,6.6504917E3,1.3381985E3,1.4293653E4,5.452761E1,1.1000651E3,3.4470947E3,1.0314228E4,9.037426E3,8.504837E4,8.804727E4,8.0846836E3,4.5560483E3,1.4325886E3,2.9627227E3,5.741707E3,8.742061E3,9.648232E3,2.2425679E2,7.9748813E3,1.0232622E4,6.615704E3,3.478763E1,5.8876337E2,7.494351E2,1.4280167E4,1.34861145E1,2.6995718E1,2.7531895E1,9.440979E2,1.5596724E2,1.4011044E3,2.0459905E3,2.2140012E3,8.100226E3,8.677069E3,3.603571E2,1.2514347E4,7.253402E4,5.2720246E4,3.5327027E4,6.2178535E3,1.86683E3,3.9212195E3,6.348292E2,6.1290375E2,8.196849E2,1.141212E3,1.8215105E3,2.3317307E3,3.4099763E3,4.739537E3,4.002523E3,5.2573843E3,4.3908486E3,1.7956448E2,4.469231E1,3.7077068E3,4.2671743E3,9.851716E3,3.8090616E2,6.38113E3,2.345743E2,2.3075167E1,1.171246E1,5.186996E2,7.0063736E1,6.822656E2,6.7169464E1,1.4277925E4,2.2419155E0,6.788799E0,6.6973157E0,2.5033457E1,1.9622602E0,2.2942215E1,4.589679E0,9.382071E2,5.8907623E0,1.3310027E2,2.2866972E1,9.561644E2,4.4493997E2,1.6480201E3,3.9797037E2,2.1669836E3,4.7017513E1,5.59382E3,2.5064062E3,8.672965E3,4.1040835E0,1.2995505E1,3.4736157E2,4.1617236E3,8.352623E3,3.1340318E4,4.1193707E4,2.9991463E4,2.2728781E4,1.9418586E4,1.5908441E4,5.24143E3,9.764235E2,1.4765618E3,3.9026825E2,3.9167969E3,4.4224615E0,5.46078E2,8.875121E1],"tree_param":{"num_deleted":"0","num_feature":"334","num_nodes":"127","size_leaf_vector":"1"}},{"base_weights":[-2.567054E-4,-6.7204046E-1,1.9763131E-1,-1.0466193E0,-1.5453912E-1,9.901154E-1,1.00178294E-1,5.632638E-2,-1.1650155E0,-9.2328876E-2,-1.1578285E0,6.815552E-2,1.2101525E0,1.671165E-1,-7.9370165E-1,-3.7561804E-1,2.6038158E-1,-1.3605535E0,-1.0163964E0,-4.0715507E-1,8.1158504E-2,-8.3961594E-1,-1.383724E0,-1.3180442E-1,1.1716827E0,1.0598551E0,1.383167E0,-1.1560661E-1,2.9416394E-1,-4.7594774E-1,-1.3221664E0,7.873174E-2,-6.9239044E-1,4.4082928E-1,9.754961E-2,-1.2861376E0,-1.4429783E0,-7.0313674E-1,-1.1952809E0,-9.8627734E-1,-3.4140384E-1,-1.05872735E-1,2.2947617E-1,-9.320235E-1,8.039276E-1,-1.403772E0,-2.56083E-2,-2.820914E-1,4.0429375E-1,-8.930503E-2,1.2521302E0,1.3695014E0,9.760312E-1,1.39797E0,1.0270082E0,-3.1703043E-1,9.890249E-2,2.5185335E-1,8.816776E-1,-6.286537E-1,3.5424408E-2,-1.3851115E0,-9.626897E-1,-2.1750515E-2,2.7116189E-2,-6.289493E-2,-2.9321192E-2,-3.1528596E-4,2.4904346E-2,7.466747E-3,-1.8793268E-2,1.4277537E-2,-6.4603806E-2,-7.234894E-2,-5.4392684E-2,-2.822846E-2,-6.892911E-2,-5.2717924E-2,-6.9573425E-2,-1.1857863E-2,-5.4442167E-2,-1.8588483E-2,4.190528E-2,9.644556E-3,-1.4175932E-2,1.4241648E-2,-1.1198319E-2,-5.0954003E-2,2.8550042E-2,9.594235E-2,-9.947616E-3,-7.063183E-2,2.7778182E-2,-6.486948E-2,1.19243756E-1,3.2440856E-2,-2.0554168E-2,-5.662861E-3,6.943744E-2,5.158822E-2,-4.8763335E-2,6.39772E-2,-4.266451E-2,6.920598E-2,2.0401722E-2,5.7593394E-2,2.9360825E-2,6.9971375E-2,-6.5847866E-2,5.5653162E-2,-2.1634428E-2,-5.864185E-3,-2.9593194E-2,2.1360112E-2,-3.9915917E-3,-1.7371217E-2,1.4350754E-2,6.773864E-3,4.6781305E-2,-3.503296E-2,2.2131024E-2,7.0855552E-3,-6.8073496E-2,-6.9429025E-2,6.77548E-2,-3.5272297E-2,-6.642333E-2],"categories":[],"categories_nodes":[],"categories_segments":[],"categories_sizes":[],"default_left":[0,0,0,0,0,0,0,0,0,0,0,0,0,0,0,0,0,0,0,0,0,0,0,0,0,0,0,0,0,0,0,0,0,0,0,0,0,0,0,0,0,0,0,0,0,0,0,0,0,0,0,0,0,0,0,0,0,0,0,0,0,0,0,0,0,0,0,0,0,0,0,0,0,0,0,0,0,0,0,0,0,0,0,0,0,0,0,0,0,0,0,0,0,0,0,0,0,0,0,0,0,0,0,0,0,0,0,0,0,0,0,0,0,0,0,0,0,0,0,0,0,0,0,0,0,0,0],"id":10,"left_children":[1,3,5,7,9,11,13,15,17,19,21,23,25,27,29,31,33,35,37,39,41,43,45,47,49,51,53,55,57,59,61,63,65,67,69,71,73,75,77,79,81,83,85,87,89,91,93,95,97,99,101,103,105,107,109,111,113,115,117,119,121,123,125,-1,-1,-1,-1,-1,-1,-1,-1,-1,-1,-1,-1,-1,-1,-1,-1,-1,-1,-1,-1,-1,-1,-1,-1,-1,-1,-1,-1,-1,-1,-1,-1,-1,-1,-1,-1,-1,-1,-1,-1,-1,-1,-1,-1,-1,-1,-1,-1,-1,-1,-1,-1,-1,-1,-1,-1,-1,-1,-1,-1,-1,-1,-1,-1],"loss_changes":[3.687587E4,1.2235068E4,1.65482E4,4.781461E3,1.6541545E3,4.7599395E3,1.1417197E4,3.1303397E2,9.5953516E2,1.3631921E3,1.1006909E2,9.9799243E2,4.9112305E2,6.3763306E3,2.2316396E3,1.640624E2,7.082475E1,8.571094E1,1.0521484E3,3.3730737E2,4.464091E2,9.87045E1,2.4562012E1,3.0863025E2,7.049304E1,2.6188672E2,4.497461E1,2.378123E3,3.044375E3,6.4842944E2,1.1160254E2,1.1193883E2,3.9503296E1,2.928598E1,3.1169655E1,7.047949E1,8.038086E0,6.387102E2,3.2917578E2,6.9166504E1,2.8557788E2,3.7782104E2,2.2534665E2,8.054303E1,3.9370586E1,1.6247559E1,4.6504795E1,3.5947284E2,4.2755035E2,4.325938E1,3.8738403E1,2.9765625E1,5.451909E2,3.5273438E1,4.5078674E1,1.5582175E3,1.5640835E3,2.4075918E3,3.3108545E2,4.9353247E2,2.838211E2,4.223535E1,6.935162E1,0E0,0E0,0E0,0E0,0E0,0E0,0E0,0E0,0E0,0E0,0E0,0E0,0E0,0E0,0E0,0E0,0E0,0E0,0E0,0E0,0E0,0E0,0E0,0E0,0E0,0E0,0E0,0E0,0E0,0E0,0E0,0E0,0E0,0E0,0E0,0E0,0E0,0E0,0E0,0E0,0E0,0E0,0E0,0E0,0E0,0E0,0E0,0E0,0E0,0E0,0E0,0E0,0E0,0E0,0E0,0E0,0E0,0E0,0E0,0E0,0E0,0E0,0E0,0E0],"parents":[2147483647,0,0,1,1,2,2,3,3,4,4,5,5,6,6,7,7,8,8,9,9,10,10,11,11,12,12,13,13,14,14,15,15,16,16,17,17,18,18,19,19,20,20,21,21,22,22,23,23,24,24,25,25,26,26,27,27,28,28,29,29,30,30,31,31,32,32,33,33,34,34,35,35,36,36,37,37,38,38,39,39,40,40,41,41,42,42,43,43,44,44,45,45,46,46,47,47,48,48,49,49,50,50,51,51,52,52,53,53,54,54,55,55,56,56,57,57,58,58,59,59,60,60,61,61,62,62],"right_children":[2,4,6,8,10,12,14,16,18,20,22,24,26,28,30,32,34,36,38,40,42,44,46,48,50,52,54,56,58,60,62,64,66,68,70,72,74,76,78,80,82,84,86,88,90,92,94,96,98,100,102,104,106,108,110,112,114,116,118,120,122,124,126,-1,-1,-1,-1,-1,-1,-1,-1,-1,-1,-1,-1,-1,-1,-1,-1,-1,-1,-1,-1,-1,-1,-1,-1,-1,-1,-1,-1,-1,-1,-1,-1,-1,-1,-1,-1,-1,-1,-1,-1,-1,-1,-1,-1,-1,-1,-1,-1,-1,-1,-1,-1,-1,-1,-1,-1,-1,-1,-1,-1,-1,-1,-1,-1],"split_conditions":[-8.242827E1,3E0,4.770254E1,1E1,1E0,1.3434143E1,1E0,1E0,5.642619E1,1E0,1.2569523E3,1E0,3E0,1E0,1.3472012E3,-9.284082E1,-3.9614374E2,3E0,3E0,-3.3E1,4E0,5E0,6E0,4E0,5.0164044E2,1E0,2E0,4E0,7.5E1,1E0,1E0,-7.555959E2,-3.5816797E2,-1.8431233E3,2.2727795E3,-2.419946E3,8E0,2.0852568E3,1.580971E3,3E0,8.9E1,2E1,1E0,1E0,-7.074951E1,2E0,2.1526165E3,-1.5195038E3,3.8729898E2,1.3E1,2.983083E3,8.86113E2,1E0,4E0,1.8811238E3,3E0,3E0,-4.7E1,3E0,3E0,1.4454258E3,1E0,1.8123932E3,-2.1750515E-2,2.7116189E-2,-6.289493E-2,-2.9321192E-2,-3.1528596E-4,2.4904346E-2,7.466747E-3,-1.8793268E-2,1.4277537E-2,-6.4603806E-2,-7.234894E-2,-5.4392684E-2,-2.822846E-2,-6.892911E-2,-5.2717924E-2,-6.9573425E-2,-1.1857863E-2,-5.4442167E-2,-1.8588483E-2,4.190528E-2,9.644556E-3,-1.4175932E-2,1.4241648E-2,-1.1198319E-2,-5.0954003E-2,2.8550042E-2,9.594235E-2,-9.947616E-3,-7.063183E-2,2.7778182E-2,-6.486948E-2,1.19243756E-1,3.2440856E-2,-2.0554168E-2,-5.662861E-3,6.943744E-2,5.158822E-2,-4.8763335E-2,6.39772E-2,-4.266451E-2,6.920598E-2,2.0401722E-2,5.7593394E-2,2.9360825E-2,6.9971375E-2,-6.5847866E-2,5.5653162E-2,-2.1634428E-2,-5.864185E-3,-2.9593194E-2,2.1360112E-2,-3.9915917E-3,-1.7371217E-2,1.4350754E-2,6.773864E-3,4.6781305E-2,-3.503296E-2,2.2131024E-2,7.0855552E-3,-6.8073496E-2,-6.9429025E-2,6.77548E-2,-3.5272297E-2,-6.642333E-2],"split_indices":[79,48,20,1,2,75,2,39,55,39,76,42,48,39,76,146,139,13,13,154,48,52,108,151,76,13,17,48,154,119,3,54,53,146,131,89,101,76,77,13,154,1,199,68,75,43,19,89,109,0,96,55,2,15,124,13,13,154,48,39,95,42,76,0,0,0,0,0,0,0,0,0,0,0,0,0,0,0,0,0,0,0,0,0,0,0,0,0,0,0,0,0,0,0,0,0,0,0,0,0,0,0,0,0,0,0,0,0,0,0,0,0,0,0,0,0,0,0,0,0,0,0,0,0,0,0,0],"split_type":[0,0,0,0,0,0,0,0,0,0,0,0,0,0,0,0,0,0,0,0,0,0,0,0,0,0,0,0,0,0,0,0,0,0,0,0,0,0,0,0,0,0,0,0,0,0,0,0,0,0,0,0,0,0,0,0,0,0,0,0,0,0,0,0,0,0,0,0,0,0,0,0,0,0,0,0,0,0,0,0,0,0,0,0,0,0,0,0,0,0,0,0,0,0,0,0,0,0,0,0,0,0,0,0,0,0,0,0,0,0,0,0,0,0,0,0,0,0,0,0,0,0,0,0,0,0,0],"sum_hessian":[2.773896E5,6.3117613E4,2.1427198E5,3.6614332E4,2.650328E4,2.346296E4,1.9080903E5,3.5494238E3,3.306491E4,2.4956887E4,1.5463918E3,4.5210356E3,1.8941926E4,1.7751652E5,1.3292512E4,1.1385334E3,2.4108904E3,1.4275057E4,1.8789854E4,8.866171E3,1.6090717E4,6.439687E2,9.0242316E2,3.828237E3,6.927988E2,1.0140242E4,8.801683E3,5.5038195E4,1.2247832E5,8.302379E3,4.990133E3,4.6801144E2,6.70522E2,1.1427769E3,1.2681135E3,7.510724E3,6.764333E3,6.8315234E3,1.1958329E4,9.0256604E2,7.9636045E3,7.116707E3,8.97401E3,6.1009906E2,3.3869663E1,8.892626E2,1.3160549E1,2.990398E3,8.378389E2,4.1541374E1,6.5125745E2,2.156984E3,7.983259E3,8.44765E3,3.5403177E2,2.8384605E4,2.665359E4,1.1425176E5,8.226566E3,6.393055E3,1.9093237E3,4.2441255E3,7.460071E2,2.220274E2,2.4598404E2,1.0410074E2,5.6642126E2,1.2982668E2,1.01295013E3,1.1436931E3,1.24420334E2,2.80948E1,7.4826294E3,6.6859424E3,7.8390396E1,5.670133E3,1.161391E3,6.963086E3,4.995243E3,1.0909217E2,7.934739E2,7.7643994E3,1.9920532E2,2.6536792E3,4.4630283E3,7.997979E3,9.760308E2,5.770006E2,3.3098427E1,1.5606408E1,1.8263256E1,8.8553516E2,3.727406E0,8.917441E0,4.243108E0,3.6344672E2,2.6269514E3,5.497221E2,2.8811685E2,1.8264921E1,2.3276455E1,6.432739E2,7.9835167E0,2.124247E3,3.273679E1,5.495861E3,2.487398E3,8.443603E3,4.048338E0,3.345464E2,1.9485392E1,1.6438594E4,1.1946012E4,9.395154E3,1.7258436E4,6.331537E3,1.0792022E5,5.548966E2,7.6716694E3,5.990735E3,4.023203E2,1.7751545E3,1.3416916E2,4.239252E3,4.873465E0,4.3970187E2,3.063052E2],"tree_param":{"num_deleted":"0","num_feature":"334","num_nodes":"127","size_leaf_vector":"1"}},{"base_weights":[-2.8749675E-4,-4.8888087E-1,2.511651E-1,-2.35123E-1,-1.2081418E0,8.325114E-1,1.19494945E-1,-4.548322E-1,7.565832E-2,-9.591039E-1,-1.3546203E0,3.1978813E-1,1.0622278E0,-1.5331951E-1,3.0796987E-1,-1.2039478E0,-3.5661703E-1,1.1975554E-1,-6.101397E-1,-1.2553232E0,-7.673656E-1,-1.3586936E0,-3.807568E-1,1.1203237E0,1.217973E-1,1.1731781E0,4.8300794E-1,-6.297195E-2,-7.428892E-1,5.5602354E-1,1.787479E-1,-7.120323E-1,-1.2851522E0,-8.000465E-1,-2.6327315E-1,1.563703E-1,-6.3529944E-1,-2.6878312E-2,-8.97582E-1,-1.2645057E0,4.3893766E-1,-1.02937E0,-5.4627496E-1,-1.2518187E0,-1.3906691E0,-1.0213914E0,6.078161E-1,1.2246401E0,3.5291502E-1,-1.3186456E-1,3.5042486E-1,9.857642E-1,1.30811E0,9.257199E-2,9.049471E-1,-3.2491505E-1,8.833265E-2,-3.4205613E-1,-1.2296321E0,8.339809E-1,2.8798586E-1,3.5169494E-1,1.7285299E-2,4.2395618E-2,-4.2483818E-2,5.5906802E-2,-6.497413E-2,-2.4598105E-2,-4.565777E-2,-1.9712348E-2,1.927426E-4,1.8764641E-2,2.3308692E-3,-4.8333835E-2,3.3669658E-3,-1.797427E-2,5.8871564E-2,-4.844691E-2,6.293924E-2,-6.3555695E-2,5.0379783E-2,1.0369104E-1,-4.4816602E-2,-5.6668937E-2,-1.932167E-2,-2.9374873E-2,6.2914014E-2,-6.530472E-2,-4.2274617E-2,-6.95542E-2,6.883971E-2,-6.872874E-2,9.236048E-3,6.790387E-2,-3.823745E-2,4.7996327E-2,6.6392444E-2,1.8260994E-3,6.855326E-2,8.408055E-3,-2.146875E-2,3.297829E-2,2.5552786E-3,5.4464873E-2,1.9072305E-2,6.570541E-2,-8.54388E-2,8.705763E-3,-7.321622E-2,1.6141841E-2,5.0884075E-2,-2.0433119E-2,1.6389817E-2,-2.9639844E-2,6.996756E-3,-1.0457493E-2,-4.3774586E-2,-4.4724386E-2,-6.779154E-2,5.3084582E-2,1.4693332E-2,2.3884589E-2,1.0201704E-4,2.3483275E-2,8.60219E-3,-1.41353225E-2,6.288912E-3],"categories":[],"categories_nodes":[],"categories_segments":[],"categories_sizes":[],"default_left":[0,0,0,0,0,0,0,0,0,0,0,0,0,0,0,0,0,0,0,0,0,0,0,0,0,0,0,0,0,0,0,0,0,0,0,0,0,0,0,0,0,0,0,0,0,0,0,0,0,0,0,0,0,0,0,0,0,0,0,0,0,0,0,0,0,0,0,0,0,0,0,0,0,0,0,0,0,0,0,0,0,0,0,0,0,0,0,0,0,0,0,0,0,0,0,0,0,0,0,0,0,0,0,0,0,0,0,0,0,0,0,0,0,0,0,0,0,0,0,0,0,0,0,0,0,0,0],"id":11,"left_children":[1,3,5,7,9,11,13,15,17,19,21,23,25,27,29,31,33,35,37,39,41,43,45,47,49,51,53,55,57,59,61,63,65,67,69,71,73,75,77,79,81,83,85,87,89,91,93,95,97,99,101,103,105,107,109,111,113,115,117,119,121,123,125,-1,-1,-1,-1,-1,-1,-1,-1,-1,-1,-1,-1,-1,-1,-1,-1,-1,-1,-1,-1,-1,-1,-1,-1,-1,-1,-1,-1,-1,-1,-1,-1,-1,-1,-1,-1,-1,-1,-1,-1,-1,-1,-1,-1,-1,-1,-1,-1,-1,-1,-1,-1,-1,-1,-1,-1,-1,-1,-1,-1,-1,-1,-1,-1],"loss_changes":[3.388208E4,1.7102617E4,1.3937165E4,4.7298037E3,8.9014844E2,3.9598477E3,7.6333936E3,2.985248E3,8.6768945E2,5.132637E2,6.051172E1,1.6490018E3,1.4916328E3,3.2309058E3,2.814208E3,1.8696094E2,1.4848325E3,7.453534E2,2.905962E2,5.5878418E1,3.1796387E2,5.061328E1,4.2084194E1,1.647146E2,4.8387823E2,4.9147852E2,6.1512695E2,2.0846453E3,1.572104E3,2.240206E3,1.6120221E3,1.4428967E2,1.404414E2,2.1694873E2,1.0370232E3,6.1774866E2,2.9040414E2,2.3006114E2,1.7988788E2,5.438916E1,4.5325283E1,1.6776978E2,2.2274115E2,7.692432E1,1.54453125E1,1.7335373E1,2.8195118E1,4.8331543E1,7.992745E1,3.531513E2,4.060136E2,5.101836E2,2.0720508E2,2.4664017E2,1.17446045E2,1.0528363E3,1.1719382E3,3.1328394E2,1.527207E2,1.815291E3,8.3053296E2,5.9064185E2,9.7177075E2,0E0,0E0,0E0,0E0,0E0,0E0,0E0,0E0,0E0,0E0,0E0,0E0,0E0,0E0,0E0,0E0,0E0,0E0,0E0,0E0,0E0,0E0,0E0,0E0,0E0,0E0,0E0,0E0,0E0,0E0,0E0,0E0,0E0,0E0,0E0,0E0,0E0,0E0,0E0,0E0,0E0,0E0,0E0,0E0,0E0,0E0,0E0,0E0,0E0,0E0,0E0,0E0,0E0,0E0,0E0,0E0,0E0,0E0,0E0,0E0,0E0,0E0,0E0,0E0],"parents":[2147483647,0,0,1,1,2,2,3,3,4,4,5,5,6,6,7,7,8,8,9,9,10,10,11,11,12,12,13,13,14,14,15,15,16,16,17,17,18,18,19,19,20,20,21,21,22,22,23,23,24,24,25,25,26,26,27,27,28,28,29,29,30,30,31,31,32,32,33,33,34,34,35,35,36,36,37,37,38,38,39,39,40,40,41,41,42,42,43,43,44,44,45,45,46,46,47,47,48,48,49,49,50,50,51,51,52,52,53,53,54,54,55,55,56,56,57,57,58,58,59,59,60,60,61,61,62,62],"right_children":[2,4,6,8,10,12,14,16,18,20,22,24,26,28,30,32,34,36,38,40,42,44,46,48,50,52,54,56,58,60,62,64,66,68,70,72,74,76,78,80,82,84,86,88,90,92,94,96,98,100,102,104,106,108,110,112,114,116,118,120,122,124,126,-1,-1,-1,-1,-1,-1,-1,-1,-1,-1,-1,-1,-1,-1,-1,-1,-1,-1,-1,-1,-1,-1,-1,-1,-1,-1,-1,-1,-1,-1,-1,-1,-1,-1,-1,-1,-1,-1,-1,-1,-1,-1,-1,-1,-1,-1,-1,-1,-1,-1,-1,-1,-1,-1,-1,-1,-1,-1,-1,-1,-1,-1,-1,-1],"split_conditions":[0E0,1E0,1.3809474E2,2E0,1.1477781E3,2.4177075E2,4E0,5.642619E1,1E0,